tree
version=v4
num_class=1
num_tree_per_iteration=1
label_index=0
max_feature_idx=17
objective=regression_l1
feature_names=Column_0 Column_1 Column_2 Column_3 Column_4 Column_5 Column_6 Column_7 Column_8 Column_9 Column_10 Column_11 Column_12 Column_13 Column_14 Column_15 Column_16 Column_17
feature_infos=[-2.0669529438018799:5.2237658500671387] [-2.139570951461792:6.767667293548584] [-1.6986894607543945:6.8452043533325195] [-4.0935964584350586:3.3877065181732178] [-4.1814632415771484:1.8669424057006836] [-2.6982808113098145:2.3290958404541016] [-7.4585380554199219:3.4671652317047119] [-4.3983321189880371:3.9741833209991455] [-5.4813399314880371:2.8210110664367676] [-3.7654209136962891:2.0127725601196289] [-1.3160346746444702:2.1152396202087402] [-2.444188117980957:13.736030578613281] [-0.091407917439937592:17.897577285766602] [-16.30531120300293:1.2808619737625122] [-1.0580980777740479:4.7727446556091309] [-1.1140083074569702:9.8978481292724609] [-2.0370163917541504:5.0082697868347168] [-4.069861888885498:6.1132092475891113]
tree_sizes=2524 2774 2824 2823 2834 2822 2820 2815 2818 2837 2816 2834 2831 2826 2828 2840 2849 2838 2808 2832 2829 2845 2844 2847 2807 2849 2848 2855 2842 2851 2837 2849 2827 2819 2817 2826 2827 2832 2840 2854 2828 2839 2830 2836 2855 2838 2843 2849 2842 2847 2840 2831 2829 2849 2856 2863 2838 2859 2859 2841 2836 2858 2828 2846 2841 2839 2839 2835 2813 2816 2828 2836 2847 2818 2832 2846 2861 2842 2824 2813 2834 2843 2839 2840 2812 2828 2837 2855 2827 2844 2828 2818 2855 2838 2852 2838 2849 2833 2824 2812 2819 2821 2819 2824 2831 2843 2839 2830 2833 2831 2832 2844 2851 2826 2843 2822 2817 2831 2832 2832 2836 2804 2855 2817 2814 2853 2876 2832 2847 2825 2846 2836 2825 2852 2861 2843 2853 2818 2834 2831 2820 2826 2830 2849 2865 2846 2852 2826 2822 2819 2846 2855 2854 2865 2856 2810 2824 2835 2824 2835 2810 2847 2832 2835 2823 2826 2843 2808 2843 2830 2827 2841 2828 2853 2832 2829 2869 2821 2830 2829 2796 2803 2829 2839 2811 2853 2833

Tree=0
num_leaves=31
num_cat=0
split_feature=5 13 13 5 5 5 5 10 10 13 9 5 9 13 2 4 13 2 9 7 13 2 3 15 16 2 11 3 5 13
split_gain=1337.61 179.915 134.722 65.9587 55.4583 41.2239 29.7835 17.6998 15.2685 12.3873 14.2817 12.8121 11.5391 11.142 10.1889 9.2296 8.52916 8.40727 8.02139 10.1626 7.68 7.64456 7.03795 6.49266 6.12334 5.94398 6.21231 5.6194 5.45195 5.40745
threshold=-0.034968197811394923 0.19098865985870364 0.60226106643676769 0.62337875366210949 -0.51376599073410023 0.8029279112815858 -0.45391625165939326 -1.1115142107009885 -0.69553110003471363 0.6632458269596101 0.98965030908584606 0.20443069189786914 0.0766020603477955 -0.020434346050024029 -0.46888655424118036 -0.064175008796155439 -0.13383153825998303 0.30783110857009893 0.45314913988113409 0.65899011492729198 0.81771671772003185 1.0000000180025095e-35 0.46124894917011267 -0.69839781522750843 0.42986682057380682 -0.080527721904218183 0.27220971882343298 0.74502778053283703 -0.27436709403991694 0.38637334108352667
decision_type=2 2 2 2 2 2 2 2 2 2 2 2 2 2 2 2 2 2 2 2 2 2 2 2 2 2 2 2 2 2
left_child=2 3 4 7 14 9 20 17 13 10 11 -3 22 -6 -1 28 -10 -2 -5 21 -4 -20 -9 -8 -12 26 -7 -14 -15 -16
right_child=1 5 6 18 8 25 23 12 16 -11 24 -13 27 15 29 -17 -18 -19 19 -21 -22 -23 -24 -25 -26 -27 -28 -29 -30 -31
leaf_value=5.7999999999999998 6 6 5.9500000000000002 6.0999999999999996 5.9500000000000002 6.0999999999999996 6 5.9500000000000002 5.8499999999999996 6.0999999999999996 6 6.0499999999999998 5.9500000000000002 6 5.9000000000000004 5.9500000000000002 5.9500000000000002 6.0499999999999998 5.9500000000000002 6.0499999999999998 6 6.0499999999999998 6.0499999999999998 6.0499999999999998 5.9000000000000004 6.0999999999999996 6.0999999999999996 6 6.0499999999999998 5.9500000000000002
leaf_weight=802 50 82 75 85 138 36 33 64 115 261 32 160 98 25 250 38 177 22 25 28 25 27 27 78 21 621 25 31 29 40
leaf_count=802 50 82 75 85 138 36 33 64 115 261 32 160 98 25 250 38 177 22 25 28 25 27 27 78 21 621 25 31 29 40
internal_value=5.99592 6.02791 5.96622 6.00109 5.96131 6.0378 6.00379 5.98682 5.97471 6.0277 6.02068 6.02583 5.97977 5.98435 5.9549 5.99783 5.96712 6.00833 6.02636 6.015 5.984 6.00192 5.99341 6.02162 5.99717 6.04604 6.03115 5.97016 6.01111 5.96293
internal_weight=3520 1695 1825 457 1614 1238 211 292 522 556 295 242 220 230 1092 92 292 72 165 80 100 52 91 111 53 682 61 129 54 290
internal_count=3520 1695 1825 457 1614 1238 211 292 522 556 295 242 220 230 1092 92 292 72 165 80 100 52 91 111 53 682 61 129 54 290
is_linear=0
shrinkage=1


Tree=1
num_leaves=31
num_cat=0
split_feature=5 5 13 5 13 10 17 13 13 10 13 3 1 0 13 13 0 9 1 16 9 15 9 14 16 1 17 14 14 0
split_gain=1157.05 192.559 93.172 84.1545 45.8705 26.2296 26.1727 19.0588 18.4576 17.5507 16.5904 15.2631 14.0787 13.4975 11.936 11.8576 10.8885 12.293 10.778 10.6039 10.2217 9.9664 9.79772 8.90633 10.0937 8.53359 8.22289 7.16782 8.93974 7.1718
threshold=-0.15466764196753499 0.8029279112815858 0.12343294546008111 -0.75316488742828358 0.39172470569610601 -1.2243891358375547 0.83063462376594555 -0.42984011769294733 0.39172470569610601 0.42050772905349737 0.57084664702415477 1.0000000180025095e-35 -1.0439177751541135 0.89865329861640941 0.90872222185134899 -0.71013543009757985 0.38247019052505499 0.60730290412902843 -0.366019457578659 0.9695735275745393 0.55510801076889049 -0.71177256107330311 1.2191863656044009 -0.86771991848945607 -0.69570341706275929 1.1313618421554568 -0.14041814208030698 0.14531368762254718 -0.18011257797479627 -0.79706671833991993
decision_type=2 2 2 2 2 2 2 2 2 2 2 2 2 2 2 2 2 2 2 2 2 2 2 2 2 2 2 2 2 2
left_child=3 2 9 10 5 7 11 -5 22 15 -1 14 -11 23 21 -2 18 -18 -7 25 -8 -4 -3 -6 -25 27 -23 28 29 -17
right_child=1 8 6 4 13 16 20 -9 -10 12 -12 -13 -14 -15 -16 19 17 -19 -20 -21 -22 26 -24 24 -26 -27 -28 -29 -30 -31
leaf_value=-0.19 -0.047500000000000014 0.095000000000000029 -0.0049999999999999828 -0.097500000000000017 0.025000000000000001 -0.13999999999999999 0.045000000000000019 0.0024999999999999914 0.095000000000000029 0.0024999999999999914 -0.047500000000000014 0.050000000000000003 -0.097500000000000017 0.047500000000000014 0.095000000000000029 0.023750000000000007 0.0024999999999999914 -0.097500000000000017 -0.095000000000000029 -0.047500000000000014 -0.050000000000000003 0.047500000000000014 -0.0049999999999999828 0.0024999999999999914 -0.047500000000000014 0.048750000000000009 0 0.0024999999999999914 -0.047500000000000014 -0.0024999999999999914
leaf_weight=824 73 167 29 34 20 218 35 34 614 25 65 388 86 49 45 32 39 41 194 33 33 74 23 48 88 26 80 26 20 57
leaf_count=824 73 167 29 34 20 218 35 34 614 25 65 388 86 49 45 32 39 41 194 33 33 74 23 48 88 26 80 26 20 57
internal_value=-0.00340909 0.0235798 0.00960452 -0.0338573 -0.0216993 -0.0291071 0.020614 0 0.0420398 -0.0103175 -0.0443195 0.0238636 -0.027027 -0.00146341 0.0135965 -0.00337079 -0.0331301 -0.01625 -0.0364078 0.00309278 -0.00882353 0.0079235 0.0284211 -0.00865385 -0.0132353 0.00838509 0.012987 0.00333333 -0.00229358 0.00449438
internal_weight=3520 1866 1062 1654 765 560 684 68 804 378 889 616 111 205 228 267 492 80 412 194 68 183 190 156 136 161 154 135 109 89
internal_count=3520 1866 1062 1654 765 560 684 68 804 378 889 616 111 205 228 267 492 80 412 194 68 183 190 156 136 161 154 135 109 89
is_linear=0
shrinkage=0.05


Tree=2
num_leaves=31
num_cat=0
split_feature=5 5 13 13 13 5 5 10 13 17 16 2 2 17 7 13 9 0 2 9 7 13 2 4 9 15 0 6 13 16
split_gain=1108 176.488 119.254 54.9537 47.7562 44.0603 36.0526 21.8562 20.5837 17.6407 17.5423 17.0716 16.124 15.6141 16.0168 11.5557 10.6921 13.5973 10.6794 12.9375 10.006 9.91923 9.72781 18.6881 9.27283 8.96229 8.23714 8.14938 7.97357 7.75758
threshold=0.084731245413422598 -0.51376599073410023 0.37348888814449316 0.47181671857833868 0.57084664702415477 0.62337875366210949 0.8029279112815858 -0.92163226008415211 -0.22010388970375058 0.88982239365577709 0.15437436848878863 -0.080527721904218183 -0.46888655424118036 -0.19622670859098432 0.79278123378753673 -0.010732068214565514 0.64959979057312023 0.1325756907463074 -0.33943361043930048 0.45314913988113409 -0.6432414948940276 0.89211812615394603 -0.59833949804306019 -0.50140914320945729 0.55510801076889049 -0.62937441468238819 -0.31974418461322779 0.68767979741096508 -0.28737804293632502 -0.17344000935554502
decision_type=2 2 2 2 2 2 2 2 2 2 2 2 2 2 2 2 2 2 2 2 2 2 2 2 2 2 2 2 2 2
left_child=1 4 5 7 12 10 9 13 -9 27 15 -6 -1 14 -3 20 17 26 19 -7 -2 22 23 -5 -12 -24 -10 -4 -15 -22
right_child=2 3 6 21 11 18 -8 8 16 -11 24 -13 -14 28 -16 -17 -18 -19 -20 -21 29 -23 25 -25 -26 -27 -28 -29 -30 -31
leaf_value=-0.18049999999999999 -0.045124999999999998 -0.0023749999999999718 0.092500000000000027 0.042625000000000003 -0.047624999999999987 0.090250000000000039 0.090250000000000039 -0.095125000000000001 -0.040500000000000029 -0.0023749999999999939 -0.0012812499999999894 0.0036250000000000119 -0.090250000000000039 -0.092750000000000027 0.045031250000000016 0.045124999999999998 -0.090500000000000025 0.0023749999999999718 0.090250000000000039 -0.054749999999999993 -0.045124999999999998 0.090250000000000039 -0.002375000000000016 -0.0061874999999999908 -0.095062500000000008 0.045124999999999998 -0.048562500000000001 0.045000000000000019 -0.041625000000000023 0.048812500000000016
leaf_weight=790 21 107 250 23 78 20 626 155 35 36 66 28 284 35 30 66 74 64 202 21 55 34 49 26 48 100 40 97 40 20
leaf_count=790 21 107 250 23 78 20 626 155 35 36 66 28 284 35 30 66 74 64 202 21 55 34 49 26 48 100 40 97 40 20
internal_value=-0.00359375 -0.0281627 0.0284359 -0.0102217 -0.0405085 0.00895954 0.0384539 -0.0184483 -0.0258152 0.0263708 -0.00471014 -0.00849057 -0.0436685 -0.00566038 0.00437956 0.0058642 -0.0157277 -0.00755396 0.0244856 0.00121951 -0.00520833 0.0103448 0.00606061 -0.0132653 -0.0197368 0.0124161 -0.022 0.0298271 -0.024 0.00333333
internal_weight=3520 1992 1528 812 1180 519 1009 580 368 383 276 106 1074 212 137 162 213 139 243 41 96 232 198 49 114 149 75 347 75 75
internal_count=3520 1992 1528 812 1180 519 1009 580 368 383 276 106 1074 212 137 162 213 139 243 41 96 232 198 49 114 149 75 347 75 75
is_linear=0
shrinkage=0.05


Tree=3
num_leaves=31
num_cat=0
split_feature=5 5 13 13 5 13 17 15 17 1 13 3 0 7 9 3 13 15 13 10 5 17 3 15 15 9 10 0 4 5
split_gain=1107.87 201.912 91.0901 68.0806 58.2407 31.9044 27.8128 19.0121 16.5304 20.563 15.0784 14.3393 12.7455 12.5427 16.8674 12.0949 17.7902 11.9878 11.9856 11.7891 11.5082 16.2334 10.9768 11.7177 13.6935 10.3376 10.1021 9.79784 8.11451 10.6411
threshold=-0.15466764196753499 0.62337875366210949 0.62152037024497997 0.61590525507926952 -0.51376599073410023 0.27750062942504888 0.83063462376594555 -0.77837884426116932 -0.30843296647071833 0.51038151979446422 -0.10538065060973166 -0.1079321689903736 0.1325756907463074 0.57895356416702282 0.45314913988113409 -0.80946907401084889 0.89211812615394603 -0.71177256107330311 0.38637334108352667 -0.4382877498865127 1.0423268079757693 0.98387545347213756 0.27414652705192571 0.75410696864128124 0.13339779525995257 -0.95922017097473133 0.057304171845316894 0.25709877908229833 0.081569701433181777 0.084731245413422598
decision_type=2 2 2 2 2 2 2 2 2 2 2 2 2 2 2 2 2 2 2 2 2 2 2 2 2 2 2 2 2 2
left_child=2 3 4 6 11 13 7 -2 9 12 26 -1 19 14 -3 16 -5 -4 -13 -6 21 -7 23 24 -12 -10 -9 -19 -24 -30
right_child=1 5 17 15 8 20 -8 10 25 -11 22 18 -14 -15 -16 -17 -18 27 -20 -21 -22 -23 28 -25 -26 -27 -28 -29 29 -31
leaf_value=-0.17147499999999996 -0.046464843750000019 0.085737500000000022 -0.042743749999999997 -0.0046906249999999709 -0.040975000000000032 0.085737500000000022 -0.050152343749999974 -6.0937499999980109e-05 -0.040553125000000037 0.0024937499999999613 -0.0001187499999999897 -0.09061250000000004 0.0021312500000000068 0.085737500000000022 -0.0046374999999999836 0.085625000000000021 0.085625000000000021 -0.023812499999999993 -0.016771875000000016 -0.080859375000000011 0.085737500000000022 -0.0046312499999999982 0.045243750000000027 -0.025115624999999999 0.045243750000000006 -0.088071875000000022 -0.087868749999999995 0.042868750000000011 -0.0035687499999999873 0.043969531250000006
leaf_weight=826 68 53 65 32 71 230 96 127 34 37 97 243 49 84 63 229 21 42 30 44 505 27 57 22 24 166 39 47 24 68
leaf_count=826 68 53 65 32 71 230 96 127 34 37 97 243 49 84 63 229 21 42 30 44 505 27 57 22 24 166 39 47 24 68
internal_value=-0.00357955 0.0228296 -0.0333736 0.00586283 -0.0371333 0.0387734 -0.00337621 0.00114068 -0.0208229 -0.0106965 0.00480349 -0.0430846 -0.0182927 0.021 0.0103448 0.0262411 0.00471698 0.00324675 -0.0331502 -0.0273913 0.0434383 0.0348249 0.0116438 0.00174825 0.00785124 -0.031 -0.00722892 0.0151685 0.0211409 0.0119565
internal_weight=3520 1866 1654 904 1500 962 622 526 401 201 458 1099 164 200 116 282 53 154 273 115 762 257 292 143 121 200 166 89 149 92
internal_count=3520 1866 1654 904 1500 962 622 526 401 201 458 1099 164 200 116 282 53 154 273 115 762 257 292 143 121 200 166 89 149 92
is_linear=0
shrinkage=0.05


Tree=4
num_leaves=31
num_cat=0
split_feature=5 5 13 13 13 3 5 17 9 7 4 2 2 13 11 0 2 17 17 13 0 2 5 14 2 13 9 9 4 0
split_gain=1093.61 237.264 82.5311 79.1908 47.7562 26.4892 26.3314 21.0157 20.1815 21.4569 19.3677 17.0716 16.124 14.7669 13.8626 15.0389 12.8744 12.0237 11.8729 11.6112 18.9843 11.5386 9.98533 9.70823 11.1373 9.40745 9.38269 9.14548 8.86757 7.97802
threshold=0.264280416071415 -0.51376599073410023 0.2828116118907929 0.39172470569610601 0.57084664702415477 0.35666093230247503 1.0423268079757693 0.95932903885841381 0.45314913988113409 0.5700185000896455 1.0000000180025095e-35 -0.080527721904218183 -0.46888655424118036 0.87054598331451427 -0.96855232119560231 -0.025586043484508988 -0.46888655424118036 0.83063462376594555 0.097312211990356459 -0.44342613220214838 -0.88419410586357106 1.0000000180025095e-35 0.62337875366210949 -0.86771991848945607 -0.59833949804306019 -0.11691337451338767 -0.77123895287513722 1.0000000180025095e-35 -0.50140914320945729 0.1325756907463074
decision_type=2 2 2 2 2 2 2 2 2 2 2 2 2 2 2 2 2 2 2 2 2 2 2 2 2 2 2 2 2 2
left_child=1 4 8 5 12 14 7 16 22 21 18 -6 -1 17 15 -3 -4 23 25 -16 -21 -10 26 -5 28 -7 -2 -12 -25 -23
right_child=2 3 6 13 11 10 -8 -9 9 -11 27 -13 -14 -15 19 -17 -18 -19 -20 20 -22 29 -24 24 -26 -27 -28 -29 -30 -31
leaf_value=-0.16290124999999997 0.045099804687500016 -0.040603593750000049 0.031343750000000004 0.045612499999999993 -0.044053124999999985 0.0023690624999999524 0.081450624999999999 -0.0043996874999999939 -0.051655624999999983 0.042037773437499995 -0.0012498828125000029 0.0051076562499999811 -0.081206875000000039 0.082525000000000015 -0.092827812499999995 0.0022621875000000016 0.081450624999999999 -0.043702675781250026 -0.045484453125000004 0.0060717968750000134 -0.043340156250000032 -0.005530624999999967 0.081450624999999999 0.0081535937499999985 0.035962500000000029 0.041671406250000015 -5.7890624999989984e-05 -0.047591464843750014 -0.0068310937499999726 0.087219375000000043
leaf_weight=790 30 37 33 26 78 37 504 39 60 50 56 28 284 60 129 29 387 28 27 27 200 28 106 20 203 38 61 60 41 24
leaf_count=790 30 37 33 26 78 37 504 39 60 50 56 28 284 60 129 29 387 28 27 27 200 28 106 20 203 38 61 60 41 24
internal_value=-0.00363636 -0.0252502 0.0322995 -0.00756385 -0.0405085 -0.0182812 0.0399273 0.0312636 0.0118384 -0.00123457 -0.00412844 -0.00849057 -0.0436685 0.010582 -0.0255924 -0.00454545 0.0345238 0.00628931 0.0117647 -0.0294944 -0.0226872 -0.0133929 0.0225888 0.00931034 0.00643939 0.022 0.0104396 -0.0181034 -0.0122951 0.00384615
internal_weight=3520 2198 1322 1018 1180 640 963 459 359 162 218 106 1074 378 422 66 420 318 102 356 227 112 197 290 264 75 91 116 61 52
internal_count=3520 2198 1322 1018 1180 640 963 459 359 162 218 106 1074 378 422 66 420 318 102 356 227 112 197 290 264 75 91 116 61 52
is_linear=0
shrinkage=0.05


Tree=5
num_leaves=31
num_cat=0
split_feature=5 5 5 13 13 13 17 13 9 9 13 3 15 5 10 4 17 5 7 9 3 3 13 10 0 16 8 1 3 16
split_gain=1157.87 169.052 123.955 61.1155 47.612 44.9359 20.7471 19.579 18.9258 17.8282 16.4497 14.9415 14.5838 13.6151 12.5951 12.0323 11.7397 10.1278 9.84971 9.59977 9.39503 9.36774 8.95234 8.67033 14.5157 8.65595 8.44264 8.04991 8.01676 7.94023
threshold=0.084731245413422598 -0.51376599073410023 0.8029279112815858 0.18570442497730258 0.55347493290901195 0.49781057238578802 0.83063462376594555 0.27750062942504888 -0.18220797181129453 -0.95922017097473133 -0.18960599601268766 0.74502778053283703 -0.77837884426116932 -0.69331514835357655 -1.1115142107009885 -0.72002622485160817 -0.48439437150955195 -0.87286430597305287 0.62516170740127575 0.55510801076889049 0.24572571367025378 0.24572571367025378 0.84022322297096264 0.54743000864982616 0.58055356144905101 -0.81229805946350087 1.0000000180025095e-35 0.60626995563507091 -0.0072969766333699218 0.059484280645847327
decision_type=2 2 2 2 2 2 2 2 2 2 2 2 2 2 2 2 2 2 2 2 2 2 2 2 2 2 2 2 2 2
left_child=1 4 3 8 17 9 12 18 -2 27 14 29 16 -6 -11 -12 -5 -1 19 -4 22 -17 -14 -7 -25 28 -8 -3 -19 -10
right_child=2 5 7 6 13 23 26 -9 11 10 15 -13 20 -15 -16 21 -18 25 -20 -21 -22 -23 -24 24 -26 -27 -28 -29 -30 -31
leaf_value=-0.15475618749999998 0.0047040664062499848 -0.034860186523437496 0.077378093749999988 0.037835667968749979 -0.043424445312500032 0.038927187499999995 -0.0092273662109374939 0.077378093749999988 -0.040723365234374989 -0.042946265624999973 0.0021490781249999813 0.0024342216796874984 0.038633109375000023 0.011786437499999991 -0.092874390625000025 -0.047021257812499995 -0.013314695312500026 -0.078812468750000017 0.077378093749999988 -0.0039478437499999687 0.079521218749999983 -0.031441833007812517 0.077265593749999972 -0.02566914453125 0.035467812499999953 -0.10725618749999999 0.0073115009765624796 0.038402679687500024 -0.027146531250000019 -0.089909601562500011
leaf_weight=689 98 80 52 24 81 125 23 662 58 59 41 43 120 35 157 147 21 86 62 43 202 93 61 26 58 244 27 27 45 53
leaf_count=689 98 80 52 24 81 125 23 662 58 59 41 43 120 35 157 147 21 86 62 43 202 93 61 26 58 244 27 27 45 53
internal_value=-0.00347261 -0.0286754 0.0289542 0.0139726 -0.0407627 -0.0111316 0.024477 0.0423077 -0.00595238 -0.0180464 -0.0220322 -0.0168831 0.0280374 -0.0103448 -0.0324074 -0.0140569 0.00111111 -0.0440789 0.0264331 0.0163158 0.031201 -0.0183333 0.0229282 0.00885167 -0.00357143 -0.0374667 -0.006 0.00046729 -0.0270992 -0.0265766
internal_weight=3542 1993 1549 730 1180 813 478 819 252 604 497 154 428 116 216 281 45 1064 157 95 383 240 181 209 84 375 50 107 131 111
internal_count=3542 1993 1549 730 1180 813 478 819 252 604 497 154 428 116 216 281 45 1064 157 95 383 240 181 209 84 375 50 107 131 111
is_linear=0
shrinkage=0.05


Tree=6
num_leaves=31
num_cat=0
split_feature=5 5 5 17 15 4 3 17 2 8 2 9 15 14 9 8 16 9 8 3 17 17 5 8 17 14 5 5 2 9
split_gain=1095.83 168.304 103.863 40.555 22.3425 20.8315 19.2209 16.4814 15.8334 13.39 12.7596 12.4162 11.9714 11.5743 14.2073 14.5393 10.6778 10.5919 10.1523 10.0887 9.65326 9.4587 9.19432 9.15238 8.93779 7.94769 8.41138 7.49506 7.46753 11.9136
threshold=-0.034968197811394923 0.8029279112815858 -0.51376599073410023 0.45634849369525915 -0.69212546944618214 -0.42853678762912745 -0.1722709313035011 -0.23718762397766111 -0.46888655424118036 -0.37502673268318171 0.30783110857009893 0.62959760427474987 -0.94675707817077626 -0.13943143934011457 0.10917139798402788 -0.30155459046363825 0.050626868382096298 -1.0341508388519285 1.0000000180025095e-35 -0.36254301667213434 -1.0626659989356992 0.25349147617816931 0.084731245413422598 0.50663888454437267 -0.49066944420337671 -0.52095532417297352 0.1445809677243233 -0.27436709403991694 -0.080527721904218183 0.28016066551208502
decision_type=2 2 2 2 2 2 2 2 2 2 2 2 2 2 2 2 2 2 2 2 2 2 2 2 2 2 2 2 2 2
left_child=2 3 8 4 25 12 27 28 -1 -9 -3 18 -4 14 15 16 -14 -8 -5 -13 -10 23 -11 -19 -17 -2 -27 -7 29 -6
right_child=1 10 5 11 7 6 17 9 20 22 -12 19 13 -15 -16 24 -18 21 -20 -21 -22 -23 -24 -25 -26 26 -28 -29 -30 -31
leaf_value=-0.14701837812499993 0.034430453027343759 0.073509189062499966 -0.052843105273437545 -0.0049906819824218742 0.045610039843750054 -0.11705504609374998 0.005815689013671888 -0.029395835156249994 -0.036544459960937539 -0.003466689355468722 0.073509189062499966 -0.083636235961914079 -0.045657468383789063 0.0070373130859374914 -0.049400086718749986 0.042564890625000018 0.011140570703124998 -0.041344897607421861 0.030083938281250024 -0.024460467187500036 -0.073080907812500012 -0.076920202343750035 0.039382094531250057 0.034718015625000036 -0.014891570117187492 -0.058267921484374985 0.0020966873046874834 -0.048848880761718762 0.075545157812499986 -0.010848842968749974
leaf_weight=853 42 197 23 62 63 62 39 63 66 32 622 24 36 62 53 37 24 105 71 63 261 71 211 35 20 30 43 86 153 33
leaf_count=853 42 197 23 62 63 62 39 63 66 32 622 24 36 62 53 37 24 105 71 63 261 71 211 35 20 30 43 86 153 33
internal_value=-0.0028515 0.0259508 -0.0297054 0.0108989 0.0170149 -0.013706 -0.0208543 0.0211712 -0.0385593 0.0133987 0.0423077 -0.00772727 -0.00254902 0.000862069 -0.00588235 0.00384615 -0.0133333 -0.0124 0.0018797 -0.0224138 -0.0292049 -0.0168246 0.0187243 -0.00928571 0.0219298 -0.00304348 -0.0130137 -0.0351351 0.0307229 0.0197917
internal_weight=3542 1709 1833 890 670 653 398 555 1180 306 819 220 255 232 170 117 60 250 133 87 327 211 243 140 57 115 73 148 249 96
internal_count=3542 1709 1833 890 670 653 398 555 1180 306 819 220 255 232 170 117 60 250 133 87 327 211 243 140 57 115 73 148 249 96
is_linear=0
shrinkage=0.05


Tree=7
num_leaves=31
num_cat=0
split_feature=5 5 5 17 5 0 1 8 4 8 14 2 14 0 11 4 15 0 4 5 15 15 3 3 11 17 0 3 0 11
split_gain=1037.59 146.614 129.061 35.9828 26.6429 21.3483 23.5979 17.0099 16.9062 17.2807 15.9968 14.5956 14.192 12.2944 12.2471 11.7585 10.7703 12.5813 11.4876 12.4419 9.27367 9.19031 8.98083 8.84236 10.6174 8.31664 7.96456 7.93059 7.55728 7.54883
threshold=0.084731245413422598 -0.69331514835357655 0.8029279112815858 0.45634849369525915 -0.15466764196753499 0.40160767734050756 -0.50586450099945057 0.58011102676391613 -0.28279208391904825 0.21275034546852115 0.29303576052188879 0.30783110857009893 1.5998132824897768 0.99652585387229931 -0.96855232119560231 0.15444206073880198 -0.72134679555892933 0.5461224913597108 -0.1370473615825176 0.38397985696792608 0.10666775703430177 -0.90140232443809498 -0.20349742472171781 0.56256705522537243 0.035050678998231895 -0.49066944420337671 1.0465766191482546 0.31305302679538732 0.25709877908229833 -0.15872716158628461
decision_type=2 2 2 2 2 2 2 2 2 2 2 2 2 2 2 2 2 2 2 2 2 2 2 2 2 2 2 2 2 2
left_child=1 22 3 7 5 6 14 16 9 29 15 -4 20 -12 -3 -6 25 18 -18 -20 21 -7 -1 24 26 -2 -5 -9 -24 -8
right_child=2 4 11 23 10 12 8 27 -10 -11 13 -13 -14 -15 -16 -17 17 -19 19 -21 -22 -23 28 -25 -26 -27 -28 -29 -30 -31
leaf_value=-0.13966745921874996 0.03560125333007811 -0.031067134218750004 0.06983372960937495 -0.017392367871704062 0.0091320372802734529 -0.037436277519531248 -0.027818012365112301 0.029354878010253896 -0.073185825234375029 0.010863530683593759 -0.074270897490234342 0.06983372960937495 -0.12332558324218752 0.002325451914062482 -0.09454245921875 -0.031275165471191406 0.071826962421874987 0.071444855996093723 -0.026239884414062511 0.034062026914062481 -0.041654743332519555 0.010583542167968751 -0.096085584218749978 0.0063483883972167646 -0.080513296453857477 -0.012744146083984331 0.034225466248779292 0.071767899921874975 -0.037599177656250052 -0.046874691503906246
leaf_weight=708 22 34 197 54 162 30 62 86 156 65 56 622 21 33 178 85 27 88 67 88 26 78 219 72 43 27 22 134 32 48
leaf_count=708 22 34 197 54 162 30 62 86 156 65 56 622 21 33 178 85 27 88 67 88 26 78 219 72 43 27 22 134 32 48
internal_value=-0.00225861 -0.0261164 0.0284377 0.0131507 -0.0130561 -0.0186246 -0.0232965 0.0197588 -0.0149547 -0.00428571 -0.0014881 0.0420635 -0.00225806 -0.0196629 -0.0363208 0.00506073 0.0123824 0.0162963 0.00879121 0.00354839 0.00373134 0.0101852 -0.0401981 -0.00549738 -0.0138655 -0.00918367 -0.00263158 0.0304545 -0.0320717 -0.0163636
internal_weight=3542 1993 1549 730 1034 698 543 539 331 175 336 819 155 89 212 247 319 270 182 155 134 108 959 191 119 49 76 220 251 110
internal_count=3542 1993 1549 730 1034 698 543 539 331 175 336 819 155 89 212 247 319 270 182 155 134 108 959 191 119 49 76 220 251 110
is_linear=0
shrinkage=0.05


Tree=8
num_leaves=31
num_cat=0
split_feature=5 13 13 5 5 5 5 9 17 15 10 17 0 15 13 16 16 3 7 9 6 16 11 0 0 2 17 13 8 1
split_gain=1024.54 148.001 136.412 55.2985 49.37 46.0278 44.0665 24.0573 18.9895 18.4131 15.7718 16.4512 19.0463 15.5463 14.5767 14.6532 11.4042 11.4893 10.7274 13.2089 10.2806 10.2421 10.199 10.1158 9.63818 9.5019 9.38622 9.12013 8.96791 7.786
threshold=0.084731245413422598 0.10158237442374231 0.20159699022769931 -0.69331514835357655 0.8029279112815858 -0.57361570000648487 0.62337875366210949 0.066643822938203826 0.83063462376594555 -0.69212546944618214 -0.45247039198875422 -0.35571387410163874 -0.83905765414237965 -0.77837884426116932 0.47181671857833868 -0.40600247681140894 -0.35307043790817255 0.37901592254638677 0.58839243650436412 0.45314913988113409 1.2790963649749758 -0.70662587881088246 -0.95626896619796742 0.59310585260391246 0.11204686388373376 -0.080527721904218183 -0.49066944420337671 0.89211812615394603 0.58011102676391613 -0.29628926515579218
decision_type=2 2 2 2 2 2 2 2 2 2 2 2 2 2 2 2 2 2 2 2 2 2 2 2 2 2 2 2 2 2
left_child=1 5 6 13 8 -1 16 20 9 26 11 12 -7 29 15 -9 17 -2 19 -8 21 -5 -12 -21 -15 -11 -4 -23 -18 -3
right_child=2 3 4 7 -6 10 18 14 -10 25 22 -13 -14 24 -16 -17 28 -19 -20 23 -22 27 -24 -25 -26 -27 -28 -29 -30 -31
leaf_value=-0.13268408625781244 -0.027443317244140619 -0.085059086257812444 0.038569067237182612 0.039893469559570342 0.066342043128906222 0.0083116875980682181 0.066342043128906222 -0.01778868331542971 -0.0021102995092468382 0.032361597443359362 -0.028651335496093736 -0.069414900964843804 -0.03444554101885984 -0.041231272195312488 0.0023255118813476196 -0.072364439978515674 -0.047107245435485813 0.050181364230468754 0.066342043128906222 -0.018223847496093761 0.052903389851318351 -0.00062376027844239794 -0.077420002884277306 0.04408240250390625 0.011220534984375009 0.069982033089843701 -0.0080474878178710581 0.073302648489990241 0.00047701533111574882 -0.035719218773437554
leaf_weight=776 45 107 33 49 689 54 50 58 49 135 27 133 48 91 121 71 111 28 68 29 36 154 175 27 32 221 34 22 30 39
leaf_count=776 45 107 33 49 689 54 50 58 49 135 27 133 48 91 121 71 111 28 68 29 36 154 175 27 32 221 34 22 30 39
internal_value=-0.00225861 -0.0259659 0.028244 -0.00897436 0.0368217 -0.036892 0.00257732 0.000684932 0.0243644 0.0277778 -0.023913 -0.0151064 0 -0.0273234 -0.0104 -0.022093 -0.0126168 0.00342466 0.0212644 0.0113208 0.0113027 0.00733333 -0.0341584 -0.00535714 -0.0142276 0.0323034 0.00373134 0.00170455 -0.020922 -0.0383562
internal_weight=3542 1993 1549 780 1161 1213 388 511 472 423 437 235 102 269 250 129 214 73 174 106 261 225 202 56 123 356 67 176 141 146
internal_count=3542 1993 1549 780 1161 1213 388 511 472 423 437 235 102 269 250 129 214 73 174 106 261 225 202 56 123 356 67 176 141 146
is_linear=0
shrinkage=0.05


Tree=9
num_leaves=31
num_cat=0
split_feature=5 13 13 5 5 5 5 10 17 11 17 15 9 9 13 1 7 9 16 13 2 13 15 15 9 14 17 5 4 13
split_gain=1020.76 143.403 125.026 64.4902 48.3784 34.6306 31.9355 20.0553 24.1591 21.4468 19.2635 16.5396 16.2868 15.1281 12.3939 12.3064 11.5376 14.5768 9.83843 9.72927 9.5019 8.80285 10.4439 8.49232 8.43058 8.11627 7.96919 7.77238 7.57124 7.12766
threshold=0.084731245413422598 0.37348888814449316 0.20159699022769931 -0.57361570000648487 0.8029279112815858 0.62337875366210949 -0.69331514835357655 -0.4382877498865127 0.097312211990356459 -0.96855232119560231 0.83063462376594555 -0.69212546944618214 -0.18220797181129453 0.13248918205499652 0.094913370907306685 -0.23662205785512921 0.58839243650436412 0.45314913988113409 0.5952453911304475 0.086709640920162215 -0.080527721904218183 -0.69503042101860035 -0.69839781522750843 -0.46623037755489344 0.8470657765865327 0.77674591541290294 -0.49066944420337671 -0.9327140450477599 0.66454854607582103 0.0093813841231167334
decision_type=2 2 2 2 2 2 2 2 2 2 2 2 2 2 2 2 2 2 2 2 2 2 2 2 2 2 2 2 2 2
left_child=1 3 5 19 10 12 15 8 21 -9 11 26 18 -8 28 23 17 -7 -2 -1 -13 -5 -23 -3 -19 -15 -4 -21 -14 -24
right_child=2 6 4 7 -6 16 13 9 -10 -11 -12 20 14 25 -16 -17 -18 24 -20 27 -22 22 29 -25 -26 -27 -28 -29 -30 -31
leaf_value=-0.12604988194492181 -0.0020534796004394451 -0.092745113007031199 0.036640613875323469 -0.063769577796484317 0.063024940972460905 0.063024940972460905 0.02761204735435796 0.0030060527435546991 -0.068746217979589908 -0.0683624215489258 -0.0020047845337844983 0.030743517571191384 -0.03934831518519593 0.0017834999468017366 0.0045939225465133626 -0.010330864913671835 0.063024940972460905 -0.017312655121289079 0.034794041893600448 -0.080898125319140535 0.066482931435351542 -0.034823933189149468 -0.0016672239573268799 -0.026060801461523453 0.034305123998828124 -0.045142658785961957 -0.0076451134269775126 -0.030806131944921811 -0.088790148604171767 0.0070377607207741111
leaf_weight=766 60 61 33 41 689 50 187 41 89 235 49 135 73 117 22 53 68 29 25 95 221 40 76 24 27 34 34 71 34 63
leaf_count=766 60 61 33 41 689 50 187 41 89 235 49 135 73 117 22 53 68 29 25 95 221 40 76 24 27 34 34 71 34 63
internal_value=-0.00175042 -0.0254139 0.0286959 -0.0329268 0.0369078 0.00412371 -0.00147059 -0.0199145 -0.011165 -0.0297101 0.0245763 0.0280142 -0.00934579 0.00680473 -0.0205426 -0.0217391 0.0206897 0.0103774 0.00764706 -0.0410944 0.0323034 -0.00227273 0.00251397 -0.0335294 -0.00714286 -0.00496689 0.00522388 -0.0301205 -0.0275701 0.00899281
internal_weight=3542 1993 1549 1517 1161 388 476 585 309 276 472 423 214 338 129 138 174 106 85 932 356 220 179 85 56 151 67 166 107 139
internal_count=3542 1993 1549 1517 1161 388 476 585 309 276 472 423 214 338 129 138 174 106 85 932 356 220 179 85 56 151 67 166 107 139
is_linear=0
shrinkage=0.05


Tree=10
num_leaves=31
num_cat=0
split_feature=5 5 5 17 9 0 1 15 2 3 16 0 17 2 0 5 7 0 9 6 5 17 3 4 5 3 0 11 2 4
split_gain=955.614 146.102 103.904 39.8013 30.5386 36.0155 27.6474 24.0135 23.4415 20.0421 17.2168 14.1804 13.2063 11.9671 13.1283 11.7116 11.8426 11.5749 11.5741 11.3705 12.8789 11.3572 11.0754 10.5314 11.8445 9.50303 9.32668 9.25642 9.18681 9.14502
threshold=-0.034968197811394923 0.8029279112815858 -0.69331514835357655 0.83063462376594555 0.83341872692108165 0.5461224913597108 -0.64070928096771229 -0.69212546944618214 1.0000000180025095e-35 -0.088663008064031587 -1.2836740016937254 -0.72810691595077504 -0.49066944420337671 -0.46888655424118036 1.0222094058990481 -0.15466764196753499 -0.46065783500671381 -0.35696880519390101 0.31863252818584448 -0.79390153288841236 0.38397985696792608 0.63986477255821239 0.24572571367025378 -0.57428148388862599 -0.27436709403991694 0.56256705522537243 -0.21893534809350965 0.1418489292263985 -0.59833949804306019 0.22731441259384158
decision_type=2 2 2 2 2 2 2 2 2 2 2 2 2 2 2 2 2 2 2 2 2 2 2 2 2 2 2 2 2 2
left_child=2 3 9 7 5 6 17 12 18 26 -8 19 -2 14 29 16 -12 -4 -3 -9 -21 -20 -6 -7 -25 -24 -1 -15 -5 -13
right_child=1 8 4 28 22 23 10 11 -10 -11 15 13 -14 27 -16 -17 -18 -19 21 20 -22 -23 25 24 -26 -27 -28 -29 -30 -31
leaf_value=-0.12212238784767573 0.025324029216581525 0.059873693923837838 -0.078300823785175805 -0.066439696590711209 -0.084879851376292087 0.03462405222108516 0.01925304362613596 0.022866937702705072 0.059873693923837838 -0.059814321667988238 -0.050985124691350726 0.0096153027972861738 -0.015033766240217307 0.049604397733715104 0.030914085004155292 0.004534833100356561 -0.012040644459638728 -0.028300823785175802 0.059873693923837838 -0.045031625970919059 0.017738983425937473 -0.052586973821230482 0.011209823201358616 -0.036576240809318226 0.032958360406639374 -0.051809429436060844 -0.072122387847675731 0.028084723513960609 -0.028951282610944373 -0.032034913328698969
leaf_weight=550 48 60 77 21 144 46 42 60 676 229 73 42 78 234 25 75 193 104 26 33 28 35 22 30 47 33 214 186 97 24
leaf_count=550 48 60 77 21 144 46 42 60 676 229 73 42 78 234 25 75 193 104 26 33 28 35 22 30 47 33 214 186 97 24
internal_value=-0.00163288 0.0258518 -0.0261043 0.011758 -0.0136569 -0.00866084 -0.0140071 0.0159631 0.0413425 -0.0372105 -0.00639687 0.0199367 -0.00396825 0.0235812 0.00714286 -0.0101173 -0.0150376 -0.0301105 0.0210744 0.00454545 -0.0106557 0.0057377 -0.0309045 0.0158537 0.00454545 -0.0118182 -0.0410995 0.0271429 -0.0152542 -0.00454545
internal_weight=3552 1673 1879 876 886 687 564 758 797 993 383 632 126 511 91 341 266 181 121 121 61 61 199 123 77 55 764 420 118 66
internal_count=3552 1673 1879 876 886 687 564 758 797 993 383 632 126 511 91 341 266 181 121 121 61 61 199 123 77 55 764 420 118 66
is_linear=0
shrinkage=0.05


Tree=11
num_leaves=31
num_cat=0
split_feature=5 13 13 5 5 3 15 17 13 2 15 14 9 9 13 10 5 3 6 4 13 4 2 10 9 9 7 5 17 9
split_gain=930.309 189.083 91.765 55.7504 52.118 35.3701 34.5469 24.3821 21.2145 19.1783 18.0815 20.7337 17.3261 17.0425 15.6333 11.8332 11.7072 11.1603 11.0982 10.6779 10.1121 9.96373 9.37831 9.31187 8.75152 8.61413 8.54785 7.42371 7.35044 7.22866
threshold=-0.15466764196753499 0.37348888814449316 0.069571260362863555 0.8029279112815858 0.62337875366210949 -0.27462893724441523 -0.84636524319648732 0.83063462376594555 0.63745856285095226 1.0000000180025095e-35 -0.62281304597854603 0.13489060103893283 0.31863252818584448 0.090219285339117064 0.059011172503232963 -1.1863776445388792 -1.0524134635925291 0.74502778053283703 0.98780423402786266 0.3001867681741715 0.87916603684425365 -0.57428148388862599 -0.080527721904218183 -0.91527941823005665 -0.52023139595985401 0.096929628401994719 0.92156481742858898 -0.75316488742828358 -0.61505362391471852 -0.16035101562738416
decision_type=2 2 2 2 2 2 2 2 2 2 2 2 2 2 2 2 2 2 2 2 2 2 2 2 2 2 2 2 2 2
left_child=2 4 5 10 7 27 22 14 13 12 11 -3 -6 18 15 -2 -7 25 -8 -16 23 24 -4 -12 -18 -17 -25 -1 -15 -9
right_child=1 3 6 -5 9 16 8 29 -10 -11 20 -13 -14 28 19 17 21 -19 -20 -21 -22 -23 -24 26 -26 -27 -28 -29 -30 -31
leaf_value=-0.11743845439279195 0.0078279921874075953 0.040610685639881974 -0.070187756902186441 0.056880009227645939 0.021388009992695946 -0.12804667249259663 -0.020471496989706007 -0.028268929656526567 0.031078116760107213 0.056880009227645939 0.058876036812835736 -0.01160715324610806 -0.05237673617416308 -0.025594087348690356 0.013883576302701872 -0.023084573186727388 0.0086664684307391944 0.0035130969762970921 0.013987262851964544 -0.0063689321762866241 0.061737981033467018 -0.069472313295756344 0.00079436362201277264 0.026179587921180449 -0.042648554140252884 -0.045625721899023121 0.061754548687885928 -0.07241154983582658 -0.046674839962928698 -0.086034475039143521
leaf_weight=480 43 75 192 627 34 70 129 21 101 156 93 48 37 73 87 75 44 51 26 41 85 188 21 195 66 91 41 212 92 58
leaf_count=480 43 75 192 627 34 70 129 21 101 156 93 48 37 73 87 75 44 51 26 41 85 188 21 195 66 91 41 212 92 58
internal_value=-0.00118243 0.0232508 -0.0279811 0.035567 0.00259366 -0.0369811 -0.0129338 -0.00695931 -0.00463183 0.0222467 0.023743 0.00691057 0.000704225 -0.0109375 -0.00180412 -0.00884615 -0.0244565 -0.0135945 0.000967742 0.0125 0.028744 -0.0201342 -0.0293427 0.024772 -0.00818182 -0.0198795 0.0194915 -0.0436416 -0.0221212 -0.0322785
internal_weight=3552 1858 1694 1164 694 1060 634 467 421 227 537 123 71 320 388 260 368 217 155 128 414 298 213 329 110 166 236 692 165 79
internal_count=3552 1858 1694 1164 694 1060 634 467 421 227 537 123 71 320 388 260 368 217 155 128 414 298 213 329 110 166 236 692 165 79
is_linear=0
shrinkage=0.05


Tree=12
num_leaves=31
num_cat=0
split_feature=5 13 13 5 1 2 5 15 9 5 5 0 9 5 17 11 14 16 16 15 13 15 5 13 7 13 10 8 11 16
split_gain=920.1 150.596 124.544 50.5894 49.5512 35.8322 33.2544 26.8145 23.7813 20.5899 19.9018 16.2892 15.7082 14.968 14.0324 12.7163 12.3588 11.955 11.6359 11.0623 10.3404 9.96071 9.78157 9.78066 9.36461 8.14043 7.98312 7.46026 7.41363 6.80179
threshold=0.084731245413422598 0.07936162501573564 0.37348888814449316 -0.39406652748584742 0.036851743236184127 1.0000000180025095e-35 0.8029279112815858 -0.73905912041664112 -0.65348979830741871 0.8029279112815858 -0.75316488742828358 0.25709877908229833 0.72013762593269359 -1.0524134635925291 -0.22095020860433576 -1.1319339871406553 -0.83753964304924 0.14393885433673861 -0.27532659471034998 -0.31499315798282618 0.49781057238578802 -0.4909594058990478 -0.39406652748584742 0.67339324951171886 -0.88461157679557789 0.63745856285095226 -1.1815627217292783 0.13927821069955829 -0.39519453048706049 -0.96819758415222157
decision_type=2 2 2 2 2 2 2 2 2 2 2 2 2 2 2 2 2 2 2 2 2 2 2 2 2 2 2 2 2 2
left_child=1 4 5 7 10 8 18 27 -2 -7 -1 16 21 -6 19 -12 -9 -10 -4 26 -18 24 -21 -20 -5 -23 -15 -3 -19 -14
right_child=2 3 6 12 13 9 -8 11 17 -11 15 -13 29 14 -16 -17 20 28 23 22 -22 25 -24 -25 -26 -27 -28 -29 -30 -31
leaf_value=-0.11026934573565234 0.051549811926026923 -0.066958040436383787 0.058301680252293035 0.026066676176964412 -0.13387064915527147 0.0036462523909805093 0.054036008766263646 0.014420121880926296 -0.0051357996356006467 0.054036008766263646 0.0049991029574034899 0.0092364877701526463 0.0070069317024610278 0.0045179732360956402 -0.060080724085418785 -0.06489569096350066 -0.042621614437381487 -0.0023105586390219203 0.01921007110911177 -0.028802933013904311 -0.009433679901149539 0.0050187555517056566 0.015704916410559776 0.031395672545150986 -0.0026176333559444712 0.036751789928680001 -0.069781694803625574 -0.026392210997721533 -0.086553381064728277 -0.026781845646155225
leaf_weight=536 39 156 146 30 42 143 627 41 106 117 24 58 20 37 127 328 94 23 108 39 47 101 35 140 88 55 45 64 67 69
leaf_count=536 39 156 146 30 42 143 627 41 106 117 24 58 20 37 127 328 94 23 108 39 47 101 35 140 88 55 45 64 67 69
internal_value=-0.000929054 -0.022888 0.028562 -0.0063791 -0.034089 0.0079798 0.0385406 -0.0173913 -0.00617021 0.0207692 -0.0402027 -0.00583333 0.00757576 -0.0173846 -0.0132509 -0.0309659 -0.0131868 -0.0132653 0.0271574 -0.00320513 -0.0202128 0.0135036 0.0108108 0.0205645 0.00254237 0.0217949 -0.0158537 -0.03 -0.0266667 -0.0106742
internal_weight=3552 2036 1516 823 1213 495 1021 460 235 260 888 240 363 325 283 352 182 196 394 156 141 274 74 248 118 156 82 220 90 89
internal_count=3552 2036 1516 823 1213 495 1021 460 235 260 888 240 363 325 283 352 182 196 394 156 141 274 74 248 118 156 82 220 90 89
is_linear=0
shrinkage=0.05


Tree=13
num_leaves=31
num_cat=0
split_feature=5 13 13 5 1 8 13 5 15 9 5 13 5 11 5 10 8 17 5 16 5 3 9 5 16 16 15 11 17 3
split_gain=906.487 186.784 101.093 69.6825 58.7969 29.7149 27.8612 22.7006 21.6307 20.8963 20.6964 19.554 16.6991 12.6768 12.3865 10.9608 11.1431 10.1064 10.6116 9.84757 9.78987 9.32035 9.25641 8.98779 8.96201 8.58309 8.52801 7.65554 7.42977 7.34451
threshold=0.20443069189786914 0.07936162501573564 0.37348888814449316 -0.39406652748584742 0.036851743236184127 0.80052742362022411 0.78927367925643932 0.8029279112815858 -0.59016725420951832 0.45314913988113409 -0.75316488742828358 0.48414905369281774 -1.0524134635925291 -1.1319339871406553 -1.1721129417419431 -0.91527941823005665 -0.66891527175903309 -0.22095020860433576 -0.45391625165939326 0.58624723553657543 0.264280416071415 0.011259584687650205 0.10917139798402788 0.62337875366210949 -0.27532659471034998 -0.23637885600328443 0.44371490180492407 -0.12895960360765454 0.83063462376594555 0.80120030045509349
decision_type=2 2 2 2 2 2 2 2 2 2 2 2 2 2 2 2 2 2 2 2 2 2 2 2 2 2 2 2 2 2
left_child=1 4 5 6 10 9 8 24 -3 20 -1 15 -6 -12 -10 27 -17 18 -14 -13 -2 -21 -16 28 -4 -20 -25 -5 -11 -19
right_child=2 3 7 11 12 -7 -8 -9 14 23 13 19 17 -15 22 16 -18 29 25 21 -22 -23 -24 26 -26 -27 -28 -29 -30 -31
leaf_value=-0.10475587844886972 -0.026997761479364658 -0.063330467035257951 0.055386596239678391 0.0345062453358723 -0.12717711669750789 0.051334208327950485 0.040509793401980382 0.051334208327950485 -0.10070319725121833 -0.025015370715024354 0.004749147809533328 0.033135435195429608 -0.038488028218875384 -0.062711106081747708 0.0058960161435917206 0.0047395964884459742 -0.025763559908336831 -0.057076687881147864 0.013036680960024017 -0.0042313750852629008 0.034681510402581051 0.021209649452533341 -0.018629907200486386 -0.017506946401469239 0.026315495030496683 -0.034300816251891901 0.02085046039291634 -7.2296006724648088e-05 -0.078773785498282539 -0.024812841678038523
leaf_weight=536 21 242 126 37 42 109 42 627 20 58 24 167 86 355 78 45 102 93 55 43 149 35 78 38 193 21 32 28 23 47
leaf_count=536 21 242 126 37 42 109 42 627 20 58 24 167 86 355 78 45 102 93 55 43 149 35 78 38 193 21 32 28 23 47
internal_value=-0.000731982 -0.020818 0.031032 -0.00365322 -0.0333201 0.0109302 -0.0173913 0.0401691 -0.0212919 0.00327103 -0.0399454 0.0101751 -0.0156977 -0.0310026 -0.00795455 -0.000943396 -0.0085034 -0.0115894 -0.00308642 0.0197959 0.0152941 0.00512821 -0.00320513 -0.0102649 0.0293103 0.0105263 0.00285714 0.0161538 -0.0216049 -0.0214286
internal_weight=3552 2176 1376 917 1259 430 460 946 418 321 915 457 344 379 176 212 147 302 162 245 170 78 156 151 319 76 70 65 81 140
internal_count=3552 2176 1376 917 1259 430 460 946 418 321 915 457 344 379 176 212 147 302 162 245 170 78 156 151 319 76 70 65 81 140
is_linear=0
shrinkage=0.05


Tree=14
num_leaves=31
num_cat=0
split_feature=5 13 13 5 5 13 13 9 5 3 9 6 5 10 15 0 1 9 3 9 0 7 4 5 4 1 13 0 15 0
split_gain=743.28 133.097 98.1726 68.3073 49.3807 33.1199 30.4572 24.4249 20.2239 16.1859 16.142 14.8261 15.9399 13.9386 13.4933 13.0207 14.9517 12.5519 12.0859 11.4962 10.916 9.77778 8.96723 8.83001 8.8124 9.16364 8.30979 8.76623 9.80043 8.64283
threshold=-0.034968197811394923 0.61590525507926952 0.62152037024497997 -0.99256375432014454 1.1620262861251833 0.038107547909021385 -0.39394526183605189 -0.090472973883151994 1.4612748622894289 -0.33372102677822107 1.1588540673255923 -0.79390153288841236 0.32413013279438024 -1.1115142107009885 -0.72134679555892933 0.17477741837501529 0.036851743236184127 0.70252978801727306 0.084638748317956938 -0.022410747595131394 0.99652585387229931 0.72317814826965343 0.081569701433181777 0.50367929041385662 0.51880384981632244 -0.43478898704051966 0.84022322297096264 -0.025586043484508988 -0.37916670739650721 1.5063813924789431
decision_type=2 2 2 2 2 2 2 2 2 2 2 2 2 2 2 2 2 2 2 2 2 2 2 2 2 2 2 2 2 2
left_child=2 4 3 -1 5 11 9 15 14 -5 18 19 -13 -9 -3 16 -8 -4 24 -2 -15 -18 -20 -24 25 -7 27 -16 -29 -30
right_child=1 8 17 6 -6 10 7 13 -10 -11 -12 12 -14 20 26 -17 21 -19 22 -21 -22 -23 23 -25 -26 -27 -28 28 29 -31
leaf_value=-0.11075629306788959 0.04420620287915842 0.01778942464697162 0.028545684772680071 -0.088251592347405039 0.048767497911552972 0.029235569131753715 -0.026278218228415851 -0.0011737897470352589 0.048767497911552972 -0.056573693146976051 -0.014339606731359301 -0.043910367692154485 -0.0003998671921785935 -0.048008678840486541 0.048767497911552972 0.0083207615825890979 -0.0041776889853972765 -0.01385871132844403 0.061370484487482974 -0.017796793485758224 -0.0033577240463168682 0.054152666316050181 0.0071759638343427135 0.048767497911552972 -0.0099248093695715866 -0.0070341987661871165 0.048767497911552972 0.048767497911552972 0.039573404109378221 0.048767497911552972
leaf_weight=593 37 58 153 206 135 55 111 72 272 186 59 119 129 297 88 71 75 44 46 42 47 24 68 125 38 22 212 41 92 35
leaf_count=593 37 58 153 206 135 55 111 72 272 186 59 119 129 297 88 71 75 44 46 42 47 24 68 125 38 22 212 41 92 35
internal_value=-0.00191441 0.0223252 -0.0234965 -0.0274078 0.00885714 0.00378378 -0.0199725 -0.0137016 0.0370927 -0.0311224 0.0131961 -0.00810398 -0.0141129 -0.0213942 0.0313688 -0.00231317 -0.00857143 0.00989848 0.0172316 0.0107595 -0.0255814 0.00555556 0.0236402 0.0189119 0.00391304 0.0136364 0.034188 0.028125 0.0214286 0.0145669
internal_weight=3552 1673 1879 1682 875 740 1089 697 798 392 413 327 248 416 526 281 210 197 354 79 344 99 239 193 115 77 468 256 168 127
internal_count=3552 1673 1879 1682 875 740 1089 697 798 392 413 327 248 416 526 281 210 197 354 79 344 99 239 193 115 77 468 256 168 127
is_linear=0
shrinkage=0.05


Tree=15
num_leaves=31
num_cat=0
split_feature=5 5 13 13 5 9 5 10 17 10 13 13 9 10 5 10 13 3 17 1 5 6 11 0 13 17 9 9 15 15
split_gain=748.442 113.032 96.0119 64.1855 46.9699 27.1109 26.959 26.4708 22.1281 18.642 17.9426 17.4087 16.2684 15.5879 14.4798 12.9998 12.6874 15.972 12.5242 14.6247 11.2025 12.475 11.0169 10.1518 9.52649 13.0452 9.86377 8.64033 9.15238 8.54744
threshold=0.084731245413422598 -0.9327140450477599 0.04859003238379956 -0.11691337451338767 1.4612748622894289 0.72013762593269359 0.62337875366210949 -1.1115142107009885 0.81628626585006725 0.15106979012489322 0.28759090602397924 0.61590525507926952 1.0518015623092654 -0.18627395480871198 -0.15466764196753499 -1.2283188104629514 0.90872222185134899 0.46124894917011267 -0.076563611626625047 0.40809494256973272 0.56352901458740245 -0.14817549288272855 0.68791875243186962 0.1325756907463074 -0.74653679132461537 -1.0626659989356992 -0.46538050472736353 -0.32926766574382776 -1.0570965409278867 -0.73905912041664112
decision_type=2 2 2 2 2 2 2 2 2 2 2 2 2 2 2 2 2 2 2 2 2 2 2 2 2 2 2 2 2 2
left_child=1 10 6 7 8 11 9 18 16 -2 -1 14 20 22 15 -5 17 -4 19 -3 -10 -22 -7 29 -9 -26 -27 28 -12 -17
right_child=2 3 4 5 -6 13 -8 24 12 -11 27 -13 -14 -15 -16 23 -18 -19 -20 -21 21 -23 -24 -25 25 26 -28 -29 -30 -31
leaf_value=-0.11528044620923801 -0.0012373362668915977 -0.039299117208625736 0.02179989016272026 0.036388657891217681 0.046329123015975339 0.0066937663039128292 0.025078859249066322 -0.094980504909056018 -0.0078452938642602273 -0.076823716554355215 -0.07865387238947566 0.024775502607549484 -0.036189782751845478 -0.054345910846285844 0.0078997038755754586 -0.034253946363401379 0.046329123015975339 0.046329123015975339 -0.075575558046034164 0.01848833592716188 0.021745440464109558 0.046329123015975339 -0.032517068417272997 0.0011173362647018737 0.0019208263849945341 -0.034394750945761166 -0.061950433959829403 -0.066515533050647155 0.016675377563470085 -0.018474908071929176
leaf_weight=562 127 58 270 27 329 66 120 178 24 60 20 160 38 122 98 47 146 339 46 57 28 49 23 80 21 61 157 75 28 136
leaf_count=562 127 58 270 27 329 66 120 178 24 60 20 160 38 122 98 47 146 339 46 57 28 49 23 80 21 61 157 75 28 136
internal_value=-0.00154842 -0.0215134 0.0248366 -0.0130516 0.031112 -0.00349144 -0.000162866 -0.0256055 0.0251678 -0.0120321 -0.0380292 0.00237226 0.00683453 -0.0187204 -0.00335052 -0.00896552 0.028543 0.0253695 -0.00838509 0.000434783 0.0173267 0.0266234 -0.00280899 -0.0123574 -0.0322542 -0.0257322 -0.0293578 -0.0207317 -0.00416667 -0.0188525
internal_weight=3552 2022 1530 1337 1223 759 307 578 894 187 685 548 139 211 388 290 755 609 161 115 101 77 89 263 417 239 218 123 48 183
internal_count=3552 2022 1530 1337 1223 759 307 578 894 187 685 548 139 211 388 290 755 609 161 115 101 77 89 263 417 239 218 123 48 183
is_linear=0
shrinkage=0.05


Tree=16
num_leaves=31
num_cat=0
split_feature=5 13 13 5 5 2 10 13 5 13 2 9 10 14 17 0 16 11 11 15 5 7 3 4 2 7 0 13 15 13
split_gain=712.322 109.003 99.0228 65.4269 48.324 28.0791 25.2097 21.1043 20.5281 20.0181 19.3175 19.0466 16.8498 15.0641 14.0706 13.8269 13.8595 13.6368 12.4103 11.8104 11.6613 10.9587 9.81848 9.48259 8.86347 8.80762 8.80678 8.03061 14.8805 9.27061
threshold=0.084731245413422598 0.33612431585788732 0.04859003238379956 -0.9327140450477599 1.3415753841400149 -0.59833949804306019 -0.96857744455337513 -0.74653679132461537 0.62337875366210949 0.90872222185134899 -0.080527721904218183 -0.46538050472736353 0.15106979012489322 -0.18011257797479627 -0.19622670859098432 0.7529088854789735 -0.073009550571441637 -0.62266328930854786 0.27220971882343298 -0.3209195584058761 -0.15466764196753499 -1.6775978803634641 1.0000000180025095e-35 0.44593147933483129 1.0000000180025095e-35 -1.0104179382324217 0.35666860640048986 -0.2289357706904411 0.37322604656219488 -0.4564788937568664
decision_type=2 2 2 2 2 2 2 2 2 2 2 2 2 2 2 2 2 2 2 2 2 2 2 2 2 2 2 2 2 2
left_child=1 3 8 -1 9 17 14 -8 12 10 18 -9 27 -12 19 16 -15 -3 22 -5 26 -13 -4 -22 -6 -17 -7 29 -29 -2
right_child=2 5 4 6 24 20 7 11 -10 -11 13 21 -14 15 -16 25 -18 -19 -20 -21 23 -23 -24 -25 -26 -27 -28 28 -30 -31
leaf_value=-0.10301033982819488 -0.0073353593888862761 -0.0018907518718954686 0.008676310353831429 -0.025161404474432072 0.045239128507839337 -0.0094558342923990683 -0.091653665601103204 -0.004623411838243041 0.023824916286613009 0.044012666865176575 0.044012666865176575 0.002374948271365418 -0.072982530726637435 0.044012666865176575 -0.040168007671248333 0.0012939673857132129 -0.0040013222769605949 -0.057548022589760175 -0.02208346272715991 0.009613350638426367 0.028812604066646676 -0.04811422513681976 0.029636824085394364 -0.0097865257735718428 0.044012666865176575 0.044472371555285321 0.0268096295623673 -0.043278503009311131 0.017990526611750692 0.01791788834231314
leaf_weight=581 46 70 111 95 23 161 163 118 120 138 195 20 60 98 109 21 79 93 52 110 95 316 45 24 361 100 67 32 21 28
leaf_count=581 46 70 111 95 23 161 163 118 120 138 195 20 60 98 109 21 79 93 52 110 95 316 45 24 361 100 67 32 21 28
internal_value=-0.00149212 -0.0209693 0.0242484 -0.0277116 0.0306214 -0.000980392 -0.0194952 -0.0253647 -0.00114007 0.0238975 0.0204708 -0.0198238 -0.0114973 0.0258621 -0.00796178 0.0187919 0.00988701 -0.0180982 0.00769231 -0.000243902 0.00706052 -0.0258929 0.0147436 0.0197479 0.0453125 0.0318182 0.000438596 -0.0011811 -0.0160377 0.00945946
internal_weight=3552 2022 1530 1512 1223 510 931 617 307 839 701 454 187 493 314 298 177 163 208 205 347 336 156 119 384 121 228 127 53 74
internal_count=3552 2022 1530 1512 1223 510 931 617 307 839 701 454 187 493 314 298 177 163 208 205 347 336 156 119 384 121 228 127 53 74
is_linear=0
shrinkage=0.05


Tree=17
num_leaves=31
num_cat=0
split_feature=5 13 13 5 5 1 13 17 5 13 14 2 5 2 16 11 1 13 9 17 9 0 9 4 13 14 0 0 9 13
split_gain=666.495 143.085 77.426 46.5853 37.9964 29.7842 28.0262 26.4501 22.2136 21.0504 17.3624 14.8224 12.7741 11.7824 10.6938 11.9851 15.2077 10.6413 10.2092 10.5742 9.89612 9.87564 9.81818 9.78797 9.38931 9.14858 8.7892 8.72654 8.32035 8.19394
threshold=-0.15466764196753499 0.45348232984542852 -0.07793805748224257 1.3415753841400149 0.62337875366210949 -0.43478898704051966 0.61590525507926952 0.15949068963527682 -1.1721129417419431 -0.010732068214565514 -0.77080792188644398 -0.59833949804306019 -0.69331514835357655 -0.080527721904218183 0.17742495238780978 -0.73723772168159474 -0.33001978695392603 -0.23545691370964048 1.1250933408737185 0.98387545347213756 1.0000000180025095e-35 -0.0081672288943082077 -0.29950672388076777 -0.1370473615825176 0.90872222185134899 -0.18011257797479627 -0.33024209737777704 1.5063813924789431 0.41169154644012457 -0.10538065060973166
decision_type=2 2 2 2 2 2 2 2 2 2 2 2 2 2 2 2 2 2 2 2 2 2 2 2 2 2 2 2 2 2
left_child=2 4 5 11 7 21 8 9 -4 20 -10 -3 -7 22 15 -12 -17 -15 19 -9 -2 -1 -6 -14 25 -13 -8 -27 -23 -24
right_child=1 3 6 -5 13 12 26 18 10 -11 14 24 23 17 -16 16 -18 -19 -20 -21 -22 28 29 -25 -26 27 -28 -29 -30 -31
leaf_value=-0.090654596769855766 0.0052382878905141263 0.0017850449957316217 -0.080565730571160121 0.041812033521917737 0.044482255139812389 -0.074700633573572262 -0.027492325523540997 -0.0012107459879845185 0.0016153025974614656 0.015651389398011452 0.012898465228649771 0.041812033521917737 -0.0086990729825597857 0.0068751351306921785 -0.056768752332107701 -0.054411961599480432 -0.0033758951243407333 0.042644668418186177 -0.10465210475567377 -0.045861177741117157 -0.023213658024169772 -0.0046518633546677179 0.013215739731045796 -0.088601223791611172 0.041812033521917737 0.036713761938933324 0.018639423646358733 0.041789048287412325 -0.083065730571160123 -0.049017349581608194
leaf_weight=523 67 58 114 338 22 184 37 127 120 148 35 217 100 50 130 83 95 163 48 58 84 33 20 65 140 236 124 67 42 24
leaf_count=523 67 58 114 338 22 184 37 127 120 148 35 217 100 50 130 83 95 163 48 58 84 33 20 65 140 236 124 67 42 24
internal_value=-0.00126689 0.0193091 -0.0240653 0.0314394 0.00351418 -0.0335269 -0.0119241 -0.00432331 -0.0170711 0.00551839 -0.012203 0.024234 -0.0219198 0.0184588 -0.01793 -0.0110329 -0.0162921 0.0241784 -0.0169528 -0.0116216 -0.00761589 -0.040301 0 -0.0118182 0.0263636 0.0232692 0.00652174 0.0176568 -0.0233333 -0.0136364
internal_weight=3552 1867 1685 1056 811 947 738 532 577 299 463 718 349 279 343 213 178 213 233 185 151 598 66 165 660 520 161 303 75 44
internal_count=3552 1867 1685 1056 811 947 738 532 577 299 463 718 349 279 343 213 178 213 233 185 151 598 66 165 660 520 161 303 75 44
is_linear=0
shrinkage=0.05


Tree=18
num_leaves=31
num_cat=0
split_feature=5 5 13 13 3 13 2 15 14 17 3 5 5 9 2 15 8 17 3 6 17 7 17 5 15 16 9 6 13 2
split_gain=625.678 143.104 83.0232 71.8519 30.3932 24.8289 22.6736 16.5752 16.0745 15.387 14.8805 14.6074 13.876 12.7643 12.7059 12.2815 11.8735 11.7391 11.1798 12.9335 11.1674 10.4579 9.99827 8.73059 8.6649 8.65243 8.60114 8.5831 8.50555 9.44225
threshold=-0.15466764196753499 1.2218760251998904 -0.07793805748224257 0.04859003238379956 -0.40567427873611445 0.61590525507926952 -0.20998066663742063 -1.0570965409278867 -0.88501399755477894 0.83063462376594555 1.1951432824134829 0.68322849273681652 -0.69331514835357655 -0.6354423165321349 -0.080527721904218183 -0.46623037755489344 -0.81585952639579762 -0.34797045588493342 0.16633819043636325 1.2970387339591982 -0.28224886953830713 1.3600350022315981 -0.36591862142086024 -0.69331514835357655 -0.68743672966957081 -0.49985727667808527 0.6591382920742036 0.53930893540382396 0.93192401528358471 1.0845487117767336
decision_type=2 2 2 2 2 2 2 2 2 2 2 2 2 2 2 2 2 2 2 2 2 2 2 2 2 2 2 2 2 2
left_child=2 3 4 10 -1 7 22 -4 16 25 13 -11 -6 -2 -3 -14 -9 -17 19 -10 -20 -15 -5 26 -24 -8 -7 -13 29 -27
right_child=1 14 5 6 12 23 9 8 18 11 -12 27 15 21 -16 17 -18 -19 20 -21 -22 -23 24 -25 -26 28 -28 -29 -30 -31
leaf_value=-0.08256954211573074 0.0072754392151409336 0.040886570406351463 -0.076537444042602126 0.015777392395336178 -0.070965601894893648 0.0015747330813359996 0.039976345424971083 -0.040242645958284244 -0.043307244774623138 -0.030436593176246075 0.02774118601888298 0.016936968787350581 -0.063991425334404495 -0.034631372553312632 0.039721431845821845 0.017260826548255805 0.013144793642488883 -0.043734705533239063 0.0072192208897173598 0.0028461494491298423 -0.027192013620331659 0.014169431307595471 -0.045825405821786291 0.029500454292784098 0.0034969398931308463 0.038488642766238916 -0.063014442142100766 0.039976345424971083 0.039721431845821845 0.039721431845821845
leaf_weight=585 86 31 97 82 180 44 197 29 253 29 42 33 67 267 446 46 60 69 62 28 48 24 26 97 174 312 20 23 52 43
leaf_count=585 86 31 97 82 180 44 197 29 253 29 42 33 67 267 446 46 60 69 62 28 48 24 26 97 174 312 20 23 52 43
internal_value=-0.0013232 0.0186127 -0.0234125 0.0105036 -0.0332101 -0.0108401 0.0179712 -0.0156846 -0.011875 0.0228592 -0.00680191 0.00294118 -0.0218232 -0.00994695 0.0422432 -0.0120879 0.00730337 -0.00217391 -0.0162404 -0.0215302 -0.00272727 -0.0149485 0.00602837 0.00652174 0 0.0256623 -0.0078125 0.0178571 0.0214988 0.0187324
internal_weight=3552 1867 1685 1390 947 738 971 577 480 689 419 85 362 377 477 182 89 115 391 281 110 291 282 161 200 604 64 56 407 355
internal_count=3552 1867 1685 1390 947 738 971 577 480 689 419 85 362 377 477 182 89 115 391 281 110 291 282 161 200 604 64 56 407 355
is_linear=0
shrinkage=0.05


Tree=19
num_leaves=31
num_cat=0
split_feature=5 5 5 17 5 3 5 0 9 9 10 2 2 16 0 16 8 5 14 7 0 14 0 14 3 6 10 5 16 14
split_gain=603.593 144.922 71.0423 36.7959 25.4133 20.1024 19.2427 19.2281 25.0442 18.9128 16.4769 15.9898 13.5681 12.9383 13.7061 12.8561 12.3223 10.7544 10.7268 10.5004 10.4188 11.7722 9.98927 16.3703 8.98057 8.51039 9.53293 8.48033 8.36094 8.25143
threshold=-0.15466764196753499 1.1620262861251833 -0.99256375432014454 0.83063462376594555 0.62337875366210949 0.11751784384250642 0.56352901458740245 0.35666860640048986 0.60730290412902843 1.1008570790290835 -0.98361468315124501 -0.59833949804306019 -0.080527721904218183 0.66243720054626476 0.7529088854789735 -1.2836740016937254 0.21275034546852115 1.4612748622894289 -0.82190927863121022 -0.16430006176233289 -0.33841167390346522 -0.87193885445594776 -0.070044439285993562 -0.66478824615478505 -1.036440849304199 0.12654506415128711 -1.041420519351959 -0.81301459670066822 -0.6401844024658202 0.061717979609966285
decision_type=2 2 2 2 2 2 2 2 2 2 2 2 2 2 2 2 2 2 2 2 2 2 2 2 2 2 2 2 2 2
left_child=2 3 22 4 9 7 -5 10 -9 11 18 24 -3 14 -11 -7 -8 -14 27 20 -12 -22 -1 -24 -2 -17 -27 -4 -6 -10
right_child=1 12 5 6 28 15 16 8 29 13 19 -13 17 -15 -16 25 -18 -19 -20 -21 21 -23 23 -25 -26 26 -28 -29 -30 -31
leaf_value=-0.11873393063626284 0.0036835873927269173 0.038259672605769082 -0.041133591789953954 -0.042541603477240786 0.03797752815372251 0.023745983208641876 -0.046051433944456079 0.010961612381796404 0.00033356391252565843 -0.021332736684038789 -0.049360170551013452 0.016471420099332845 0.037735360253530775 -0.10069776571000116 0.039059840599584117 -0.0077827593767430432 0.03797752815372251 0.037735360253530775 -0.053581068573786486 -0.059833745631498507 0.0071780896267092942 -0.033008844534009478 0.001982326749263397 -0.075823351813038189 -0.017800411595302146 -0.051018755747565182 -0.025603155011461043 0.014872486828957698 0.037735360253530775 -0.06328656697950355
leaf_weight=507 54 32 21 111 70 39 39 91 20 51 137 592 158 22 33 237 52 327 43 166 25 116 31 79 50 28 47 48 276 50
leaf_count=507 54 32 21 111 70 39 39 91 20 51 137 592 158 22 33 237 52 327 43 166 25 116 31 79 50 28 47 48 276 50
internal_value=-0.00118243 0.0183985 -0.0228783 0.00977778 0.0132404 -0.0150749 -0.00990099 -0.0198745 -0.00465839 0.00835411 -0.0242806 0.0113506 0.0409091 -0.0113208 -0.00238095 -0.00527066 0.00714286 0.0429897 -0.00714286 -0.0286036 -0.0226619 -0.0131206 -0.0363857 -0.0227273 -0.00673077 -0.00865385 -0.0233333 0.00507246 0.0245665 -0.0271429
internal_weight=3552 1867 1685 1350 1148 1068 202 717 161 802 556 696 517 106 84 351 91 485 112 444 278 141 617 110 104 312 75 69 346 70
internal_count=3552 1867 1685 1350 1148 1068 202 717 161 802 556 696 517 106 84 351 91 485 112 444 278 141 617 110 104 312 75 69 346 70
is_linear=0
shrinkage=0.05


Tree=20
num_leaves=31
num_cat=0
split_feature=5 13 5 5 5 13 10 5 14 9 16 17 13 1 3 0 9 3 13 6 9 9 2 6 13 4 14 7 17 15
split_gain=567.842 133.398 107.13 44.8482 35.4255 31.3781 22.2941 14.1425 18.9237 13.7405 13.6162 12.9573 12.4551 12.0499 11.2546 12.6576 12.6172 10.7488 10.034 9.21409 8.97503 8.93657 9.21237 10.169 9.95815 9.25036 8.83293 10.1252 8.46507 8.30801
threshold=0.1445809677243233 -0.086931433528661714 1.1620262861251833 -0.69331514835357655 -0.33421681821346277 0.44549672305583959 -1.1115142107009885 -1.3516620993614195 -0.76139229536056507 1.4165248870849612 1.2609847784042361 0.8636782467365266 0.82803612947464 -0.43478898704051966 0.11751784384250642 0.37326289713382726 1.2309359908103945 1.0977617502212527 0.82803612947464 -0.79390153288841236 -1.3407697677612302 1.1008570790290835 -0.59833949804306019 -0.51073041558265675 0.56166923046112072 -0.20991972088813779 -0.76139229536056507 -1.2573826909065244 -1.2103123664855955 -0.072739008814096437
decision_type=2 2 2 2 2 2 2 2 2 2 2 2 2 2 2 2 2 2 2 2 2 2 2 2 2 2 2 2 2 2
left_child=1 3 5 13 7 9 19 -3 28 17 12 -7 21 -1 15 -10 -17 20 -4 -5 -2 22 25 24 -24 -6 -8 -28 -9 -22
right_child=2 4 18 6 10 11 26 8 14 -11 -12 -13 -14 -15 -16 16 -18 -19 -20 -21 29 -23 23 -25 -26 -27 27 -29 -30 -31
leaf_value=-0.11596782709506764 0.012565824794304415 -0.066773875308658859 0.035848592240854238 0.016581449132456072 0.0035355279860601165 0.035910231694833386 -0.01365792266352215 0.013101928682506526 -0.049628648910274457 -0.075218369986805644 -0.016674183651674303 -0.00078685837465717343 0.044115661455950743 -0.066438033859598636 -0.0012941765208074553 0.0017171861722897086 -0.068989839122235219 0.036689742229035718 0.035848592240854238 -0.028588214041605831 -0.012867644571700643 -0.026178253961526822 -0.0024810229221070568 0.026092028949061687 0.02346851164731727 -0.013410983270106681 -0.0018255108398705035 -0.060396587458444055 -0.0040407658291321978 0.0051516197666872767
leaf_weight=420 32 95 245 51 50 449 71 51 173 39 39 50 54 187 114 77 21 76 267 72 120 37 61 144 20 26 35 210 99 192
leaf_count=420 32 95 245 51 50 449 71 51 173 39 39 50 54 187 114 77 21 76 267 72 120 37 61 144 20 26 35 210 99 192
internal_value=-0.000517193 -0.0171571 0.0233333 -0.0298279 -0.00466541 0.0134656 -0.0176538 -0.0122222 -0.00906542 0.0040305 0.00638051 0.0221443 0.00918367 -0.0386326 -0.0149351 -0.0204797 -0.00612245 0.00666667 0.0417969 0.000406504 0.00290698 0.0056213 0.00847176 0.0135556 -0.000617284 -0.00657895 -0.0246835 -0.0291837 0.006 0.000320513
internal_weight=3577 2107 1470 1046 1061 958 439 630 535 459 431 499 392 607 385 271 98 420 512 123 344 338 301 225 81 76 316 245 150 312
internal_count=3577 2107 1470 1046 1061 958 439 630 535 459 431 499 392 607 385 271 98 420 512 123 344 338 301 225 81 76 316 245 150 312
is_linear=0
shrinkage=0.05


Tree=21
num_leaves=31
num_cat=0
split_feature=5 5 13 13 3 5 14 9 0 5 13 3 9 3 3 1 3 13 9 0 1 17 16 5 13 5 4 9 17 16
split_gain=551.682 157.217 83.5639 47.9695 35.3603 18.9844 21.6004 18.5096 15.4297 16.5192 14.9774 14.8194 16.0348 13.3701 13.3281 13.0692 12.2777 11.4157 11.3498 10.4058 10.1161 12.2967 10.0962 10.4435 10.034 9.92547 12.5984 10.6973 9.6 9.33023
threshold=-0.15466764196753499 1.1620262861251833 -0.068512629717588411 0.59088143706321727 -0.38574002683162684 -1.2319626808166502 -0.87856534123420704 1.1420961618423464 -0.28889879584312433 -0.9327140450477599 -0.58014255762100209 0.11751784384250642 0.15137757360935214 0.8400397300720216 -0.70891651511192311 -0.97734811902046193 -0.016588531434535977 0.68000563979148876 0.13248918205499652 0.40160767734050756 0.20194904506206515 0.082659371197223677 -0.66074556112289418 0.62337875366210949 0.82803612947464 -1.2319626808166502 -0.1370473615825176 -0.52023139595985401 -0.18934875726699826 -0.4835554808378219
decision_type=2 2 2 2 2 2 2 2 2 2 2 2 2 2 2 2 2 2 2 2 2 2 2 2 2 2 2 2 2 2
left_child=2 3 4 7 8 17 -7 10 -1 -10 -2 12 19 15 -5 -12 -17 -4 -11 -8 -18 -22 -9 -24 -3 -6 27 28 -27 -16
right_child=1 24 5 14 25 6 11 22 9 18 13 -13 -14 -15 29 16 20 -19 -20 -21 21 -23 23 -25 -26 26 -28 -29 -30 -31
leaf_value=-0.09062945511908041 -0.019301416961080321 0.034056162628811525 -0.063435181543225916 0.002743940950568824 -0.087823996909149993 0.013601971590182484 -0.017859811113754544 0.0076722140481995105 -0.092281321583935372 0.0048312843217245723 0.014102475113523073 0.0019991437216608787 -0.044968241956108684 0.034114720110091715 0.035283012604835733 -0.0058848830782050505 0.022951795672076881 0.0048436500562080822 -0.027792368099249745 0.0088298933334136631 0.016198919111955968 -0.013720128949943344 -0.074662966356228475 0.00059210177210640153 0.034056162628811525 0.023540329055079703 -0.077393720977460695 -0.037247983133081863 -0.048201232005075562 0.034114720110091715
leaf_weight=430 126 245 107 81 35 104 108 25 62 38 39 171 190 151 122 149 107 21 37 67 106 57 76 35 267 60 100 143 20 298
leaf_count=430 126 245 107 81 35 104 108 25 62 38 39 171 190 151 122 149 107 21 37 67 106 57 76 35 267 60 100 143 20 298
internal_value=-0.00046128 0.0181529 -0.0211754 0.00932945 -0.0312973 -0.00898438 -0.00546875 0.00223881 -0.0390653 -0.0244526 0.00537415 -0.00951493 -0.0152055 0.00862069 0.0216567 0.00436681 0.00178998 -0.0265625 -0.00866667 -0.00428571 0.00814815 0.000306748 -0.0147059 -0.0211712 0.0417969 -0.0189944 -0.0162539 -0.00964126 0.005 0.0252381
internal_weight=3577 1884 1693 1372 925 768 640 871 567 137 735 536 365 609 501 458 419 128 75 175 270 163 136 111 512 358 323 223 80 420
internal_count=3577 1884 1693 1372 925 768 640 871 567 137 735 536 365 609 501 458 419 128 75 175 270 163 136 111 512 358 323 223 80 420
is_linear=0
shrinkage=0.05


Tree=22
num_leaves=31
num_cat=0
split_feature=5 5 13 13 3 17 2 11 15 5 13 15 4 1 1 9 6 1 11 13 6 10 13 3 15 13 6 5 9 3
split_gain=527.227 180.874 68.1979 52.9258 42.9812 23.2927 17.6803 16.2655 13.8771 12.4207 12.3508 12.1111 13.415 12.5954 12.0615 11.8343 11.6404 13.0591 10.7573 10.034 9.98338 12.1665 9.91209 9.5375 9.30035 8.68704 9.31488 8.40016 8.38981 8.06336
threshold=-0.27436709403991694 1.1620262861251833 0.086709640920162215 1.0000000180025095e-35 -0.38574002683162684 0.78840970993042003 -0.46888655424118036 -0.89621919393539418 -0.59016725420951832 -0.9327140450477599 0.84552896022796642 -0.82843989133834828 -0.1370473615825176 -0.050173226743936532 -0.92743673920631398 1.337682902812958 -0.76531976461410511 -1.2041656970977781 0.67212325334548961 0.82803612947464 1.6110275983810427 -1.0855645537376402 -0.42984011769294733 0.8400397300720216 -0.62937441468238819 -0.5320291519165038 -0.35881137847900385 0.62337875366210949 -0.38406454026699061 0.057332415133714683
decision_type=2 2 2 2 2 2 2 2 2 2 2 2 2 2 2 2 2 2 2 2 2 2 2 2 2 2 2 2 2 2
left_child=2 3 4 7 9 6 10 -2 15 -1 -5 -6 13 -13 -10 16 -4 -18 23 -3 21 25 -11 -8 -25 -9 -27 -23 -24 -16
right_child=1 19 8 5 11 -7 18 20 14 22 -12 12 -14 -15 29 -17 17 -19 -20 -21 -22 27 28 24 -26 26 -28 -29 -30 -31
leaf_value=-0.10563796298436023 0.012278338921876042 0.032353354497370958 0.0047831004393125822 -0.0015131997822117383 -0.062907762321975577 -0.0017001208308746298 0.032347344650608005 -0.019125372133546349 0.011398932039297517 -0.060683673482464021 0.047689464523861913 -0.04739490983671301 -0.064186804923060503 0.0026716914613174603 -0.023672049652264618 -0.07400163100752799 0.031229240274824079 -0.036175072735268814 0.016442548895221343 0.032353354497370958 0.01588625065988938 -0.040153512504334903 0.0095243358520380912 0.0034087657100364769 0.033738987349295084 0.035986241640583616 -0.0052548678588270285 0.0042003157283697417 -0.042026072005276888 0.0035062799721107488
leaf_weight=373 34 245 58 146 86 125 490 49 52 137 28 72 79 130 100 29 20 189 147 267 20 233 24 21 128 37 28 55 67 108
leaf_count=373 34 245 58 146 86 125 490 49 52 137 28 72 79 130 100 29 20 189 147 267 20 233 24 21 128 37 28 55 67 108
internal_value=-0.000489237 0.0160497 -0.022769 0.00749513 -0.0307851 0.0135023 0.0161458 -0.00679825 -0.00881295 -0.0390183 0.00172414 -0.0173025 -0.0122776 -0.00544554 -0.000384615 -0.0162162 -0.0129213 -0.0184211 0.0193384 0.0417969 -0.00947867 -0.011194 -0.0298246 0.022144 0.0332215 0.00263158 0.0146154 -0.0166667 -0.017033 -0.00576923
internal_weight=3577 2053 1524 1541 968 1085 960 456 556 601 174 367 281 202 260 296 267 209 786 512 422 402 228 639 149 114 65 288 91 208
internal_count=3577 2053 1524 1541 968 1085 960 456 556 601 174 367 281 202 260 296 267 209 786 512 422 402 228 639 149 114 65 288 91 208
is_linear=0
shrinkage=0.05


Tree=23
num_leaves=31
num_cat=0
split_feature=5 13 5 5 2 13 13 17 9 3 7 1 15 15 9 9 5 14 13 9 2 13 6 8 9 15 10 17 13 0
split_gain=517.033 131.728 103.869 48.2351 37.0545 20.2947 18.9244 18.377 16.1221 15.504 14.9267 14.8425 12.2911 12.1995 10.7642 10.4516 10.3956 10.0853 10.034 10.0154 9.82029 9.47543 9.30627 11.0992 10.0659 9.6763 8.76274 8.68667 8.28718 8.21199
threshold=0.264280416071415 -0.11691337451338767 1.1620262861251833 -0.69331514835357655 -0.59833949804306019 0.58428952097892772 0.50353419780731212 -0.076563611626625047 0.58155283331871044 -0.64835223555564869 -0.59312021732330311 -0.43478898704051966 -0.9331129491329192 -0.59016725420951832 -0.65348979830741871 -0.059644818305969231 -0.27436709403991694 -0.87193885445594776 0.82803612947464 -1.0127004981040952 0.30783110857009893 0.16870079189538958 -0.22670827805995938 1.0000000180025095e-35 1.1768044233322146 -0.063340812921524034 -1.2243891358375547 0.058195965364575393 0.26328068971633917 -0.18521988391876218
decision_type=2 2 2 2 2 2 2 2 2 2 2 2 2 2 2 2 2 2 2 2 2 2 2 2 2 2 2 2 2 2
left_child=1 3 5 11 8 15 9 14 10 -6 17 29 28 -12 -5 -2 27 -3 -4 -18 -7 -15 24 25 -17 -24 -16 -14 -11 -1
right_child=2 4 18 7 6 20 -8 -9 -10 12 13 -13 16 21 26 22 19 -19 -20 -21 -22 -23 23 -25 -26 -27 -28 -29 -30 -31
leaf_value=-0.10035606483514221 0.030722034737122386 0.021248785446306373 0.030735686772502425 0.017380982304893666 0.023514540928118201 0.03079161687205674 0.013332765708589767 -0.053890494862130517 -0.04636907066201075 -0.060376084753327723 -0.046318829480734139 -0.054785427154917743 -0.01051316152907702 -0.059779064121638338 0.016907233001618671 -0.0016497853316173707 0.037720117110244013 -0.0050162649353114657 0.030735686772502425 0.00048745918374439869 0.031525217205846938 0.0011840253780977196 -0.047091255596192476 0.032195348354210875 -0.075507851318836736 0.0047807589215972173 -0.02646172926951822 -0.051004543780279299 -0.012271872032393617 -0.055298443762995531
leaf_weight=344 187 47 245 70 28 181 318 207 132 37 71 180 152 21 27 92 32 119 267 145 154 34 29 102 22 51 147 42 24 70
leaf_count=344 187 47 245 70 28 181 318 207 132 37 71 180 152 21 27 92 32 119 267 145 154 34 29 102 22 51 147 42 24 70
internal_value=-0.000573106 -0.015198 0.0241353 -0.0281818 -0.00391015 0.0130807 0.00257069 -0.0158537 -0.0158019 -0.00391304 -0.00924658 -0.0375421 -0.00625 -0.0222222 -0.00655738 0.00652174 -0.00283019 0.00060241 0.0417969 0.0059322 0.0225373 -0.00454545 0.000675676 0.00769231 -0.0105263 -0.00625 -0.0132184 -0.0108247 -0.0270492 -0.0427536
internal_weight=3577 2247 1330 1045 1202 818 778 451 424 460 292 594 432 126 244 483 371 166 512 177 335 55 296 182 114 80 174 194 61 414
internal_count=3577 2247 1330 1045 1202 818 778 451 424 460 292 594 432 126 244 483 371 166 512 177 335 55 296 182 114 80 174 194 61 414
is_linear=0
shrinkage=0.05


Tree=24
num_leaves=31
num_cat=0
split_feature=5 13 5 5 5 17 15 10 17 5 0 1 1 2 0 10 3 13 1 13 6 13 1 2 7 1 16 10 0 15
split_gain=469.898 142.576 58.7154 54.0624 38.0381 16.1622 14.7922 14.6246 14.2381 13.6494 12.3992 11.6545 10.876 17.4422 10.8021 12.0088 20.8365 10.034 9.94715 9.39781 10.3434 8.60417 8.51581 8.4273 10.0012 8.25178 9.16667 8.1077 8.51493 7.91279
threshold=0.62337875366210949 0.059011172503232963 1.1620262861251833 -0.69331514835357655 -0.27436709403991694 1.1953022480010989 -0.59016725420951832 -1.1863776445388792 0.78840970993042003 -1.3516620993614195 -1.151788532733917 -0.92743673920631398 -1.2041656970977781 -0.59833949804306019 0.17477741837501529 0.33064101636409765 -0.79463705420494068 0.82803612947464 -0.56703928112983693 0.26328068971633917 -0.76531976461410511 0.43832802772521978 -0.6318761110305785 -0.46888655424118036 -0.6432414948940276 0.29350008070468908 1.1357921957969668 -1.1539099812507627 -0.82050269842147816 -0.27501453459262842
decision_type=2 2 2 2 2 2 2 2 2 2 2 2 2 2 2 2 2 2 2 2 2 2 2 2 2 2 2 2 2 2
left_child=1 3 5 9 6 21 12 -5 23 -1 -9 -8 -3 -14 22 -16 -17 -4 -15 -20 -21 29 -12 24 -6 26 -10 28 -11 -2
right_child=2 4 17 7 8 -7 11 10 25 27 14 -13 13 18 15 16 -18 -19 19 20 -22 -23 -24 -25 -26 -27 -28 -29 -30 -31
leaf_value=-0.095338261593385099 -0.0048534433770155878 0.028605338988767583 0.029198902433877284 0.0045928252945984125 0.011739906471809159 -0.003092417936066072 0.0061735157941730902 0.010236747085337018 0.029542027246195614 -0.046360963707841978 -0.05068645579783615 -0.0060263128073840821 -0.037891085706003219 0.01536195616395386 0.033282888599832243 0.012889448821556649 -0.056354294992254153 0.029198902433877284 -0.062964911946940122 0.014886496350218437 -0.033295926544344635 0.029904678355028393 -0.024747904434297155 0.022742713798680383 -0.0043313287603112816 -0.026298624802052431 -0.04328831526135668 -0.050337853467514494 0.027395392580929868 0.031370720051016043
leaf_weight=202 49 22 245 126 65 57 55 39 24 65 159 215 147 21 23 31 59 267 35 33 48 232 254 475 87 23 20 372 20 107
leaf_count=202 49 22 245 126 65 57 55 39 24 65 159 215 147 21 23 31 59 267 35 33 48 232 254 475 87 23 20 372 20 107
internal_value=0.000265586 -0.010687 0.0302508 -0.022 0.00133858 0.0169663 -0.00815972 -0.0122287 0.0092219 -0.0322458 -0.0156637 0.00037037 -0.0156863 -0.0183099 -0.0176806 -0.0039823 -0.0122222 0.0417969 -0.00547445 -0.0112069 -0.00185185 0.0206186 -0.0214286 0.011563 0.00131579 -0.0126866 0 -0.0274617 -0.0135294 0.0115385
internal_weight=3577 2620 957 1350 1270 445 576 691 694 659 565 270 306 284 526 113 90 512 137 116 81 388 413 627 152 67 44 457 85 156
internal_count=3577 2620 957 1350 1270 445 576 691 694 659 565 270 306 284 526 113 90 512 137 116 81 388 413 627 152 67 44 457 85 156
is_linear=0
shrinkage=0.05


Tree=25
num_leaves=31
num_cat=0
split_feature=5 13 5 5 15 13 9 8 13 2 14 5 1 5 15 8 7 0 9 0 13 4 0 9 8 4 11 2 5 17
split_gain=467.498 125.098 71.1835 39.0098 32.982 21.4427 22.4446 18.3573 17.6351 15.4085 14.9968 15.9343 14.822 11.2238 11.1867 11.1294 10.4609 10.2857 10.1526 10.1253 9.86203 8.47941 8.07764 9.16017 8.99064 8.71974 7.59291 7.94222 7.48138 8.39608
threshold=0.62337875366210949 0.059011172503232963 1.3415753841400149 -1.2918124198913572 -0.69839781522750843 -1.7204343080520628 -0.38406454026699061 -0.081138188019394861 0.60853314399719249 -0.080527721904218183 -0.16330776363611219 -1.2918124198913572 0.14419836550951007 -0.094817921519279466 0.61464157700538646 -0.44849886000156397 -0.93545293807983387 -0.19585970789194104 1.0518015623092654 0.5363079607486726 0.46562591195106512 0.081569701433181777 1.0465766191482546 0.76210206747055065 -0.96280378103256214 0.15444206073880198 0.40133838355541235 0.56673699617385875 0.20443069189786914 -1.2332400679588316
decision_type=2 2 2 2 2 2 2 2 2 2 2 2 2 2 2 2 2 2 2 2 2 2 2 2 2 2 2 2 2 2
left_child=1 3 7 -1 10 -5 14 -2 13 -4 11 17 16 22 -7 -13 18 -3 -8 -17 26 -15 23 24 -6 -26 -9 -28 29 -18
right_child=2 4 9 5 8 6 12 20 -10 -11 -12 15 -14 21 -16 19 28 -19 -20 -21 -22 -23 -24 -25 25 -27 27 -29 -30 -31
leaf_value=-0.090571348513715844 -0.0014253983968477435 -0.076971121290678471 0.027593161684411883 -0.092821368920009389 -0.02924983138071411 -0.00019325721615661708 -0.01168456799148756 0.031557702949018343 0.02925310258855416 0.027738957312183433 -0.038565878108123397 -0.020688372143837386 -0.021715917310123213 0.028355595019448843 -0.035646300369479404 0.0025644262223230465 -0.0021289647382625398 0.0072423362031459604 -0.083405814996248565 0.050175939783527884 0.027800596766162578 0.0001048599967342856 0.024372155612267354 -0.033788074398257421 0.0035403185665570328 -0.026025862485463392 -0.035543394553679386 0.029830466958222026 -0.026493176767882876 -0.048154549615641008
leaf_weight=240 103 42 22 128 46 257 93 109 319 375 135 57 203 80 67 89 24 21 36 27 293 136 24 54 120 32 32 35 33 292
leaf_count=240 103 42 22 128 46 257 93 109 319 375 135 57 203 80 67 89 24 21 36 27 293 136 24 54 120 32 32 35 33 292
internal_value=-0.000624291 -0.0118395 0.0289474 -0.0221049 8.46024e-05 -0.0182259 -0.0157711 0.0176573 0.00573366 0.0452141 -0.0122642 -0.00466102 -0.0209251 -0.000203252 -0.00493827 0.00317919 -0.0257322 -0.0261905 -0.0135659 0.012069 0.021855 0.00833333 -0.00688406 -0.00952381 -0.00454545 0.00131579 0.0125 -0.000746269 -0.0302292 -0.0325949
internal_weight=3524 2555 969 1373 1182 1133 1005 572 811 397 371 236 681 492 324 173 478 63 129 116 469 216 276 252 198 152 176 67 349 316
internal_count=3524 2555 969 1373 1182 1133 1005 572 811 397 371 236 681 492 324 173 478 63 129 116 469 216 276 252 198 152 176 67 349 316
is_linear=0
shrinkage=0.05


Tree=26
num_leaves=31
num_cat=0
split_feature=5 5 5 13 13 5 9 13 2 2 3 17 7 17 2 13 4 9 1 5 11 0 13 0 1 4 9 8 0 1
split_gain=460.105 105.675 73.0874 40.3196 31.9834 17.8354 15.7262 14.8942 13.5919 13.3096 13.2229 16.4686 12.6007 12.7454 10.7908 11.2437 11.2101 9.69008 9.39659 8.78473 8.62697 8.5745 8.45109 7.81469 11.8772 9.24658 7.61472 7.54464 7.46075 8.79523
threshold=0.62337875366210949 -0.69331514835357655 1.2218760251998904 0.059011172503232963 0.27024070918560034 -1.2918124198913572 -1.4262197613716123 0.47638314962387091 -0.080527721904218183 -0.080527721904218183 0.46124894917011267 -0.19622670859098432 -0.87198686599731434 -1.1458388566970823 -0.59833949804306019 0.61590525507926952 -0.28279208391904825 0.93900734186172496 -0.48073507845401758 0.20443069189786914 0.32083241641521459 0.073471140116453185 0.42404359579086309 -0.025586043484508988 0.023623602464795116 0.22731441259384158 0.33852909505367285 -0.22808245569467542 0.20302122086286548 0.25497195124626165
decision_type=2 2 2 2 2 2 2 2 2 2 2 2 2 2 2 2 2 2 2 2 2 2 2 2 2 2 2 2 2 2
left_child=1 4 7 6 5 -1 -3 18 -6 -4 11 28 -7 -14 16 17 -5 23 -2 -13 -20 -12 -19 24 -16 -26 -21 -9 29 -8
right_child=2 3 9 14 8 12 10 27 -10 -11 21 19 13 -15 15 -17 -18 22 20 26 -22 -23 -24 -25 25 -27 -28 -29 -30 -31
leaf_value=-0.086042781088030054 -0.0053391682722244488 0.0087111878533804084 0.027439965242853994 0.0035737475806285283 -0.026494556953621108 -0.026206772775624367 -0.032848026674611973 -0.0043731736884168541 0.019186952182200789 0.026352009446574256 -0.019261302979796582 -0.055951465767416414 -0.011947931595139006 -0.050767483668078553 -0.018023939216889807 0.028956703543546694 -0.012332797572955512 -0.00062622839900565723 0.029669609487070939 0.0057864147482288523 -0.0010154992189440827 0.061493279009346494 -0.045016955940182561 0.020101975094851322 0.014381215636230273 -0.016254570638461318 -0.065614072072143523 0.026901996318796598 0.0061108284201436104 0.012973129226605718
leaf_weight=270 51 79 31 90 173 128 135 22 26 437 152 180 61 317 51 307 71 60 101 31 81 21 29 133 98 48 27 246 34 34
leaf_count=270 51 79 31 90 173 128 135 22 26 437 152 180 61 317 51 307 71 60 101 31 81 21 29 133 98 48 27 246 34 34
internal_value=-0.000595914 -0.0117221 0.028741 -0.00373418 -0.0246667 -0.0292526 -0.0127706 0.0154691 -0.00678392 0.0429487 -0.0154723 -0.020068 -0.0237154 -0.0283069 0.00332582 0.00592287 -0.00838509 0.000596659 0.00622318 -0.0289916 0.0115385 -0.00375723 -0.0140449 0.00454545 -0.00177665 0.00547945 -0.012069 0.0235075 -0.00960591 -0.0139053
internal_weight=3524 2555 969 1580 975 776 693 501 199 468 614 441 506 378 887 726 161 419 233 238 182 173 89 330 197 146 58 268 203 169
internal_count=3524 2555 969 1580 975 776 693 501 199 468 614 441 506 378 887 726 161 419 233 238 182 173 89 330 197 146 58 268 203 169
is_linear=0
shrinkage=0.05


Tree=27
num_leaves=31
num_cat=0
split_feature=5 13 5 5 15 13 9 14 4 13 16 3 2 7 13 10 0 6 5 11 10 0 9 10 15 16 3 6 5 17
split_gain=446.292 96.1141 74.153 39.9829 28.6175 22.2949 20.7805 14.9968 14.8828 14.258 13.9779 13.6182 13.3096 12.5576 11.4337 11.2129 10.3763 15.0939 10.0463 9.85605 9.55267 10.1578 9.46278 8.96394 8.73556 11.3146 8.11322 7.89682 7.787 7.83966
threshold=0.62337875366210949 0.059011172503232963 1.2218760251998904 -1.2918124198913572 -0.69839781522750843 -1.7204343080520628 -0.11903854459524153 -0.16330776363611219 -1.448749780654907 0.47638314962387091 0.15437436848878863 0.74502778053283703 -0.080527721904218183 -1.3639782667160032 0.85869657993316661 1.3156421780586245 0.18900041282176974 0.11916633695364 -1.2918124198913572 0.32083241641521459 -1.1650822162628172 -0.40568572282791132 -1.3030706644058225 1.2351560592651369 1.1967898011207583 -0.93896955251693714 0.77106648683547985 -0.33165220916271204 -1.1721129417419431 -0.76138293743133534
decision_type=2 2 2 2 2 2 2 2 2 2 2 2 2 2 2 2 2 2 2 2 2 2 2 2 2 2 2 2 2 2
left_child=1 3 9 -1 7 -5 16 8 18 15 11 13 -4 -8 26 19 17 24 -3 -2 -15 -22 -19 -23 25 -7 28 -27 -6 -30
right_child=2 4 12 5 14 6 10 -9 -10 -11 -12 -13 -14 20 -16 -17 -18 22 -20 -21 21 23 -24 -25 -26 27 -28 -29 29 -31
leaf_value=-0.081740642033628547 0.028425468005152534 -0.066678980419105027 0.026067966980711302 -0.085641926290604992 -0.068573930131936425 0.023303268288346991 0.0048566285349141095 -0.035327245563936009 0.0031464435911654821 0.025430117708172273 -0.047945766251257682 0.036486811853380589 0.025034408974245539 -0.00082996560967405495 0.031933422056751606 -0.01257519055212244 0.015118265964199497 -0.0008944610664770148 0.0091210045454959143 -0.0037673739895714101 -0.037875267255823422 0.0016635123627402717 -0.040273331875797624 -0.042443386048377232 -0.04310153176761309 -0.016634585714498207 0.016875505713495099 0.011981790885423328 0.014505109444047481 -0.00063264594362777427
leaf_weight=240 116 50 31 128 26 47 36 135 164 268 219 29 437 53 106 27 50 40 22 90 145 57 107 40 21 114 115 47 104 460
leaf_count=240 116 50 31 128 26 47 36 135 164 268 219 29 437 53 106 27 50 40 22 90 145 57 107 40 21 114 115 47 104 460
internal_value=-0.000255392 -0.0112133 0.0286378 -0.0202112 -0.000761421 -0.0162842 -0.0137811 -0.0122642 -0.00466102 0.0152695 -0.0199482 -0.0138889 0.0429487 -0.0167674 0.00450062 0.00622318 -0.00539906 -0.00824468 -0.0236111 0.0101942 -0.0201695 -0.0243802 -0.0207483 -0.0118557 -0.000218341 0.00288462 0.00219858 -0.00341615 -0.000169492 0.00106383
internal_weight=3524 2555 969 1373 1182 1133 1005 371 236 501 579 360 468 331 811 233 426 376 72 206 295 242 147 97 229 208 705 161 590 564
internal_count=3524 2555 969 1373 1182 1133 1005 371 236 501 579 360 468 331 811 233 426 376 72 206 295 242 147 97 229 208 705 161 590 564
is_linear=0
shrinkage=0.05


Tree=28
num_leaves=31
num_cat=0
split_feature=5 5 5 5 17 13 11 13 8 2 9 0 3 1 3 4 3 15 0 2 10 14 6 0 13 6 11 0 9 17
split_gain=444.54 88.4838 74.153 37.0464 26.4503 22.2488 19.3778 19.3479 14.3038 13.3096 12.4788 11.7855 10.9767 12.9688 10.971 10.6379 13.3734 10.3564 10.1739 10.0206 9.94866 9.91077 9.67882 10.5001 14.4285 9.02949 11.5757 8.22961 8.96791 7.73341
threshold=0.62337875366210949 -0.39406652748584742 1.2218760251998904 -1.3516620993614195 -1.2332400679588316 0.16870079189538958 -0.96855232119560231 0.27024070918560034 -0.081138188019394861 -0.080527721904218183 0.93152382969856273 -0.19585970789194104 0.42645195126533514 -0.966906577348709 0.26584108173847204 -0.064175008796155439 -0.69870135188102711 -0.62281304597854603 -0.025586043484508988 -0.59833949804306019 1.532404959201813 0.12041911855340005 0.011566636618226768 -0.33841167390346522 -0.052624259144067757 0.11916633695364 -0.079655565321445451 1.6951748132705691 1.2191863656044009 -0.06882955506443976
decision_type=2 2 2 2 2 2 2 2 2 2 2 2 2 2 2 2 2 2 2 2 2 2 2 2 2 2 2 2 2 2
left_child=1 3 8 11 -5 6 18 15 -2 -4 14 -1 13 -9 -8 16 22 29 -3 -7 27 25 -6 -24 -25 26 -16 28 -10 -18
right_child=2 5 9 4 7 19 10 12 20 -11 -12 -13 -14 -15 21 -17 17 -19 -20 -21 -22 -23 23 24 -26 -27 -28 -29 -30 -31
leaf_value=-0.077653609931947129 -0.003025379512549109 0.0010681877126723861 0.024764568631675754 0.0035514892006808354 -0.049717392127793691 -0.0026186697570054207 -0.022852767717685653 0.0055969773465551764 0.024103609109530758 0.023782688525533269 -0.051553131358516004 -0.031699971362224043 0.012820915404465706 -0.025608621963605405 -0.014661823271478315 -0.06436880227097011 -0.035723154221858282 -0.0091100098511173178 0.018519794875367524 0.012474790044339957 -0.0079983815889129953 0.035633731543116179 -0.041169633308399491 0.0074564654324106644 -0.025882109374981144 -0.025526802660656545 0.026653053051762621 0.025076940074625711 -0.024453661669716811 -0.081863540747804428
leaf_weight=244 96 26 31 118 99 97 207 45 325 437 128 53 43 126 65 129 99 183 23 550 20 26 117 46 20 33 50 35 25 28
leaf_count=244 96 26 31 118 99 97 207 45 325 437 128 53 43 126 65 129 99 183 23 550 20 26 117 46 20 33 50 35 25 28
internal_value=-0.000198638 -0.011135 0.0286378 -0.0199259 -0.0155271 -0.00128631 -0.00860215 -0.0183422 0.0152695 0.0429487 -0.0114931 -0.0355219 -0.00514019 -0.0108187 -0.00695538 -0.0222607 -0.0194257 -0.0122581 0.0214286 0.00502318 0.0193827 0.00229885 -0.027305 -0.0204918 -0.00454545 -0.0027027 0.00391304 0.0211688 0.0188571 -0.0232283
internal_weight=3524 2555 969 1350 1053 1205 558 935 501 468 509 297 214 171 381 721 592 310 49 647 405 174 282 183 66 148 115 385 350 127
internal_count=3524 2555 969 1350 1053 1205 558 935 501 468 509 297 214 171 381 721 592 310 49 647 405 174 282 183 66 148 115 385 350 127
is_linear=0
shrinkage=0.05


Tree=29
num_leaves=31
num_cat=0
split_feature=5 5 5 13 13 13 8 2 5 17 15 3 11 15 17 15 0 16 17 5 4 8 4 2 13 0 7 17 0 17
split_gain=431.513 92.0115 74.153 44.3205 18.2279 16.4024 14.3038 13.3096 12.9007 13.1988 12.4561 10.9395 13.8289 13.0211 12.9087 11.6356 10.366 10.8051 9.72442 11.8307 14.0768 9.68974 9.66667 9.36334 12.1401 8.99738 8.68037 8.87143 8.41856 8.11299
threshold=0.62337875366210949 -0.99256375432014454 1.2218760251998904 0.038107547909021385 0.27024070918560034 -1.1798112988471983 -0.081138188019394861 -0.080527721904218183 -1.3516620993614195 -1.3262318372726438 2.2960063219070439 0.23696756362915042 -0.31167821586132044 -0.28637601435184473 0.0094127403572201746 0.65814796090126049 0.20302122086286548 -0.74238502979278553 -1.2673547863960264 -0.27436709403991694 -0.50140914320945729 -0.96280378103256214 -0.93864327669143666 -0.20998066663742063 -0.26265515387058253 -0.71080148220062245 -0.84957912564277638 -0.054075285792350762 0.77553522586822521 -0.77127829194068898
decision_type=2 2 2 2 2 2 2 2 2 2 2 2 2 2 2 2 2 2 2 2 2 2 2 2 2 2 2 2 2 2
left_child=1 4 6 5 8 -3 -2 -4 -1 -10 11 12 15 -13 16 -7 17 -14 -5 20 21 -20 25 -8 -25 -6 27 -11 -23 -21
right_child=2 3 7 18 22 10 23 -9 9 26 -12 13 14 -15 -16 -17 -18 -19 19 29 -22 28 -24 24 -26 -27 -28 -29 -30 -31
leaf_value=-0.073770929435349783 -0.002874110536921637 -0.055605840086449823 0.023526340200091946 0.027676348910863836 -0.075993343297510521 -0.00054715459152134829 0.001347386408019724 0.022593554099256608 0.0027018843874746738 -0.0027207588708988762 -0.051478163437036033 -0.017100674516019244 -0.0059804751809507508 0.006095648263773912 -0.069923762815298218 -0.029865915972492819 0.013400718777726951 -0.032753205744325664 -0.024567153047995685 0.025062677027990834 -0.027060557969566058 0.00095949382589721743 0.022487091991822441 -0.0079186939235150085 0.023218673023384852 -0.030114972794112838 -0.04823460566092086 -0.066106040338596489 0.043847367269310981 0.0037661163195929384
leaf_weight=238 96 158 31 30 22 213 54 437 27 46 28 105 56 145 83 37 26 62 39 80 159 122 29 29 322 65 167 24 26 568
leaf_count=238 96 158 31 30 22 213 54 437 27 46 28 105 56 145 83 37 26 62 39 80 159 122 29 29 322 65 167 24 26 568
internal_value=0.000227015 -0.0105479 0.0286378 -0.00518844 -0.0273463 -0.0131982 0.0152695 0.0429487 -0.0314741 -0.0238636 -0.0101325 -0.00887208 -0.0133124 -0.0004 -0.0222467 -0.0052 -0.0131944 -0.0194915 0.00195312 0.00110664 -0.00635838 0.00294118 -0.00948276 0.0193827 0.0223647 -0.0178161 -0.0276371 -0.0128571 0.00878378 0.00509259
internal_weight=3524 2555 969 1937 618 913 501 468 502 264 755 727 477 250 227 250 144 118 1024 994 346 187 116 405 351 87 237 70 148 648
internal_count=3524 2555 969 1937 618 913 501 468 502 264 755 727 477 250 227 250 144 118 1024 994 346 187 116 405 351 87 237 70 148 648
is_linear=0
shrinkage=0.05


Tree=30
num_leaves=31
num_cat=0
split_feature=5 5 5 13 9 13 13 16 15 13 9 5 16 0 9 3 0 16 1 13 1 9 4 11 1 4 0 1 5 6
split_gain=419.952 108.408 44.4961 41.9298 28.4659 19.2733 19.0221 16.705 15.444 14.3143 13.1422 10.5825 11.7322 10.3967 9.42825 9.31152 9.77379 9.5416 8.681 8.59722 8.37455 8.35672 10.4748 8.28948 8.0878 8.26445 7.90514 7.68866 7.50316 7.23418
threshold=0.8029279112815858 -0.99256375432014454 1.2218760251998904 -0.71013543009757985 1.4388034939765932 0.57623311877250682 0.27024070918560034 -0.29391406476497645 -0.28074021637439722 0.46562591195106512 0.23364266753196719 -1.3516620993614195 -0.6401844024658202 0.99652585387229931 -1.0127004981040952 0.13518995046615603 -1.1102274060249326 -0.8022247552871703 0.35553275048732763 0.9244753122329713 -0.48073507845401758 0.61918604373931896 -0.1370473615825176 0.42103955149650579 -0.97233521938323964 0.51880384981632244 -0.19585970789194104 0.023623602464795116 -0.15466764196753499 0.98780423402786266
decision_type=2 2 2 2 2 2 2 2 2 2 2 2 2 2 2 2 2 2 2 2 2 2 2 2 2 2 2 2 2 2
left_child=1 6 9 10 5 14 11 21 26 20 -3 -1 -13 18 -5 24 -17 -18 19 -9 -2 -7 -23 -22 28 -26 -8 -6 29 -16
right_child=2 3 -4 4 27 7 8 13 -10 -11 -12 12 -14 -15 15 16 17 -19 -20 -21 23 22 -24 -25 25 -27 -28 -29 -30 -31
leaf_value=-0.070082382963582296 -0.0034531705361793732 -0.023095313985362131 0.021463876394293771 0.010251754235716738 -0.059827414839704579 0.028417765393015861 -0.068016054149446226 -0.01038802532461971 0.033643856666756976 0.021547554494493727 -0.062820968568461949 -0.031083904003596532 -0.049180804001429948 0.025661904186053144 -0.011436074655803142 0.020245332730290323 0.0095270083356324038 -0.0044575369621516758 0.030226691746713486 0.030894776026446594 0.026056855256850843 0.031091699106361073 -0.025154998778026273 -0.0061657302816216179 -0.0055942403347029497 -0.040256828593492999 -0.011087546799600157 -0.00086521194249375996 0.014376071716024175 0.0037465232596142874
leaf_weight=226 34 207 479 183 75 126 44 125 21 192 120 101 153 84 79 33 102 304 64 38 53 22 28 42 349 56 46 35 29 31
leaf_count=226 34 207 479 183 75 126 44 125 21 192 120 101 153 84 79 33 102 304 64 38 53 22 28 42 349 56 46 35 29 31
internal_value=0.00208273 -0.00740395 0.033875 -0.00205742 0.000992626 0.00263158 -0.0263113 0.0109856 -0.00765766 0.0194704 -0.0185015 -0.030625 -0.023622 0.00401929 -0.000857633 -0.00279756 0.00261959 0.000492611 -0.00154185 -0.00766871 0.00658915 0.0232955 0.006 0.0142105 -0.00716912 -0.0107407 -0.0166667 -0.0236364 0.00323741 -0.00272727
internal_weight=3481 2681 800 2090 1763 1653 591 487 111 321 327 480 254 311 1166 983 439 406 227 163 129 176 50 95 544 405 90 110 139 110
internal_count=3481 2681 800 2090 1763 1653 591 487 111 321 327 480 254 311 1166 983 439 406 227 163 129 176 50 95 544 405 90 110 139 110
is_linear=0
shrinkage=0.05


Tree=31
num_leaves=31
num_cat=0
split_feature=2 13 13 13 9 4 4 15 9 13 11 0 0 15 14 2 2 11 0 16 16 0 3 15 16 2 4 13 0 9
split_gain=339.939 91.2296 60.2594 45.3037 27.3283 22.2844 21.1388 17.0678 17.6347 17.0143 16.4262 15.1798 14.7667 14.5905 14.0589 16.6254 12.0814 11.1383 10.5562 10.1187 10.0767 9.97252 10.2237 8.92459 8.85547 9.26433 9.60075 8.77455 9.02452 8.47641
threshold=0.30783110857009893 -0.65226522088050831 0.60853314399719249 0.77907279133796703 1.1420961618423464 -1.7402392029762266 0.73742088675498974 -0.64352625608444203 0.37936154007911688 -0.74653679132461537 -0.049292873591184609 -0.20669536292552945 0.7232578992843629 -0.3209195584058761 -0.73526331782340992 -0.46888655424118036 -0.080527721904218183 0.67212325334548961 1.7339941263198855 1.0546818971633913 -0.45475262403488154 -0.15158754587173459 -1.3065871596336363 -0.66477859020233143 0.63761198520660411 -0.20998066663742063 -0.50140914320945729 -1.7204343080520628 -1.2349299192428587 0.88206115365028392
decision_type=2 2 2 2 2 2 2 2 2 2 2 2 2 2 2 2 2 2 2 2 2 2 2 2 2 2 2 2 2 2
left_child=1 7 9 4 5 -3 23 -1 10 -2 11 27 14 -11 21 -16 -6 -10 20 -17 -5 22 -7 -4 25 26 -14 -9 -29 -15
right_child=2 3 6 18 16 12 -8 8 17 13 -12 -13 24 29 15 19 -18 -19 -20 -21 -22 -23 -24 -25 -26 -27 -28 28 -30 -31
leaf_value=-0.066578263815403174 -0.03711173298181876 -0.057101516395218301 -0.011458123272423616 0.028972041799004835 -0.055656003517602186 -0.041604449266706214 0.020390682574579079 -0.066578263815403174 -0.075691762415415156 0.0034405208367772389 0.0086232396952351294 0.016229615318800173 0.021645964925367234 0.021091251938961844 -0.019421492775135243 0.0018236707466926295 0.0013958275341795058 0.0065706984983328505 0.028834445833953271 -0.024600780082635044 0.013045109193653516 0.020163204691176884 0.0018244986061904723 0.020862525606573736 -0.0050451905458406728 0.034269575479485948 -0.00059406365962542127 0.01084310859393618 -0.035565038738299103 0.0061650491772691669
leaf_weight=216 34 73 20 63 182 33 417 64 99 126 45 20 32 206 318 399 44 20 28 40 167 70 291 106 71 49 63 21 113 51
leaf_count=216 34 73 20 63 182 33 417 64 99 126 45 20 32 206 318 399 44 20 28 40 167 70 291 106 71 49 63 21 113 51
internal_value=0.00228383 -0.00735819 0.0276042 -0.00205408 -0.00507508 -0.00253648 0.038582 -0.0244147 -0.0180628 0.0133094 -0.0108365 -0.0165138 -0.0010981 0.0163185 -0.00334492 -0.00733157 -0.0212389 -0.0340336 0.0174419 -0.00102506 0.013913 0.00431472 0.000617284 0.0206349 0.0109302 0.0180556 0.00894737 -0.0207071 -0.0134328 0.0231518
internal_weight=3481 2521 960 1923 1665 1439 543 598 382 417 263 218 1366 383 1151 757 226 119 258 439 230 394 324 126 215 144 95 198 134 257
internal_count=3481 2521 960 1923 1665 1439 543 598 382 417 263 218 1366 383 1151 757 226 119 258 439 230 394 324 126 215 144 95 198 134 257
is_linear=0
shrinkage=0.05


Tree=32
num_leaves=31
num_cat=0
split_feature=2 13 13 13 15 13 15 9 14 2 15 0 11 0 14 8 17 11 0 16 8 2 9 1 13 13 9 2 0 9
split_gain=327.993 93.1785 59.3843 42.6842 24.1277 17.0143 16.6795 16.3801 14.9803 14.9699 14.5905 14.5316 13.879 14.8462 12.9678 11.8331 10.6711 10.595 10.5562 10.0767 9.6875 13.9319 9.66177 16.1538 9.36613 9.05621 10.1909 8.6156 8.58257 8.47641
threshold=0.30783110857009893 -0.65226522088050831 0.60853314399719249 0.77907279133796703 -0.71177256107330311 -0.74653679132461537 -0.64352625608444203 0.37936154007911688 1.0000000180025095e-35 1.4729075431823733 -0.3209195584058761 0.7232578992843629 -0.049292873591184609 -0.20669536292552945 2.1689165830612187 -1.9914137125015257 1.1953022480010989 0.67212325334548961 1.7339941263198855 -0.45475262403488154 -0.37502673268318171 -0.59833949804306019 1.1420961618423464 0.13232141733169558 -1.7204343080520628 0.018921117298305038 -1.1704460382461546 -0.72779244184494007 -1.2349299192428587 0.88206115365028392
decision_type=2 2 2 2 2 2 2 2 2 2 2 2 2 2 2 2 2 2 2 2 2 2 2 2 2 2 2 2 2 2
left_child=1 6 5 4 8 -2 -1 12 20 -4 -7 15 13 24 27 -6 -16 -9 19 -5 -3 -22 25 -24 -8 26 -17 -13 -26 -12
right_child=2 3 9 18 11 10 7 17 -10 -11 29 14 -14 -15 16 22 -18 -19 -20 -21 21 -23 23 -25 28 -27 -28 -29 -30 -31
leaf_value=-0.063249350624633022 -0.035256146332727827 -0.026919262665660207 0.019371148445850129 0.0275234397090546 0.019625566898432579 0.0032684947949383593 -0.063249350624633022 -0.071907174294644396 -0.035934350991343192 0.019371148445850129 0.020036689342013771 -0.00063180409379801636 0.0081920777104733666 0.015418134552860174 0.030035221665934267 0.023010034966836693 -0.047463028291117752 0.0062421635734162045 0.027392723542255595 0.012392853733970855 -0.026581881354133308 0.0069815632874004503 -0.061395409001530732 0.0061924486702461092 0.010300953164239381 0.0016093589774967443 -0.014758534699203053 0.021306532553353952 -0.033786786801384139 0.0058567967184056883
leaf_weight=216 34 192 317 63 20 126 64 99 135 226 206 28 45 20 20 51 25 20 28 167 85 95 47 34 21 470 328 135 113 51
leaf_count=216 34 192 317 63 20 126 64 99 135 226 206 28 45 20 20 51 25 20 28 167 85 95 47 34 21 470 328 135 113 51
internal_value=0.00262856 -0.00684252 0.0275 -0.00148206 -0.00441441 0.0133094 -0.0240803 -0.017801 -0.0135108 0.0383978 0.0163185 -0.000431779 -0.0108365 -0.016055 0.0115385 -0.00305263 -0.0122222 -0.0331933 0.0174419 0.013913 -0.00833333 0 -0.00387097 -0.0203704 -0.020202 -0.00229682 -0.00804749 0.0180982 -0.0126866 0.0231518
internal_weight=3481 2521 960 1923 1665 417 598 382 507 543 383 1158 263 218 208 950 45 119 258 230 372 180 930 81 198 849 379 163 134 257
internal_count=3481 2521 960 1923 1665 417 598 382 507 543 383 1158 263 218 208 950 45 119 258 230 372 180 930 81 198 849 379 163 134 257
is_linear=0
shrinkage=0.05


Tree=33
num_leaves=31
num_cat=0
split_feature=5 5 5 2 7 5 9 16 4 9 0 6 9 8 0 9 8 11 15 9 0 16 2 1 9 0 14 4 4 5
split_gain=411.686 98.2374 41.3717 25.5396 20.7661 16.5604 16.3311 15.3786 14.6016 14.5744 14.5648 13.4156 12.5169 12.0873 11.0631 14.437 11.4966 10.6021 10.3188 10.1163 9.45837 9.38377 9.10386 8.56651 9.98217 8.33225 11.6473 8.21329 7.88704 7.81849
threshold=0.8029279112815858 -0.99256375432014454 1.4612748622894289 -0.59833949804306019 -0.3148523718118667 -1.5312112569808958 0.056912783533334739 0.085384305566549315 -0.42853678762912745 1.4031985998153689 -0.33024209737777704 1.1405375003814699 0.55510801076889049 0.50663888454437267 0.87919965386390697 -0.95922017097473133 0.80052742362022411 -0.58668395876884449 -0.90140232443809498 0.56298825144767772 0.2799463570117951 -0.4835554808378219 0.56673699617385875 0.023623602464795116 0.30707025527954107 -0.74956423044204701 -0.6763702630996703 -0.28279208391904825 0.22731441259384158 -0.45391625165939326
decision_type=2 2 2 2 2 2 2 2 2 2 2 2 2 2 2 2 2 2 2 2 2 2 2 2 2 2 2 2 2 2
left_child=1 5 6 4 8 -1 -2 10 11 14 23 -3 17 22 15 16 18 25 -9 -12 -15 -10 -8 24 -5 -7 -27 -17 29 -21
right_child=2 3 -4 7 -6 12 13 9 21 -11 19 -13 -14 20 -16 27 -18 -19 -20 28 -22 -23 -24 -25 -26 26 -28 -29 -30 -31
leaf_value=-0.06239409392793558 0.018973137139315102 -0.00027256734212235403 0.018402591023557634 -1.4239255592274347e-05 -0.025970973827784485 -0.041289249937572083 -0.01448480314989682 -0.022353599805923996 -0.033011392245827144 -0.058856686207100856 0.024216552387336443 0.015383420585679842 -0.068311815579912172 0.018330556078005111 0.015164595000469072 0.00091394151113548543 0.032871822945880112 -0.010798087750221997 0.016764217727573017 -0.0036467254207720235 0.018402591023557634 -0.0067025802841329312 0.019190553549746282 0.0025247763566659033 -0.029991370492999173 0.00409991422436472 -0.039950898241758598 -0.01462885184270888 -0.0084214547995810751 0.024504813799361716
leaf_weight=157 203 139 350 77 222 97 60 20 43 67 238 40 135 72 97 79 27 117 78 33 69 122 46 366 42 48 37 274 61 65
leaf_count=157 203 139 350 77 222 97 60 20 43 67 238 40 135 72 97 79 27 117 78 33 69 122 46 366 42 48 37 274 61 65
internal_value=0.00277219 -0.00662066 0.03425 -0.0015311 -0.0106007 -0.0246193 0.0242222 0.00183727 -0.00290698 -0.00404984 0.00612245 0.00698324 -0.0195853 0.015587 -0.00147826 -0.00460251 0.01 -0.0138796 0.00204082 0.0132242 0.0251773 -0.0136364 0.00283019 0.000309278 -0.0113445 -0.0214286 -0.01 -0.00977337 0.00345912 0.0122449
internal_weight=3481 2681 800 2090 566 591 450 1524 344 642 882 179 434 247 575 478 125 299 98 397 141 165 106 485 119 182 85 353 159 98
internal_count=3481 2681 800 2090 566 591 450 1524 344 642 882 179 434 247 575 478 125 299 98 397 141 165 106 485 119 182 85 353 159 98
is_linear=0
shrinkage=0.05


Tree=34
num_leaves=31
num_cat=0
split_feature=5 13 5 5 5 9 9 0 14 3 13 1 9 13 0 7 13 1 7 16 0 1 11 13 7 10 0 9 11 16
split_gain=402.457 99.6957 43.406 42.2212 24.3857 21.2964 17.4788 16.5238 15.2859 20.2965 13.8462 13.5989 12.5229 11.791 11.0393 9.69317 11.0787 9.48151 13.9903 12.095 9.73929 10.0743 9.51443 9.37836 10.3727 9.22205 8.94332 8.87632 8.439 8.43053
threshold=0.8029279112815858 -0.71013543009757985 -1.1721129417419431 1.2218760251998904 -1.2918124198913572 1.4554299712181094 0.36803269386291509 1.0222094058990481 -0.74239411950111378 0.19178128987550738 -1.9208137392997739 0.023623602464795116 0.12007788941264154 0.67339324951171886 -1.2349299192428587 -0.76127246022224415 0.46562591195106512 0.63279876112937938 0.82130211591720592 0.33155208826065069 -0.95016673207283009 1.1057966351509096 -0.31167821586132044 0.9244753122329713 -1.3280699253082273 0.56118917465209972 -0.44194069504737848 0.12007788941264154 -0.58668395876884449 -0.27532659471034998
decision_type=2 2 2 2 2 2 2 2 2 2 2 2 2 2 2 2 2 2 2 2 2 2 2 2 2 2 2 2 2 2
left_child=1 4 13 12 -1 7 10 8 14 23 -6 29 -2 27 -4 -14 -17 -11 20 -20 -19 -22 -23 24 25 -10 -12 28 -3 -7
right_child=3 2 5 -5 6 11 -8 -9 9 17 26 -13 15 -15 -16 16 -18 18 19 -21 21 22 -24 -25 -26 -27 -28 -29 -30 -31
leaf_value=-0.058022420596522767 0.018093229724752736 -0.045458562748674637 -0.056267775292273475 0.017482461472379775 -0.052195557109752183 -0.023615596236279315 -0.061800448781875073 0.022071756218425477 -0.042443463131344755 0.010853404226216768 -0.024465680926432531 0.0036957746165434905 -0.019539479152697537 0.021086310486030182 0.0070104839941081748 -0.009016561416056024 0.017946599221352024 0.024327680682009568 0.024165758849082009 -0.010414682152665345 -0.02023271853404749 -0.02388733568779924 0.013023211277356395 0.023694081987982799 -0.014740862812880451 0.0048182424047972464 0.013157590469231761 -0.059343969040597272 0.00424624787721678 -0.076567263356875831
leaf_weight=140 160 77 21 479 60 26 143 201 21 233 196 31 21 22 395 58 82 20 65 25 96 27 60 38 494 58 38 107 34 53
