tree
version=v4
num_class=1
num_tree_per_iteration=1
label_index=0
max_feature_idx=17
objective=regression_l1
feature_names=Column_0 Column_1 Column_2 Column_3 Column_4 Column_5 Column_6 Column_7 Column_8 Column_9 Column_10 Column_11 Column_12 Column_13 Column_14 Column_15 Column_16 Column_17
feature_infos=[-2.0669529438018799:5.9390654563903809] [-2.139570951461792:6.767667293548584] [-1.6986894607543945:6.8452043533325195] [-4.0935964584350586:3.1315138339996338] [-4.1814632415771484:1.8669424057006836] [-2.6982808113098145:2.3290958404541016] [-7.4585380554199219:3.4671652317047119] [-4.3983321189880371:5.4266791343688965] [-5.4813399314880371:2.8210110664367676] [-3.7654209136962891:2.0127725601196289] [-1.3160346746444702:2.1152396202087402] [-2.444188117980957:14.265424728393555] [-0.091407917439937592:16.87933349609375] [-16.30531120300293:1.2808619737625122] [-1.0580980777740479:5.3487906455993652] [-1.1140083074569702:9.8978481292724609] [-2.0370163917541504:5.0082697868347168] [-4.069861888885498:6.1132092475891113]
tree_sizes=2563 2767 2815 2816 2814 2814 2809 2812 2819 2821 2832 2828 2838 2828 2835 2836 2828 2841 2835 2838 2827 2831 2831 2838 2832 2839 2808 2829 2839 2826 2829 2853 2846 2805 2851 2829 2814 2845 2842 2829 2837 2848 2838 2836 2845 2851 2837 2832 2820 2828 2833 2849 2837 2830 2847 2853 2838 2842 2819 2849 2847 2841 2842 2852 2858 2817 2845 2850 2833 2848 2842 2842 2848 2853 2845 2831 2856 2815 2863 2847 2825 2819 2809 2847 2819 2814 2823 2814 2841 2844 2812 2838 2842 2851 2796 2860 2824 2844 2826 2834 2819 2828 2841 2835 2847 2830 2781 2819 2812 2844 2839 2865 2841 2862 2841 2869 2855 2831 2845 2844 2832 2836 2841 2846 2813 2858 2853 2825 2860 2859 2859 2846 2850 2829 2856 2804 2867 2832 2814 2828 2821 2834 2841 2836 2799 2817 2803 2811 2817 2842 2825 2822 2819 2826 2829 2838 2839 2804 2808 2857 2854 2855 2826 2801 2844 2851 2820 2822 2826 2829 2815 2825 2834 2823 2858 2827 2846 2849 2826 2829 2847 2827 2841 2829 2858 2832 2844 2855 2861 2813 2837 2856 2833 2817 2837 2849 2811 2825 2828 2850 2853 2840 2847 2833 2831 2854 2832 2861 2850 2819 2814 2845 2842 2884 2832 2805 2843 2846 2833 2826 2848 2842 2851 2870 2835 2841 2831 2854 2833 2837 2861 2837 2808 2830 2821 2858 2860 2814 2853 2830 2833 2848 2848 2862 2858 2852 2875 2877 2870 2815 2837 2854 2824 2835 2832 2835 2828 2856 2848 2859 2856 2832 2864 2820 2863 2842 2840 2835 2879 2825 2854 2838 2837 2841 2841 2826 2827 2856 2836 2838 2849 2850 2872 2833 2840 2856 2827 2818 2827 2850 2825 2823 2848 2857 2856 2881 2863 2811 2856 2858 2832 2826 2838 2818 2848 2851 2862 2855 2866 2873 2851 2855 2838 2848 2855 2874 2865 2865 2862 2841 2847 2843 2824 2838 2854 2841 2844 2869 2868 2845 2832 2836 2851 2869 2835 2862 2863 2869 2858 2870 2839 2849 2841 2850 2845 2850 2863 2862 2833 2851 2853 2860 2862 2843 2834 2869 2855 2839 2863 2881 2838 2840 2879 2812 2860 2882 2859 2856 2850 2846 2863 2871 2857 2839 2885

Tree=0
num_leaves=31
num_cat=0
split_feature=13 2 2 2 2 13 15 0 2 8 4 13 9 15 15 13 8 4 15 9 4 4 13 13 4 0 4 0 9 0
split_gain=1011.44 248.061 191.673 47.1302 45.567 44.9972 41.0231 26.3879 25.1224 22.2266 21.3906 20.4203 20.3771 18.6333 18.144 16.9316 15.6983 13.4633 12.2905 10.5844 9.42881 8.99201 8.60562 8.5015 8.31072 7.94915 9.34316 7.45669 8.21585 7.13296
threshold=0.39164081215858465 -0.080527721904218183 -0.33943361043930048 -0.59833949804306019 0.56673699617385875 0.77626550197601329 -0.74886602163314808 0.65371674299240123 0.43728405237197882 0.28622248768806463 -0.93864327669143666 0.015775112900882963 0.84618347883224498 -0.54430529475212086 -0.43188492953777308 0.52468794584274303 0.58011102676391613 0.59167620539665233 -0.59091967344284047 -0.71248385310173024 -0.35566443204879755 0.22731441259384158 0.62330624461174022 0.1163533851504326 0.22731441259384158 0.33295530080795294 0.081569701433181777 0.64258086681365978 0.72788053750991832 0.49320121109485632
decision_type=2 2 2 2 2 2 2 2 2 2 2 2 2 2 2 2 2 2 2 2 2 2 2 2 2 2 2 2 2 2
left_child=1 3 5 25 7 10 17 9 15 23 -2 16 22 -6 -11 20 -5 19 -13 -4 -8 -15 29 -3 -18 -1 -27 -20 -29 -12
right_child=2 4 6 11 13 -7 8 -9 -10 14 12 18 -14 21 -16 -17 24 -19 27 -21 -22 -23 -24 -25 -26 26 -28 28 -30 -31
leaf_value=5.7999999999999998 5.8499999999999996 5.9500000000000002 6.0499999999999998 5.9000000000000004 5.9500000000000002 6.0499999999999998 5.9749999999999996 6.0999999999999996 6.0999999999999996 5.9500000000000002 5.9500000000000002 5.9000000000000004 5.9000000000000004 6 6.0499999999999998 6.0999999999999996 5.9000000000000004 6.0999999999999996 5.9749999999999996 5.9500000000000002 6.0499999999999998 6.0999999999999996 6.0499999999999998 6 6.0499999999999998 5.9000000000000004 6 6.0499999999999998 6 6
leaf_weight=745 71 173 21 354 22 106 22 34 593 35 52 69 43 20 98 354 25 31 110 48 78 133 52 43 21 83 23 22 21 36
leaf_count=745 71 173 21 354 22 106 22 34 593 35 52 69 43 20 98 354 25 31 110 48 78 133 52 43 21 83 23 22 21 36
internal_value=5.99607 5.97304 6.02711 5.96229 6.00143 5.99528 6.0371 5.99178 6.04002 5.98768 5.98386 5.97275 5.9929 6.02257 6.00376 6.03117 5.966 6.0065 5.98491 5.9942 6.013 6.02876 6.00214 5.97778 5.99348 5.95464 5.96745 5.99281 6.01047 5.99261
internal_weight=3538 2031 1507 1473 558 360 1147 383 1047 349 254 622 183 175 133 454 400 100 222 69 100 153 140 216 46 851 106 153 43 88
internal_count=3538 2031 1507 1473 558 360 1147 383 1047 349 254 622 183 175 133 454 400 100 222 69 100 153 140 216 46 851 106 153 43 88
is_linear=0
shrinkage=1


Tree=1
num_leaves=31
num_cat=0
split_feature=13 2 2 2 4 15 13 4 15 13 9 0 9 17 15 13 8 14 15 4 0 9 0 2 4 9 8 7 1 9
split_gain=839.987 217.393 189.348 65.6383 47.7434 28.7313 25.9787 24.9003 24.4836 19.0359 18.9163 16.6437 16.5465 16.3793 15.7637 13.5925 13.2314 14.5062 12.283 11.8076 10.7403 9.73425 10.1589 9.16538 8.9935 8.83848 8.83233 8.61813 7.88998 7.84663
threshold=0.39164081215858465 -0.46888655424118036 -0.33943361043930048 0.30783110857009893 0.95603796839714061 -0.79337903857231129 0.1163533851504326 -0.72002622485160817 -0.85860195755958546 0.79417043924331676 1.173476576805115 0.31769132614135748 -0.17418123036622998 0.84025683999061596 -0.89967679977416981 0.54607868194580089 0.65358316898345958 -0.57114562392234791 -0.69751766324043263 0.95603796839714061 1.2212792038917544 0.85560405254364025 0.080545499920845046 -0.46888655424118036 -0.28279208391904825 1.0959903001785281 0.65358316898345958 0.97981384396553051 -0.24007876962423322 0.50097021460533153
decision_type=2 2 2 2 2 2 2 2 2 2 2 2 2 2 2 2 2 2 2 2 2 2 2 2 2 2 2 2 2 2
left_child=1 11 5 6 7 -2 19 -4 -5 10 13 -1 24 26 -13 29 17 -10 -11 21 23 22 27 -17 -8 -19 -9 -3 -14 -7
right_child=2 3 4 8 -6 15 12 9 16 18 -12 14 28 -15 -16 20 -18 25 -20 -21 -22 -23 -24 -25 -26 -27 -28 -29 -30 -31
leaf_value=-0.19 -0.092499999999999985 -0.095000000000000029 -0.0049999999999999828 -0.12250000000000001 0.095000000000000029 0 -0.0024999999999999914 0.047500000000000014 -0.050000000000000003 0.045000000000000019 -0.0049999999999999828 -0.14500000000000002 0.0012500000000000178 -0.0049999999999999828 -0.045000000000000019 -0.0024999999999999914 0.095000000000000029 0.050000000000000003 0.095000000000000029 0 0.047500000000000014 -0.097500000000000017 0.0024999999999999914 0.047500000000000014 0.095000000000000029 -0.0024999999999999914 0.095000000000000029 -0.045000000000000019 -0.048749999999999988 -0.095000000000000029
leaf_weight=872 101 323 47 20 503 43 26 183 37 26 30 44 37 32 97 116 95 89 193 57 36 80 37 36 49 21 133 53 94 28
leaf_count=872 101 323 47 20 503 43 26 183 37 26 30 44 37 32 97 116 95 89 193 57 36 80 37 36 49 21 133 53 94 28
internal_value=-0.00373092 -0.0247169 0.0245521 -0.00839882 0.0344813 -0.00708333 -0.015873 0.0254658 0.0131679 0.0282245 0.0214286 -0.0411155 -0.000728155 0.0247126 -0.0251773 0.00173745 0.017562 0.00816327 0.0399543 -0.0215455 0.0087766 -0.0240365 -0.0209443 0.00296053 0.018 0.0172727 0.0281646 -0.0234043 -0.0114504 -0.0169014
internal_weight=3538 2031 1507 1018 1147 360 756 644 262 597 378 1013 206 348 141 259 242 147 219 550 188 493 413 152 75 110 316 376 131 71
internal_count=3538 2031 1507 1018 1147 360 756 644 262 597 378 1013 206 348 141 259 242 147 219 550 188 493 413 152 75 110 316 376 131 71
is_linear=0
shrinkage=0.05


Tree=2
num_leaves=31
num_cat=0
split_feature=5 5 13 13 5 16 3 9 10 5 16 13 9 3 14 6 13 4 5 3 13 13 10 3 10 16 13 13 3 11
split_gain=1279.15 177.797 95.2069 95.0249 54.93 21.2585 19.1889 16.1987 16.1147 13.9803 13.9612 13.7569 12.7513 11.6768 10.6275 9.79773 9.75238 9.1306 13.0556 8.81304 8.65341 8.42584 8.96903 8.16009 9.94978 14.7749 7.36663 7.27788 6.60638 7.08744
threshold=-0.094817921519279466 0.8029279112815858 0.56796962022781383 0.043523918837308891 -0.51376599073410023 0.55454206466674816 0.23313909024000171 1.0959903001785281 -1.2252411842346189 -0.45391625165939326 -0.86520016193389881 1.0000000180025095e-35 1.0458037853240969 0.86020120978355419 -0.74990761280059803 1.333858907222748 -0.51910012960433949 -0.20991972088813779 0.20443069189786914 0.031080309301614765 0.82400348782539379 -0.1496307700872421 -1.1148221492767332 0.49670492112636572 0.02522972691804171 -0.26706106960773462 -0.85024693608283985 -0.18300411105155942 0.74368816614151012 -0.10640817135572432
decision_type=2 2 2 2 2 2 2 2 2 2 2 2 2 2 2 2 2 2 2 2 2 2 2 2 2 2 2 2 2 2
left_child=2 3 4 6 19 17 14 -7 10 20 -6 13 26 16 -2 21 -3 -5 28 -1 -4 22 -10 24 25 -20 -8 -28 29 -19
right_child=1 11 9 5 8 7 12 -9 15 -11 -12 -13 -14 -15 -16 -17 -18 18 23 -21 -22 -23 -24 -25 -26 -27 27 -29 -30 -31
leaf_value=-0.18049999999999999 0.0059374999999999957 0.090250000000000039 -0.047312500000000007 0.090250000000000039 0.0084999999999999746 0.042625000000000003 -0.042750000000000024 -0.092718750000000016 -0.042750000000000024 0.040250000000000036 -0.050062499999999989 0.090250000000000039 -0.066375000000000003 0.090250000000000039 -0.080499999999999974 0.0023749999999999718 -0.0074999999999999737 0.045124999999999998 0.052437500000000005 -0.09281250000000002 0.04643750000000002 -0.047625000000000028 -0.098937499999999998 0.090250000000000039 0.05262499999999997 -0.039249999999999965 0.042500000000000031 -0.0086249999999999712 0.045000000000000019 -0.0073749999999999987
leaf_weight=884 26 20 100 101 20 156 29 26 26 101 34 726 28 33 114 27 28 38 29 190 22 221 128 132 119 20 64 40 25 31
leaf_count=884 26 20 100 101 20 156 29 26 26 101 34 726 28 33 114 27 28 38 29 190 22 221 128 132 119 20 64 40 25 31
internal_value=-0.0035472 0.0262465 -0.0338848 0.0119121 -0.0383333 0.0223043 -0.0114618 0.00769231 -0.0237939 -0.00336323 0.00185185 0.0436183 0.000310559 0.0240741 -0.025 -0.0272388 0.00833333 0.0276768 0.0242386 -0.0445065 -0.0147541 -0.0293333 -0.0383117 0.0293333 0.0220238 0.00306122 0.00676692 0.0129808 0.00797872 0
internal_weight=3538 1785 1753 978 1530 677 301 182 456 223 54 807 161 81 140 402 48 495 394 1074 122 375 154 300 168 49 133 104 94 69
internal_count=3538 1785 1753 978 1530 677 301 182 456 223 54 807 161 81 140 402 48 495 394 1074 122 375 154 300 168 49 133 104 94 69
is_linear=0
shrinkage=0.05


Tree=3
num_leaves=31
num_cat=0
split_feature=5 5 5 13 13 13 17 9 10 3 17 15 13 2 0 2 7 0 9 17 14 13 3 6 13 13 15 7 1 15
split_gain=1230.99 144.307 132.649 53.5171 38.3848 35.8939 24.916 23.5819 20.673 17.0318 16.9299 19.8591 16.5795 14.3581 13.9598 11.849 10.808 9.70342 9.16825 8.96601 8.60238 8.51767 8.45937 7.44761 7.38179 7.25958 7.15608 7.32441 6.65602 6.77391
threshold=1.0000000180025095e-35 0.8029279112815858 -0.51376599073410023 0.39164081215858465 0.60640066862106334 0.56796962022781383 0.077256806194782271 1.3566054105758669 -0.69853103160858143 0.26371970772743231 0.89774876832962047 -0.62708199024200428 1.0000000180025095e-35 0.17837816476821902 0.54418933391571056 -0.33943361043930048 0.73432451486587536 0.26374544203281408 0.80482372641563427 0.59900707006454479 0.12256462872028352 0.82400348782539379 -0.15940834581851956 0.68517011404037487 0.16870079189538958 0.16870079189538958 0.104023065418005 0.67535176873207103 0.75672516226768505 -0.83440163731575001
decision_type=2 2 2 2 2 2 2 2 2 2 2 2 2 2 2 2 2 2 2 2 2 2 2 2 2 2 2 2 2 2
left_child=2 3 5 7 6 15 8 9 16 17 11 20 13 -3 -10 -1 -4 19 -19 22 -5 -7 -2 -8 -16 -17 27 -11 29 -6
right_child=1 12 4 10 28 21 23 -9 14 26 -12 -13 -14 -15 24 25 -18 18 -20 -21 -22 -23 -24 -25 -26 -27 -28 -29 -30 -31
leaf_value=-0.17147499999999996 0.0069531249999999828 -0.0020125000000000173 -0.033050000000000003 0.045612499999999973 -0.0020062499999999872 -0.045509374999999963 -0.091618749999999999 -0.090489062499999981 -0.075553124999999985 -0.0043874999999999886 -0.0045062499999999782 0.085737500000000022 0.085737500000000022 0.085737500000000022 -0.085368750000000049 -0.13122500000000001 0.008578124999999992 0.041865625000000017 -0.021896874999999996 -0.088385937500000011 -0.0050062499999999682 0.046365625000000035 -0.036225000000000042 -0.083743749999999964 0.0023812500000000014 -0.042099999999999985 0.047624999999999987 0.045374999999999992 -0.0067625000000000046 0.042868750000000011
leaf_weight=879 37 37 142 49 21 93 157 33 139 81 39 324 726 44 21 148 38 36 20 28 33 20 29 48 36 47 79 35 21 98
leaf_count=879 37 37 142 49 21 93 157 33 139 81 39 324 726 44 21 148 38 36 20 28 33 20 29 48 36 47 79 35 21 98
internal_value=-0.00387224 0.0280368 -0.0311321 0.013305 -0.0142164 -0.0414069 -0.0198795 -0.000529101 -0.012234 0.00333333 0.0250562 0.0280788 0.0430607 0.0216049 -0.0234694 -0.0442272 0 -0.00933333 0.00714286 -0.0191489 0.00609756 -0.0146018 -0.00909091 -0.0339024 -0.00263158 -0.0330769 0.0130769 0.00517241 0.00928571 0.0138655
internal_weight=3538 1630 1908 823 721 1187 581 378 376 345 445 406 807 81 196 1074 180 150 56 94 82 113 66 205 57 195 195 116 140 119
internal_count=3538 1630 1908 823 721 1187 581 378 376 345 445 406 807 81 196 1074 180 150 56 94 82 113 66 205 57 195 195 116 140 119
is_linear=0
shrinkage=0.05


Tree=4
num_leaves=31
num_cat=0
split_feature=5 5 5 17 17 9 9 10 16 15 3 9 0 5 0 0 10 0 15 3 8 0 8 0 0 0 9 16 5 7
split_gain=1230.67 138.474 135.7 31.938 31.5713 18.1429 16.15 15.1278 13.0891 12.9025 12.829 12.0167 17.9428 13.3762 11.6282 11.1915 14.8972 17.2122 17.9873 10.6597 10.6316 12.9295 10.098 10.4045 9.82025 9.01498 8.9159 8.84393 8.62153 10.9964
threshold=1.0000000180025095e-35 0.8029279112815858 -0.57361570000648487 0.077256806194782271 0.4786080420017243 -0.76375266909599293 0.46595126390457159 -1.2215880155563352 -0.35500182211399073 -0.71273297071456898 0.019846399314701561 1.4779368638992312 1.0360756516456606 0.68322849273681652 0.037932552397251136 1.0601916313171389 0.069836691021919264 -0.67754381895065297 -0.67147144675254811 -0.41523078083991999 0.21275034546852115 0.67273020744323742 1.0000000180025095e-35 0.1244967468082905 0.39048698544502264 -0.16910491138696668 -1.2594524621963499 0.37593173980712896 0.38397985696792608 -0.21546967327594754
decision_type=2 2 2 2 2 2 2 2 2 2 2 2 2 2 2 2 2 2 2 2 2 2 2 2 2 2 2 2 2 2
left_child=2 4 10 5 6 -4 8 -7 -2 -8 -1 12 13 19 -12 16 17 -9 -19 -6 21 -3 23 -10 -18 -20 -5 28 -11 -30
right_child=1 20 3 26 11 7 9 15 22 27 14 -13 -14 -15 -16 -17 24 18 25 -21 -22 -23 -24 -25 -26 -27 -28 -29 29 -31
leaf_value=-0.16290124999999997 0.081450624999999999 0.036325625000000007 0.011405624999999997 -0.026034375000000012 -0.056918124999999979 0.0095960937500000135 -0.050068124999999998 -0.074558749999999993 -0.034945000000000004 -0.0027637499999999984 -0.081548125000000041 -0.13896695312500001 0.045719062499999998 0.049369218749999999 -0.002608906249999965 0.0048153124999999802 -0.071775468749999988 -0.047091249999999987 0.036094062500000003 -0.0066559374999999761 0.081450624999999999 0.081450624999999999 0.041956875000000032 0.046081874999999967 -0.03603945312500003 -0.0073797656250000239 -0.084501875000000018 0.050244062499999978 -0.0019499999999999852 0.081450624999999999
leaf_weight=905 160 55 118 30 37 37 25 80 36 67 171 20 43 20 32 30 89 33 53 83 652 100 188 43 56 32 242 23 29 49
leaf_count=905 160 55 118 30 37 37 25 80 36 67 171 20 43 20 32 30 89 33 53 83 652 100 188 43 56 32 242 23 29 49
internal_value=-0.00356133 0.0283436 -0.0308176 -0.015125 0.0139125 -0.00795455 0.0195161 -0.0129268 0.0249415 0.00751295 -0.042148 -0.00320197 0.000819672 -0.00785714 -0.0307882 -0.0159517 -0.0185131 -0.00959596 0.00254237 -0.0141667 0.0430607 0.0312903 0.0181648 0.00316456 -0.0306897 0.0147059 -0.0290441 0.0125 0.00793103 0.0192308
internal_weight=3538 1630 1908 800 823 528 620 410 427 193 1108 203 183 140 203 373 343 198 118 120 807 155 267 79 145 85 272 168 145 78
internal_count=3538 1630 1908 800 823 528 620 410 427 193 1108 203 183 140 203 373 343 198 118 120 807 155 267 79 145 85 272 168 145 78
is_linear=0
shrinkage=0.05


Tree=5
num_leaves=31
num_cat=0
split_feature=5 5 5 13 13 13 13 16 10 15 16 3 0 17 2 11 0 13 17 3 2 11 3 6 10 5 14 14 15 0
split_gain=1164.84 191.054 117.425 84.4754 65.6761 21.6439 20.7858 19.5198 16.8307 14.7061 13.1382 10.7939 13.2969 10.8463 10.1572 12.8658 9.84639 9.954 15.9709 16.7075 8.73604 10.1994 8.38637 7.69575 7.53389 7.48318 11.8788 7.37681 7.15035 6.82492
threshold=-0.094817921519279466 0.62337875366210949 -0.69331514835357655 0.043523918837308891 0.16870079189538958 0.095220107585191741 0.51987612247467052 0.5863310992717744 -0.92488721013069142 1.1169322133064272 -0.77283716201782215 0.62480226159095775 -0.53484174609184254 -0.31249275803565973 -0.080527721904218183 0.35524037480354315 1.0601916313171389 0.60640066862106334 -0.35598553717136378 0.079277139157056822 0.30783110857009893 0.47211001813411718 -0.17647439241409299 -0.019533933140337464 -0.92488721013069142 0.264280416071415 -0.12029325589537619 0.33582481741905218 -0.18883982300758359 0.21637097001075747
decision_type=2 2 2 2 2 2 2 2 2 2 2 2 2 2 2 2 2 2 2 2 2 2 2 2 2 2 2 2 2 2
left_child=2 3 6 11 8 20 -1 9 10 -5 -4 13 -13 -2 15 -7 17 18 19 -6 21 -3 -8 24 -19 -15 -27 -9 -21 -10
right_child=1 5 4 7 16 14 22 27 29 -11 -12 12 -14 25 -16 -17 -18 23 -20 28 -22 -23 -24 -25 -26 26 -28 -29 -30 -31
leaf_value=-0.15475618749999998 0.0069042187499999581 0.044900289062500015 0.0044351953125000513 0.04334506249999999 -0.03803939257812497 0.079268718750000036 -0.084838843750000004 0.036539671874999957 -0.10475618749999996 -0.0063848593749999518 -0.054756187499999956 -0.033393609375000043 0.038141390625000021 -0.079918968750000027 0.077378093749999988 -0.012934406249999997 0.011837828125000028 -0.00044615624999999604 -0.042940281249999983 0.0026476406250000029 0.077378093749999988 -0.050928468750000011 0.0013435000000000309 -0.0026012187500000119 0.041929794921875013 0.0045076249999999709 -0.074566249999999987 -0.0020600312499999608 0.026713410156250041 -0.072535503906249965
leaf_weight=867 37 51 49 357 66 57 46 81 215 33 117 64 27 77 730 24 48 21 79 27 77 22 29 59 30 33 33 53 20 62
leaf_count=867 37 51 49 357 66 57 46 81 215 33 117 64 27 77 730 24 48 21 79 27 77 22 29 59 30 33 33 53 20 62
internal_value=-0.00359496 0.0251139 -0.0326513 0.00698113 -0.0184741 0.0401145 -0.044586 0.0187023 -0.0312641 0.024359 -0.0186747 -0.0156827 -0.00164835 -0.0227778 0.0433416 0.0265432 -0.00228571 -0.00562914 -0.0125 -0.000442478 0.0226667 0.010274 -0.0193333 0.00636364 0.0205882 -0.029021 -0.0166667 0.00223881 0.0223404 -0.0388087
internal_weight=3491 1756 1735 795 793 961 942 524 443 390 166 271 91 180 811 81 350 302 192 113 150 73 75 110 51 143 66 134 47 277
internal_count=3491 1756 1735 795 793 961 942 524 443 390 166 271 91 180 811 81 350 302 192 113 150 73 75 110 51 143 66 134 47 277
is_linear=0
shrinkage=0.05


Tree=6
num_leaves=31
num_cat=0
split_feature=5 5 5 13 13 13 16 13 10 15 16 2 11 0 16 13 1 0 15 11 11 14 16 13 3 7 0 14 3 13
split_gain=1089.64 196.192 101.367 76.3061 56.0342 24.2515 19.893 17.3994 14.8801 13.549 12.42 11.5456 11.8522 10.6652 11.3687 11.6059 10.6312 10.4279 9.93202 8.8315 8.75434 8.45828 8.78689 9.46419 8.36179 8.09424 9.12331 10.0385 7.00417 6.88546
threshold=-0.094817921519279466 0.62337875366210949 -0.69331514835357655 0.043523918837308891 0.16870079189538958 0.095220107585191741 0.5863310992717744 0.56796962022781383 -0.92488721013069142 1.1169322133064272 -0.77283716201782215 -0.080527721904218183 0.35524037480354315 1.0601916313171389 0.37593173980712896 0.80582743883132946 0.50227004289627086 -0.53484174609184254 -0.7409972846508025 -1.0732449889183042 -0.76882210373878468 -0.57609030604362477 0.13458498567342761 -0.63859060406684864 -0.11911664903163909 0.44908884167671209 0.71307414770126354 0.34946151077747351 -0.17647439241409299 0.66959288716316234
decision_type=2 2 2 2 2 2 2 2 2 2 2 2 2 2 2 2 2 2 2 2 2 2 2 2 2 2 2 2 2 2
left_child=2 3 7 16 8 25 9 -1 10 18 -4 12 -7 14 -6 -16 21 -18 -5 -10 -12 24 23 -23 -2 26 27 -3 -9 -8
right_child=1 5 4 6 13 11 29 28 19 -11 20 -13 -14 -15 15 -17 17 -19 -20 -21 -22 22 -24 -25 -26 -27 -28 -29 -30 -31
leaf_value=-0.14701837812499993 0.0094377265624999932 0.040648704296874977 0.0042134355468750329 -0.0016928312500000154 -1.9705957031224131e-05 0.075305282812500041 -0.0021393109374999719 -0.076846901562499959 -0.010521663281249972 -0.006065616406249941 -0.0050117531249999963 0.073509189062499966 -0.012287685937499982 0.011245936718750005 -0.038755199609374992 0.035708219531250009 -0.032396218359375027 0.036234321093750001 0.043026903124999995 -0.080671564648437499 -0.074732909375000031 -0.073317593750000007 -0.083734195312499995 -0.013673020312499951 -0.041195171093750017 0.073509189062499966 0.075759189062499968 -0.018225185937499954 0.0025888250000000394 0.038698673046875021
leaf_weight=878 29 32 49 26 206 57 74 40 20 33 24 730 24 48 70 26 68 25 331 257 93 24 56 37 32 65 27 26 24 60
leaf_count=878 29 32 49 26 206 57 74 40 20 33 24 730 24 48 70 26 68 25 331 257 93 24 56 37 32 65 27 26 24 60
internal_value=-0.00316528 0.0246014 -0.031268 0.00622642 -0.0180958 0.0398023 0.0173664 -0.0423567 -0.0299097 0.0230769 -0.0180723 0.0432182 0.0253086 -0.00314286 -0.00662252 -0.0208333 -0.0153137 -0.0016129 0.0259104 -0.0370036 -0.0269231 -0.0224719 -0.0303419 -0.0172131 -0.00737705 0.0213333 0.0111765 0 -0.0171875 0.000746269
internal_weight=3491 1756 1735 795 793 961 524 942 443 390 166 811 81 350 302 96 271 93 357 277 117 178 117 61 61 150 85 58 64 134
internal_count=3491 1756 1735 795 793 961 524 942 443 390 166 811 81 350 302 96 271 93 357 277 117 178 117 61 61 150 85 58 64 134
is_linear=0
shrinkage=0.05


Tree=7
num_leaves=31
num_cat=0
split_feature=5 5 5 13 13 9 10 13 16 9 13 17 11 0 10 0 13 2 5 15 0 7 11 10 9 4 13 0 17 13
split_gain=1062.38 156.304 117.845 67.9306 54.5015 21.8825 18.97 17.7149 16.6857 15.6907 15.1303 13.9589 12.6094 12.1943 11.7539 10.9426 10.2959 10.0946 9.99171 9.75004 8.76121 11.5626 7.80675 7.75837 7.70326 7.68067 14.3778 7.32032 7.17037 7.04275
threshold=1.0000000180025095e-35 0.8029279112815858 -0.69331514835357655 0.16870079189538958 0.16870079189538958 0.75211575627326976 -0.92488721013069142 0.26997119188308721 0.5863310992717744 0.88285318017005932 0.56796962022781383 -0.066035989671945558 -1.1038213968276975 0.63036665320396434 0.02522972691804171 -0.18148982524871823 0.65409409999847423 0.17837816476821902 -0.45391625165939326 -0.32613259553909296 0.27725191414356237 0.41249586641788488 0.25610069930553442 -0.88780763745307911 0.56095823645591747 -0.064175008796155439 0.4606363326311112 -1.1420796513557432 -0.060438459739089005 -0.5795060098171233
decision_type=2 2 2 2 2 2 2 2 2 2 2 2 2 2 2 2 2 2 2 2 2 2 2 2 2 2 2 2 2 2
left_child=2 4 10 6 5 20 11 17 16 13 -1 18 -8 14 25 -16 23 22 -4 -17 21 29 -3 -6 -25 -5 -27 -20 -11 -2
right_child=1 7 3 9 8 -7 12 -9 -10 28 -12 -13 -14 -15 15 19 -18 -19 27 -21 -22 -23 -24 24 -26 26 -28 -29 -30 -31
leaf_value=-0.13966745921874996 -0.035556747421874979 0.074521229609374948 -0.048281732656249958 0.013175846040039074 0.072008573359374939 -0.042926680126953179 0.0010077050390625343 0.06983372960937495 0.032241977666015643 -0.032886166166992185 -0.057339816835937474 -0.077610138906250015 -0.076043658779296891 0.035748619589843766 -0.036042546269531253 -0.0044270414453124966 0.073059495468749971 0.06983372960937495 0.018477339775390591 0.020448146906738331 0.060401687109375019 0.032251199746093764 -0.04868258289062502 0.034602776718750006 -0.0059641607812499949 -0.043618084233398413 0.036438489003906227 -0.022005154531250005 -0.085994272832031274 -0.0050875534472656142
leaf_weight=878 33 29 45 113 76 84 21 667 132 45 64 57 308 86 27 46 174 90 20 28 31 78 22 81 43 27 29 68 27 62
leaf_count=878 33 29 45 113 76 84 21 667 132 45 64 57 308 86 27 46 174 90 20 28 31 78 22 81 43 27 29 68 27 62
internal_value=-0.00273561 0.027216 -0.0281366 -0.0156811 0.011461 -0.00590278 -0.027842 0.042698 0.0213439 -0.000934579 -0.0406582 -0.0152632 -0.0351064 0.00337079 -0.00185185 -0.0153465 0.026738 0.0265957 -0.00639098 -0.00540541 0.00294118 -0.00144509 0.00882353 0.019 0.0112903 0.00621302 -0.00892857 0.00340909 -0.0222222 -0.0131579
internal_weight=3491 1602 1889 947 794 288 519 808 506 428 942 190 329 356 270 101 374 141 133 74 204 173 51 200 124 169 56 88 72 95
internal_count=3491 1602 1889 947 794 288 519 808 506 428 942 190 329 356 270 101 374 141 133 74 204 173 51 200 124 169 56 88 72 95
is_linear=0
shrinkage=0.05


Tree=8
num_leaves=31
num_cat=0
split_feature=5 5 13 13 5 5 17 15 17 13 7 5 14 3 16 0 15 3 9 10 7 13 5 7 9 13 3 11 11 15
split_gain=1040.51 155.046 114.166 57.0011 44.8975 36.7766 23.6545 19.9973 25.5148 17.7149 16.5604 15.3297 13.2044 12.5408 10.3523 10.2822 9.85614 8.77671 10.6391 8.66081 12.1725 8.47481 8.27456 8.19498 8.00045 7.92116 7.37027 7.36917 6.95046 6.84168
threshold=1.0000000180025095e-35 0.8029279112815858 0.20971577614545825 0.052927324548363693 -0.33421681821346277 -0.51376599073410023 -0.36321067810058588 -0.7347777485847472 0.89774876832962047 0.26997119188308721 0.51196283102035534 -0.9327140450477599 -0.89124503731727589 -0.15940834581851956 1.2697458863258364 0.90146571397781383 -0.12490154802799223 0.83587470650672924 0.58971741795539867 0.069836691021919264 -0.11916120722889899 0.39164081215858465 -0.21451736241579053 0.020277590490877632 0.81398713588714611 0.66959288716316234 -0.32489143311977381 -0.78312942385673512 -0.30530071258544916 -0.91342031955718983
decision_type=2 2 2 2 2 2 2 2 2 2 2 2 2 2 2 2 2 2 2 2 2 2 2 2 2 2 2 2 2 2
left_child=2 3 5 10 11 -1 13 -5 25 17 24 29 -13 -7 15 19 22 18 -3 -6 -21 -14 -15 27 -2 -9 -25 -23 -12 -4
right_child=1 9 4 7 14 6 -8 8 -10 -11 28 12 21 16 -16 -17 -18 -19 -20 20 -22 23 -24 26 -26 -27 -28 -29 -30 -31
leaf_value=-0.13268408625781244 -0.020141429124511667 0.06859204312890621 -0.090059086257812435 -0.0034440223989257394 0.033361242365600612 -0.057678749766113271 -0.068298523203613334 0.035339141766113281 -0.0079357155979003398 0.066342043128906222 0.035650684856445292 0.014169250251708966 -0.053198617507812476 -0.041080873367187465 -0.028821194197265587 0.042244841767089807 0.0092775690093994233 0.066342043128906222 -0.01967748812109367 0.011429684103515659 -0.022867243143676743 0.0022091146217651848 0.0078045887143554761 -0.068637565642578086 -0.077047679313964862 0.06940652069531246 0.035170318874755906 -0.042980493390747054 -0.0016131816767578579 -0.070969697043945332
leaf_weight=896 119 41 65 65 96 58 235 248 48 667 27 29 73 33 23 32 40 63 37 49 28 20 20 21 53 184 45 56 50 70
leaf_count=896 119 41 65 65 96 58 235 248 48 667 27 29 73 33 23 32 40 63 37 49 28 20 20 21 53 184 45 56 50 70
internal_value=-0.00236322 0.0272784 -0.0275013 0.0115869 -0.00963756 -0.0359594 -0.023057 0.0206422 0.0241667 0.042698 -0.00823293 -0.0201847 -0.0127049 -0.00761589 0.00789474 0.0114634 0.00376344 0.0265957 0.0153846 0.0066474 -0.00584416 -0.0169767 -0.0103774 -0.00985915 -0.0168605 0.0280093 0.0030303 -0.0210526 0.011039 -0.0337037
internal_weight=3491 1602 1889 794 607 1282 386 545 480 808 249 379 244 151 228 205 93 141 78 173 77 215 53 142 172 432 66 76 77 135
internal_count=3491 1602 1889 794 607 1282 386 545 480 808 249 379 244 151 228 205 93 141 78 173 77 215 53 142 172 432 66 76 77 135
is_linear=0
shrinkage=0.05


Tree=9
num_leaves=31
num_cat=0
split_feature=5 5 13 5 13 1 13 16 5 13 5 11 14 16 7 16 16 13 10 2 6 10 0 4 6 11 13 3 3 16
split_gain=994.609 140.016 131.11 61.2226 51.7724 43.1841 17.7149 16.9959 16.9313 13.2675 13.2191 16.1125 12.8209 14.001 12.7194 12.1774 11.3265 10.7355 10.1031 10.0946 9.86165 10.1476 16.1591 9.18505 8.46169 7.80675 6.81088 6.6261 6.57795 8.49057
threshold=0.084731245413422598 0.8029279112815858 0.12476947158575059 -0.9327140450477599 0.043523918837308891 0.28215602040290838 0.26997119188308721 0.5863310992717744 -0.27436709403991694 0.80582743883132946 -0.69331514835357655 -1.12298047542572 -0.89124503731727589 0.1739790961146355 0.51196283102035534 -0.90408527851104725 1.2697458863258364 0.60640066862106334 -0.88780763745307911 0.17837816476821902 1.2684826850891116 0.02522972691804171 0.31769132614135748 -0.064175008796155439 -0.83428326249122609 0.25610069930553442 -0.44409099221229548 0.44193071126937872 0.60269999504089367 0.084871150553226485
decision_type=2 2 2 2 2 2 2 2 2 2 2 2 2 2 2 2 2 2 2 2 2 2 2 2 2 2 2 2 2 2
left_child=2 4 5 -4 14 10 19 17 9 12 -1 -12 -5 -14 28 27 20 18 -6 25 21 23 -23 -10 -20 -3 -13 -7 29 -2
right_child=1 6 3 8 7 15 -8 -9 16 -11 11 26 13 -15 -16 -17 -18 -19 24 -21 -22 22 -24 -25 -26 -27 -28 -29 -30 -31
leaf_value=-0.12604988194492181 -0.020448450547680654 0.0699343159724609 -0.07913560140561518 0.0089498627875671758 0.066441031353100533 0.011088405043426498 0.063024940972460905 0.027832569169177292 0.034415691912725824 0.034730068716122477 0.011070366488488803 -0.08923344171054684 -0.030071952517919921 -0.063954811060931371 0.020226989659765639 -0.058655114952734372 -0.037221393874609411 0.065936194660546829 -0.0086250973304931484 0.063024940972460905 0.038373898600793432 -0.025566650486614995 0.010858199898339872 -0.0010998602251189871 0.033787087044506774 -0.045264579340039093 -0.061448198605932626 -0.031590440280154432 -0.00027477234812016692 -0.065631298918286077
leaf_weight=630 53 29 163 41 68 34 667 126 65 34 22 160 160 84 72 184 26 180 20 90 32 31 65 42 99 22 169 24 46 53
leaf_count=630 53 29 163 41 68 34 667 126 65 34 22 160 160 84 72 184 26 180 20 90 32 31 65 42 99 22 169 24 46 53
internal_value=-0.00187625 0.0284262 -0.0253815 -0.00881561 0.0123431 -0.0354456 0.042698 0.0213996 -0.0012069 -0.00893417 -0.0401121 -0.0323362 -0.0124561 -0.0168033 -0.00758929 -0.0165289 0.00823755 0.0268392 0.0184492 0.0265957 0.0117021 0.00763547 -0.00416667 0.0182243 0.00966387 0.00882353 -0.0351064 0.00344828 -0.0157895 -0.0226415
internal_weight=3491 1525 1966 743 717 1223 808 493 580 319 981 351 285 244 224 242 261 367 187 141 235 203 96 107 119 51 329 58 152 106
internal_count=3491 1525 1966 743 717 1223 808 493 580 319 981 351 285 244 224 242 261 367 187 141 235 203 96 107 119 51 329 58 152 106
is_linear=0
shrinkage=0.05


Tree=10
num_leaves=31
num_cat=0
split_feature=2 13 13 15 13 2 0 8 2 0 9 3 15 9 8 10 2 1 2 4 2 7 9 6 13 15 13 6 0 11
split_gain=789.712 192.05 182.629 79.5231 36.0594 28.2625 23.5669 25.0726 23.5598 18.9426 17.0985 15.9743 15.1176 14.3988 12.7962 12.7165 12.7003 12.6192 11.8835 10.7428 10.3925 9.31613 8.3526 8.19409 11.218 8.41266 7.56919 7.05294 8.3856 6.81687
threshold=-0.080527721904218183 -0.0071854733396321526 0.26997119188308721 -0.83440163731575001 0.64193794131279003 0.43728405237197882 0.18407438695430758 0.80052742362022411 -0.59833949804306019 -0.019309381023049351 0.034323502331972129 0.26371970772743231 -0.74886602163314808 0.62371137738227855 0.58011102676391613 -1.1302353739738462 -0.59833949804306019 0.74551910161972057 0.43728405237197882 1.0000000180025095e-35 0.17837816476821902 -0.74663984775543202 -0.52023139595985401 0.15946823358535769 0.42180784046649938 -0.62013486027717579 0.91129881143569957 -0.54664969444274891 -0.95506995916366566 -0.24126116931438443
decision_type=2 2 2 2 2 2 2 2 2 2 2 2 2 2 2 2 2 2 2 2 2 2 2 2 2 2 2 2 2 2
left_child=1 8 6 16 11 17 7 15 9 -1 -11 13 -7 -5 22 18 -3 23 27 -16 -19 -18 -10 -4 -25 -26 -6 29 -29 -2
right_child=2 3 5 4 26 12 -8 -9 14 10 -12 -13 -14 -15 19 -17 21 20 -20 -21 -22 -23 -24 24 25 -27 -28 28 -30 -31
leaf_value=-0.11974738784767572 0.032724662666742031 -0.080102141391875312 0.059873693923837838 -0.0061232997971682581 0.025335537719430246 0.059873693923837838 0.059873693923837838 0.045643396499121441 -0.06301336431528444 0.0022324848077197148 -0.084628054226954963 0.0074005575723154584 0.059873693923837838 -0.052649878813714017 -0.074747387847675748 -0.042754538727473083 -0.082763668801246304 -0.013200055970606384 0.021970410896259774 0.024253645063169651 0.059413619068144463 -0.0073420548170073374 -0.075593861069670434 -0.014470693870218466 0.0062203842657665882 0.059873693923837838 0.064564357986337889 -0.0049778892933195484 -0.03875988784767577 -0.037099625492246678
leaf_weight=582 21 127 133 291 166 34 75 74 90 33 76 59 625 124 23 197 23 32 37 28 53 79 256 22 20 103 70 20 21 22
leaf_count=582 21 127 133 291 166 34 75 74 90 33 76 59 625 124 23 197 23 32 37 28 53 79 256 22 20 103 70 20 21 22
internal_value=-0.00142207 -0.0217316 0.0262257 -0.00516507 0.00309859 0.0380626 0.000321199 -0.00459184 -0.0360294 -0.0416064 -0.0224771 -0.00485232 0.0442337 -0.00831325 -0.0263224 -0.0106918 -0.030786 0.0268595 0.00206612 -0.00294118 0.01 -0.0176471 -0.0297688 0.0320144 0.0237931 0.0296748 0.0190678 -0.00833333 -0.0231707 0.00581395
internal_weight=3516 2027 1489 939 710 1022 467 392 1088 691 109 474 659 415 397 318 229 363 121 51 85 102 346 278 145 123 236 84 41 43
internal_count=3516 2027 1489 939 710 1022 467 392 1088 691 109 474 659 415 397 318 229 363 121 51 85 102 346 278 145 123 236 84 41 43
is_linear=0
shrinkage=0.05


Tree=11
num_leaves=31
num_cat=0
split_feature=5 5 13 13 5 5 13 16 10 9 13 13 2 17 4 9 16 0 4 9 10 5 3 16 5 17 6 11 3 3
split_gain=982.297 186.668 93.8537 70.3808 30.564 30.0157 25.8058 21.1829 21.0835 18.0656 17.5726 15.3126 14.6165 14.0199 13.6004 12.3725 11.9456 11.5907 11.2751 11.1876 10.8043 10.4017 10.1455 12.1119 9.89098 19.8936 9.82362 9.05224 11.2667 9.04897
threshold=-0.094817921519279466 0.62337875366210949 0.075733233243227019 0.39164081215858465 -0.9327140450477599 -1.0524134635925291 0.10327597334980966 -0.91259264945983876 -1.1006544828414915 1.337682902812958 0.61290135979652416 -0.44409099221229548 0.17837816476821902 -0.19834171235561368 -0.72002622485160817 0.44345030188560491 -0.15624442696571347 -0.28025968372821802 -0.20991972088813779 0.85560405254364025 -1.2040691971778867 0.20443069189786914 0.090804122388362898 -1.2609586119651792 1.2218760251998904 0.84025683999061596 -1.3319289088249204 0.040165271610021598 0.58022254705429088 0.49670492112636572
decision_type=2 2 2 2 2 2 2 2 2 2 2 2 2 2 2 2 2 2 2 2 2 2 2 2 2 2 2 2 2 2
left_child=2 3 4 9 -1 -4 15 20 13 11 14 -2 18 26 -9 -3 29 -10 -5 -19 -7 -20 23 -22 25 -8 -6 -18 -29 -13
right_child=1 6 5 12 8 7 24 10 17 -11 -12 16 -14 -15 -16 -17 27 19 21 -21 22 -23 -24 -25 -26 -27 -28 28 -30 -31
leaf_value=-0.16376001845529192 -0.039724885377632795 0.057591524098881755 -0.077594244805047285 0.059645700231327585 0.025195841139572784 0.019581469920939322 0.056880009227645939 -0.004960842369987617 -0.081807047501711777 -0.1046836080773705 0.0016372845250890223 0.004807364959533978 0.061620387731327587 -0.045170875412032775 -0.044671939135743882 0.0093083487389532989 0.0034615909950976632 -0.022229191625436597 -0.0052851427265356854 -0.092270282167630877 -0.040908876919917826 0.025450535496089624 0.031805600334291695 0.013851029978306562 0.056880009227645939 0.013165831531608663 -0.025527168735984596 -0.056545606326656131 -0.00012202964240701775 0.038317977319828805
leaf_weight=500 104 70 131 66 27 20 300 86 287 39 125 67 133 54 183 76 94 106 81 64 35 119 39 23 457 58 70 30 30 42
leaf_count=500 104 70 131 66 27 20 300 86 287 39 125 67 133 54 183 76 94 106 81 64 35 119 39 23 457 58 70 30 30 42
internal_value=-0.00127986 0.0250283 -0.0278286 0.00726708 -0.0366426 -0.0126168 0.0399063 -0.00714286 -0.0291118 -0.00738916 -0.0126904 -0.00395095 0.0221805 -0.0129139 -0.0198885 0.0205479 0.00247148 -0.0344639 0.0154135 -0.0241176 0.0115385 0.0095 0.00463918 -0.00862069 0.0433742 0.0371508 -0.00154639 -0.00649351 -0.0216667 0.0151376
internal_weight=3516 1766 1750 805 1108 642 961 511 608 406 394 367 399 151 269 146 263 457 266 170 117 200 97 58 815 358 97 154 60 109
internal_count=3516 1766 1750 805 1108 642 961 511 608 406 394 367 399 151 269 146 263 457 266 170 117 200 97 58 815 358 97 154 60 109
is_linear=0
shrinkage=0.05


Tree=12
num_leaves=31
num_cat=0
split_feature=5 5 13 13 1 15 13 13 3 15 9 5 5 14 16 17 9 5 17 5 15 9 5 17 15 3 3 1 7 15
split_gain=965.548 161.531 104.988 66.2423 41.8578 29.9381 28.9961 19.8789 19.1338 15.9572 15.5056 13.1383 12.8975 17.1204 12.2367 12.2195 11.9085 11.1656 15.8274 10.1011 12.1999 10.0649 9.89098 19.8936 9.85304 9.32246 9.1231 12.5091 8.43989 8.11261
threshold=-0.034968197811394923 0.62337875366210949 0.075733233243227019 0.39164081215858465 -0.059614226222038262 -1.0109040737152097 0.10327597334980966 0.62330624461174022 0.41192400455474859 -0.68659371137619007 0.34368492662906652 -0.75316488742828358 -1.2918124198913572 -0.79843419790267933 0.87691727280616771 0.9159635901451112 1.0458037853240969 -1.0524134635925291 -0.039095461368560784 -0.33421681821346277 -0.11896339803934096 0.44345030188560491 1.2218760251998904 0.84025683999061596 -0.50406357645988453 0.041845966130495078 0.04895483888685704 0.52386471629142772 -0.8579898178577422 0.3438889086246491
decision_type=2 2 2 2 2 2 2 2 2 2 2 2 2 2 2 2 2 2 2 2 2 2 2 2 2 2 2 2 2 2
left_child=2 3 4 8 11 -4 21 12 10 25 -2 -1 -7 -14 16 -11 -10 -6 29 20 -9 -3 23 -8 -15 -5 28 -28 -26 -19
right_child=1 6 5 9 17 7 22 19 14 15 -12 -13 13 24 -16 -17 -18 18 -20 -21 -22 -23 -24 -25 26 -27 27 -29 -30 -31
leaf_value=-0.11957798421356342 -0.0082657046110207865 0.054711947893937657 -0.072573265641282123 -0.0066238137938853031 -0.13159007476498236 -0.072846286893538365 0.054036008766263646 -0.010379820663318374 0.032243438007081959 0.056564680844761211 -0.059218249386804644 -0.07050825212673735 0.0085821495285639763 -0.057946130824587175 -0.034495759734866918 -0.0071182862814807239 -0.033432481489933739 -0.02570673603160727 -0.057291358665142594 0.034284435004931078 0.03527357050273703 0.008842931302005641 0.054036008766263646 0.012507539955028225 -3.9483085054259352e-05 0.039141685894428679 0.019972824549251603 -0.035121278861942343 -0.047764283039843591 0.013412505253695951
leaf_weight=534 121 70 127 32 54 21 300 53 104 280 84 292 85 107 27 28 23 136 85 83 29 76 457 58 47 25 37 33 66 42
leaf_count=534 121 70 127 32 54 21 300 53 104 280 84 292 85 107 27 28 23 136 85 83 29 76 457 58 47 25 37 33 66 42
internal_value=-0.00105233 0.0262611 -0.0261879 0.00842541 -0.0354768 -0.0107558 0.0396982 -0.00579323 -0.00682451 0.0234247 -0.0168293 -0.0414044 -0.0118687 -0.00973333 0.00649351 0.0279221 0.0129921 -0.0200315 -0.0157795 0.00878788 -0.00365854 0.0191781 0.0433742 0.0371508 -0.0155172 -0.000877193 -0.00846995 0.00571429 -0.0172566 -0.00730337
internal_weight=3516 1685 1831 724 1143 688 961 561 359 365 205 826 396 375 154 308 127 317 263 165 82 146 815 358 290 57 183 70 113 178
internal_count=3516 1685 1831 724 1143 688 961 561 359 365 205 826 396 375 154 308 127 317 263 165 82 146 815 358 290 57 183 70 113 178
is_linear=0
shrinkage=0.05


Tree=13
num_leaves=31
num_cat=0
split_feature=5 5 13 13 1 13 5 17 15 14 5 3 0 16 15 1 13 13 5 17 5 17 8 5 3 1 7 3 11 11
split_gain=923.691 178.691 77.515 68.5054 33.4703 28.9961 26.8274 19.9805 24.2461 18.6882 20.1848 13.8634 12.6231 13.1282 12.3312 11.908 11.1519 10.3711 9.89098 19.8936 9.32151 12.001 9.03892 8.65325 8.43472 8.41877 10.6699 7.77316 7.55699 7.48949
threshold=-0.094817921519279466 0.62337875366210949 0.1163533851504326 0.043523918837308891 -0.067461192607879625 0.10327597334980966 -1.2319626808166502 0.9159635901451112 -0.68659371137619007 -0.86771991848945607 -0.27436709403991694 0.70382648706436168 0.75674739480018627 -0.27532659471034998 -0.15302323549985883 -0.99798995256423939 0.49077820777893072 -0.11861746385693549 1.2218760251998904 0.84025683999061596 -1.1122632026672361 -0.19834171235561368 0.72705531120300304 -1.0524134635925291 -0.70890185236930836 0.29646804928779608 0.77553522586822521 0.041845966130495078 0.0074556106701493272 0.067951310425996794
decision_type=2 2 2 2 2 2 2 2 2 2 2 2 2 2 2 2 2 2 2 2 2 2 2 2 2 2 2 2 2 2
left_child=2 3 4 11 17 22 -4 8 27 -8 14 -2 13 -12 15 -11 -10 -1 19 -7 -6 25 -3 -19 -18 -22 29 -5 -21 -27
right_child=1 5 6 7 20 18 9 -9 16 10 12 -13 -14 -15 -16 -17 24 23 -20 28 21 -23 -24 -25 -26 26 -28 -29 -30 -31
leaf_value=-0.10369076686952816 -0.031760857415437063 0.019038000100661191 -0.074774300809719474 -0.008056465484041998 -0.12890066057031521 0.051334208327950485 0.013529722928578304 -0.031915375757948006 0.019441427682283144 -0.00059546872130531456 0.029062582716605737 0.0073487083368688928 0.032699118168880006 -0.019938498266476756 -0.020329352497716037 -0.054485434063678943 0.023023335814991965 -0.1143117038636299 0.051334208327950485 0.036587531224941384 -0.049252165547580079 -0.051836427784708587 0.051976350499240764 -0.048213107101132337 0.055776282740023199 0.0070065172462814747 0.025609103829815072 0.042437839771828405 -0.017972011959808267 -0.072726685575719693
leaf_weight=678 193 99 91 42 45 300 90 50 153 46 39 76 31 39 104 172 50 38 457 23 53 117 47 105 206 47 22 35 35 33
leaf_count=678 193 99 91 42 45 300 90 50 153 46 39 76 31 39 104 172 50 38 457 23 53 117 47 105 206 47 22 35 35 33
internal_value=-0.000369738 0.0251416 -0.0261143 0.00776398 -0.0338313 0.0396982 -0.0117647 0.018097 0.0211934 -0.00738964 -0.0117169 -0.0128253 0.00688073 -0.00384615 -0.0180124 -0.0247706 0.0260391 -0.0391596 0.0433742 0.0371508 -0.0200315 -0.0165441 0.0191781 -0.0269231 0.0324219 -0.00741935 0.000980392 -0.00454545 0.0103448 -0.0075
internal_weight=3516 1766 1750 805 1138 961 612 536 486 521 431 269 109 78 322 218 409 821 815 358 317 272 146 143 256 155 102 77 58 80
internal_count=3516 1766 1750 805 1138 961 612 536 486 521 431 269 109 78 322 218 409 821 815 358 317 272 146 143 256 155 102 77 58 80
is_linear=0
shrinkage=0.05


Tree=14
num_leaves=31
num_cat=0
split_feature=2 13 13 15 2 2 0 13 8 2 13 9 15 6 0 9 7 13 15 8 10 2 6 15 7 9 4 15 0 11
split_gain=625.419 159.334 147.404 65.0192 33.2679 29.6822 25.6659 24.4549 20.169 15.5547 15.5295 14.9115 14.0625 13.3887 13.139 14.1945 12.9465 12.5749 12.0025 12.0132 11.4936 11.8835 9.72814 9.66054 9.41494 8.71375 11.9275 8.33333 8.22538 8.2217
threshold=-0.080527721904218183 -0.0071854733396321526 0.26997119188308721 -0.70628368854522694 -0.72779244184494007 1.2140016555786135 0.18407438695430758 0.91129881143569957 0.80052742362022411 -0.33943361043930048 0.58250311017036449 -0.31374734640121454 -0.66087022423744191 0.452874705195427 -0.019309381023049351 0.034323502331972129 0.35800614953041082 0.52468794584274303 -0.90444642305374134 -0.66891527175903309 -1.1302353739738462 0.43728405237197882 -0.013634685426950453 -0.29202298820018763 0.76112443208694469 0.36803269386291509 -0.20991972088813779 -0.91342031955718983 0.48271563649177557 0.28869171440601354
decision_type=2 2 2 2 2 2 2 2 2 2 2 2 2 2 2 2 2 2 2 2 2 2 2 2 2 2 2 2 2 2
left_child=1 4 6 10 14 12 8 9 20 13 -3 18 -4 29 -1 -16 22 23 -6 -20 21 -2 -12 -14 28 26 -15 -24 -11 -5
right_child=2 3 5 7 11 -7 -8 -9 -10 24 16 -13 17 25 15 -17 -18 -19 19 -21 -22 -23 27 -25 -26 -27 -28 -29 -30 -31
leaf_value=-0.11179906783791266 -0.018036630502569564 -0.058972154242244827 0.01620369583078576 -0.011601757288769821 -0.06896845154199141 0.048767497911552972 0.048767497911552972 0.053223628770928011 0.042693803401323116 -0.00038130258489630367 0.0079367124298777465 -0.060549096542086116 1.74979115529883e-05 0.018560829564571991 0.013650400504731475 -0.084490083639351468 -0.027859220782705529 0.048767497911552972 -0.060516420291991405 0.0042744016608827094 -0.036585513563400743 0.014304816746772753 -0.049857674678440267 0.048767497911552972 0.025808669269093976 -0.032049998162495631 -0.006658126083072236 0.036072352279543217 0.022588943967565035 -0.048577812765777356
leaf_weight=491 84 204 83 168 25 349 75 61 74 101 22 348 46 62 28 58 21 419 45 93 197 37 24 125 43 61 48 24 66 34
leaf_count=491 84 204 83 168 25 349 75 61 74 101 22 348 46 62 28 58 21 419 45 93 197 37 24 125 43 61 48 24 66 34
internal_value=-0.000796359 -0.0188703 0.0238079 -0.00378062 -0.0318934 0.0344423 0.000535332 0.00512422 -0.00459184 0.00197256 -0.0232203 -0.0226027 0.0283061 -0.0041555 -0.0401213 -0.022093 -0.00604396 0.0310169 -0.0101227 -0.00434783 -0.0100629 0.00206612 0.00428571 0.0195906 0.0128571 0.00614035 0.0145455 -0.00833333 0.00748503 -0.0128713
internal_weight=3516 2027 1489 939 1088 1022 467 644 392 583 295 511 673 373 577 86 91 590 163 138 318 121 70 171 210 171 110 48 167 202
internal_count=3516 2027 1489 939 1088 1022 467 644 392 583 295 511 673 373 577 86 91 590 163 138 318 121 70 171 210 171 110 48 167 202
is_linear=0
shrinkage=0.05


Tree=15
num_leaves=31
num_cat=0
split_feature=5 5 5 13 13 10 3 11 13 10 4 5 16 17 0 14 16 5 13 0 15 8 16 5 6 11 0 17 3 14
split_gain=774.841 116.606 87.9502 59.1827 46.938 22.1241 21.5227 20.858 17.0378 14.3881 14.3293 13.2466 11.9561 11.4151 11.1743 12.2708 10.9282 9.73549 8.77193 8.69292 11.0003 8.61784 8.03543 7.62712 7.52012 10.636 7.49497 10.6698 7.26041 6.87619
threshold=0.084731245413422598 -0.87286430597305287 1.2218760251998904 0.10327597334980966 0.47822670638561254 -0.95621240139007557 0.41192400455474859 0.05428088270127774 0.35182183980941778 -0.74079054594039906 -0.28279208391904825 0.68322849273681652 -0.80402126908302296 -0.19834171235561368 -0.28025968372821802 -0.19494993239641187 0.90848249197006237 -0.15466764196753499 0.80582743883132946 0.97959381341934215 -0.95199790596961964 -0.88933163881301869 0.13458498567342761 1.7006737589836123 -0.7233285903930663 -0.32382190227508539 0.1244967468082905 0.0091826510615646856 0.079277139157056822 -0.082640469074249254
decision_type=2 2 2 2 2 2 2 2 2 2 2 2 2 2 2 2 2 2 2 2 2 2 2 2 2 2 2 2 2 2
left_child=1 8 4 5 6 13 7 11 -1 -10 17 -2 -12 24 28 21 -8 19 26 20 -5 -16 -9 -4 25 -3 29 -28 -7 -14
right_child=2 3 23 10 -6 14 16 22 9 -11 12 -13 18 -15 15 -17 -18 -19 -20 -21 -22 -23 -24 -25 -26 -27 27 -29 -30 -31
leaf_value=-0.10228357950487942 -0.0039037075156786562 0.024108611773914081 0.046329123015975339 -0.046323883363701371 0.046329123015975339 -0.071813048848726968 0.031152657409888842 -0.0067094232585089182 0.012360155414339814 -0.072928466220478022 0.0073039553835816395 0.033342049775858973 -0.02019504197041715 -0.034784450076159226 0.014534020888537592 -0.048348654532311165 -0.021973119027876933 0.010628687813288497 0.020362345036529873 0.042638868182409612 0.0021113682160629477 -0.030527836564415711 -0.079644497447445797 0.046329123015975339 -0.022173487052341082 -0.011409507486271453 0.0046991802449331439 -0.036021461909559349 -0.048566443830964139 -0.065278737927610395
leaf_weight=645 109 27 236 36 531 195 236 50 37 67 51 43 63 94 28 127 40 83 38 35 171 51 46 236 72 46 46 54 61 27
leaf_count=645 109 27 236 36 531 195 236 50 37 67 51 43 63 94 28 127 40 83 38 35 171 51 46 236 72 46 46 54 61 27
internal_value=-0.00127059 -0.0213242 0.025704 -0.0122989 0.0176777 -0.0221826 0.00706107 -0.00362903 -0.0370494 -0.0182692 -0.000827815 0.00789474 -0.00913978 -0.00983264 -0.0285714 -0.0199029 0.0166667 0.00630769 -0.0140351 0.00123967 -0.002657 -0.00443038 -0.021875 0.0436441 -0.00103448 0.010274 -0.0184211 -0.009 -0.0355469 -0.0288889
internal_weight=3581 2054 1527 1305 1055 701 524 248 749 104 604 152 279 239 462 206 276 325 228 242 207 79 96 472 145 73 190 100 256 90
internal_count=3581 2054 1527 1305 1055 701 524 248 749 104 604 152 279 239 462 206 276 325 228 242 207 79 96 472 145 73 190 100 256 90
is_linear=0
shrinkage=0.05


Tree=16
num_leaves=31
num_cat=0
split_feature=5 5 5 13 13 5 1 13 9 13 9 9 13 4 2 11 5 9 9 10 17 5 17 9 14 4 13 17 6 3
split_gain=723.49 113.758 96.1795 50.335 39.6734 23.5233 21.1745 19.8304 16.2901 16.1064 15.5588 14.2998 13.0104 12.4501 10.9567 10.2413 10.2024 9.95771 9.49961 9.65517 9.37861 8.67797 8.6621 10.1802 11.058 8.28722 8.00039 7.67534 12.3086 7.61461
threshold=0.084731245413422598 -0.87286430597305287 1.2218760251998904 0.10327597334980966 0.39164081215858465 0.62337875366210949 -0.29780505597591395 0.67537838220596325 0.83238649368286144 -0.51910012960433949 1.337682902812958 0.78323292732238781 0.58962881565094005 -0.72002622485160817 -0.72779244184494007 0.47211001813411718 -0.21451736241579053 0.67382326722145092 -0.81479045748710621 -1.041073679924011 -1.0409438014030454 1.7006737589836123 0.15414535254240039 1.0108482241630556 -0.33575214445590967 -0.72002622485160817 -0.26601193845272059 -0.53592330217361439 -0.87792521715164173 -0.015853576362133023
decision_type=2 2 2 2 2 2 2 2 2 2 2 2 2 2 2 2 2 2 2 2 2 2 2 2 2 2 2 2 2 2
left_child=1 7 4 6 5 10 9 14 12 -3 18 25 13 -5 -1 -7 -15 -6 -2 -20 -14 -4 23 24 27 -11 -17 28 -8 -19
right_child=2 3 21 8 17 15 22 -9 -10 11 -12 -13 20 16 -16 26 -18 29 19 -21 -22 -23 -24 -25 -26 -27 -28 -29 -30 -31
leaf_value=-0.11397934714744347 0.026601457175831757 -0.068745322187540661 0.044012666865176575 0.010523706060380401 0.044012666865176575 0.043789654596063834 0.015641837070761565 0.0036387285463530096 -0.029011868245793826 0.0043427430556857941 -0.093207300381974098 -0.063264074462022452 0.072817052301237903 -0.026976016628167666 -0.069653892321951363 -0.041775322011186104 0.00084052306389175162 -0.01544155203410218 0.018858393046605238 -0.016182427206070351 0.010220638332799938 0.044012666865176575 -0.048383774792125946 -0.061231760112881076 0.015915332468462464 -0.025473184311721388 0.02714852051673864 -0.029095403692980137 -0.023339313311423828 0.044012666865176575
leaf_weight=457 44 182 236 72 460 125 39 27 119 38 25 61 20 141 265 26 77 26 58 145 175 236 99 21 42 78 29 82 59 117
leaf_count=457 44 182 236 72 460 125 39 27 119 38 25 61 20 141 265 26 77 26 58 145 175 236 99 21 42 78 29 82 59 117
internal_value=-0.0016057 -0.0209834 0.0244597 -0.012069 0.0160664 0.00486726 -0.021184 -0.0365154 -0.00149007 -0.0296657 -0.00441176 -0.0189266 0.00257732 -0.00413793 -0.0380886 0.0188889 -0.0100917 0.024461 -0.000607287 -0.00517241 0.0125641 0.0432203 -0.0122807 -0.00720165 -0.00405405 -0.00862069 0.000909091 -0.00944444 0 0.0129371
internal_weight=3581 2054 1527 1305 1055 452 701 749 604 359 272 177 485 290 722 180 218 603 247 203 195 472 342 243 222 116 55 180 98 143
internal_count=3581 2054 1527 1305 1055 452 701 749 604 359 272 177 485 290 722 180 218 603 247 203 195 472 342 243 222 116 55 180 98 143
is_linear=0
shrinkage=0.05


Tree=17
num_leaves=31
num_cat=0
split_feature=5 5 5 13 13 9 9 1 13 13 13 1 4 5 16 0 11 15 17 0 15 15 17 5 16 14 5 6 17 17
split_gain=682.08 114.679 100.089 45.6374 34.1325 30.1438 23.3452 21.7066 21.6581 17.653 14.8998 12.748 11.4534 15.7146 13.3525 11.1599 11.006 10.5519 9.48545 9.49397 13.4756 9.3189 13.4989 9.22881 9.14286 8.7682 8.60524 12.5374 7.49587 6.42449
threshold=0.084731245413422598 -0.87286430597305287 1.2218760251998904 -0.51910012960433949 0.48436193168163305 0.91531136631965648 -0.059404464438557618 -0.47003409266471857 0.29013812541961675 0.49877691268920904 -0.48967605829238886 -0.21123933047056195 -0.72002622485160817 -0.21451736241579053 0.84165224432945263 -0.80835649371147145 0.24296270310878756 0.44015628099441534 -1.0103376507759092 -0.68644788861274708 -0.31804566085338587 -0.48142106831073755 -0.34781751036643976 1.7006737589836123 1.1767212152481081 -0.53063863515853871 0.38397985696792608 -0.18474896997213361 0.10134741663932802 0.89774876832962047
decision_type=2 2 2 2 2 2 2 2 2 2 2 2 2 2 2 2 2 2 2 2 2 2 2 2 2 2 2 2 2 2
left_child=1 8 4 7 6 9 26 -3 -1 12 -8 -10 -5 17 -15 -9 -17 -14 -11 -20 25 -7 -23 -4 -12 -21 27 -2 -19 -6
right_child=2 3 23 5 29 21 10 15 11 18 24 -13 13 14 -16 16 -18 28 19 20 -22 22 -24 -25 -26 -27 -28 -29 -30 -31
leaf_value=-0.09284584929512002 0.044619726734642255 -0.066361970531288603 0.041812033521917737 0.0049851934192074905 0.041812033521917737 -0.057774640317084236 -0.033016489539153551 -0.058951370797895211 -0.062946120749122522 0.057110536710428011 0.0076529304849334741 0.0060304381887067221 -0.035104669299743964 0.0036134234006538037 -0.027418604652469727 -0.02050923914066918 0.016186248145952955 0.010447826425769115 -0.018472877378502429 0.026298443053066167 0.029468346651947842 0.0045305674833952649 -0.043062088659692944 0.041812033521917737 -0.051336902151431899 -0.0086554218827100907 0.044945856802222031 -0.031426503728171039 -0.024261453291660098 0.0062728011780755826
leaf_weight=626 32 165 236 136 474 87 62 101 82 29 224 41 215 124 23 32 24 33 21 43 72 39 54 236 32 81 143 39 26 49
leaf_count=626 32 165 236 136 474 87 62 101 82 29 224 41 215 124 23 32 24 33 21 43 72 39 54 236 32 81 143 39 26 49
internal_value=-0.00143815 -0.0202532 0.0238703 -0.0113027 0.0153081 -0.00595117 0.00639098 -0.0276398 -0.0358478 -0.00180573 -0.00220126 -0.0166667 -0.0067325 -0.0108076 0.00238095 -0.0143312 0.00357143 -0.0178832 0.00934959 0.00576037 0.00918367 -0.0244444 -0.0134409 0.0430085 0.003125 -0.000806452 0.0191589 0.00492958 0.000847458 0.0243786
internal_weight=3581 2054 1527 1305 1055 983 532 322 749 803 318 123 557 421 147 157 56 274 246 217 196 180 93 472 256 124 214 71 59 523
internal_count=3581 2054 1527 1305 1055 983 532 322 749 803 318 123 557 421 147 157 56 274 246 217 196 180 93 472 256 124 214 71 59 523
is_linear=0
shrinkage=0.05


Tree=18
num_leaves=31
num_cat=0
split_feature=2 13 13 2 0 15 13 3 15 9 9 15 9 0 8 0 2 2 3 0 14 2 7 4 0 13 13 2 1 13
split_gain=509.489 167.618 82.4288 47.2636 33.177 30.146 22.4462 19.2871 18.2247 16.4108 16.1471 13.6953 13.6005 12.7284 11.1587 11.0589 11.5715 11.0095 10.5691 10.1411 9.87978 10.1583 9.4377 11.2492 8.74604 7.84813 7.6468 7.52538 9.36765 7.50232
threshold=-0.33943361043930048 0.46703740954399114 0.10327597334980966 1.0845487117767336 0.15119731426239016 -0.84566330909728993 -0.6878276765346526 0.41192400455474859 -0.28620941936969752 1.0598788261413576 0.73650643229484569 -0.7347777485847472 0.79213640093803417 0.1244967468082905 -0.15461032465100286 -0.026119137182831761 -0.72779244184494007 1.0000000180025095e-35 -0.3952371478080749 1.2027971148490908 -0.42198275029659266 -0.59833949804306019 -0.22477208077907559 0.3730591237545014 0.15119731426239016 0.59464353322982799 0.64193794131279003 0.56673699617385875 0.71537059545516979 -0.63859060406684864
decision_type=2 2 2 2 2 2 2 2 2 2 2 2 2 2 2 2 2 2 2 2 2 2 2 2 2 2 2 2 2 2
left_child=2 4 6 11 7 26 18 29 27 -6 13 -3 15 -7 -10 16 -8 -11 24 22 21 -18 23 -13 -1 -15 -4 28 -9 -2
right_child=1 3 5 -5 9 10 12 8 14 17 -12 19 -14 25 -16 -17 20 -19 -20 -21 -22 -23 -24 -25 -26 -27 -28 -29 -30 -31
leaf_value=-0.12336318778910493 -0.094892967213534338 0.0010121647731004657 -0.054533634888695538 0.039721431845821845 0.039721431845821845 -0.0087450500974964214 -0.073363187789104931 -0.0061527445332424605 -0.0063250543748955227 -0.039616345003072276 -0.037842982502120065 0.042000300974790863 -0.078034763420815709 0.0038381488935933295 0.023916031982281139 -0.0059644433417254568 0.021856407092324392 0.014920717690724028 -0.046145444325694784 0.039721431845821845 -0.049365596262839144 -0.02825532010880032 0.039721431845821845 -0.0038096313033202825 -0.013797324219656204 0.025508247039284337 -0.0053298035399841574 0.0060866194864299013 -0.052799128443255718 -0.014845099575539034
leaf_weight=349 62 80 126 333 156 156 160 69 92 42 86 79 140 80 231 101 25 28 94 125 40 74 348 56 21 92 39 32 61 204
leaf_count=349 62 80 126 333 156 156 160 69 92 42 86 79 140 80 231 101 25 28 94 125 40 74 348 56 21 92 39 32 61 204
internal_value=-0.00152192 0.0152653 -0.02271 0.0294319 0.000460594 -0.00768566 -0.0313745 -0.00459387 0.00134021 0.0172566 -0.000483092 0.0219477 -0.0244444 0.00457317 0.00820433 -0.01975 -0.0245819 -0.00285714 -0.0394397 0.0245066 -0.0140288 -0.00555556 0.0212215 0.01 -0.0432432 0.0139535 -0.0257576 -0.0123457 -0.0176923 -0.0154135
internal_weight=3581 1998 1583 1021 977 579 1004 751 485 226 414 688 540 328 323 400 299 70 464 608 139 99 483 135 370 172 165 162 130 266
internal_count=3581 1998 1583 1021 977 579 1004 751 485 226 414 688 540 328 323 400 299 70 464 608 139 99 483 135 370 172 165 162 130 266
is_linear=0
shrinkage=0.05


Tree=19
num_leaves=31
num_cat=0
split_feature=5 5 5 13 13 13 14 13 5 17 11 16 3 1 1 10 4 15 16 1 1 11 5 5 11 6 0 8 0 14
split_gain=633.169 140.339 76.7326 41.5563 30.7308 24.3592 19.7251 15.6353 14.4779 14.3323 13.9914 13.7649 11.1469 10.8961 10.8719 10.5294 10.4231 15.0179 11.3961 10.2272 9.88446 9.67924 9.40613 9.22881 8.00906 7.88414 7.83721 7.7128 8.05768 7.68627
threshold=-0.094817921519279466 1.2218760251998904 -0.87286430597305287 1.0000000180025095e-35 -0.60374021530151356 0.26997119188308721 -1.0308483839035032 0.58962881565094005 0.62337875366210949 0.84025683999061596 0.71651941537857067 1.1767212152481081 0.83587470650672924 -0.47003409266471857 0.84837880730628978 -1.0306051969528196 -0.72002622485160817 -0.43188492953777308 0.36242789030075079 -0.72895947098731984 1.1790300011634829 -0.18453784286975858 -0.45391625165939326 1.7006737589836123 -0.59101179242134083 -0.019533933140337464 0.34566268324851995 -0.15461032465100286 1.2212792038917544 0.46740239858627325
decision_type=2 2 2 2 2 2 2 2 2 2 2 2 2 2 2 2 2 2 2 2 2 2 2 2 2 2 2 2 2 2
left_child=2 3 5 8 13 -1 -6 16 9 20 29 12 14 -4 -5 -7 21 -18 19 -19 24 -8 -9 -3 -2 -24 -14 -13 -29 -10
right_child=1 23 4 11 6 15 7 22 10 -11 -12 27 26 -15 -16 -17 17 18 -20 -21 -22 -23 25 -25 -26 -27 -28 28 -30 -31
leaf_value=-0.087905334663277726 0.017247046513199128 0.037735360253530775 -0.066724273452978405 0.030871907030806913 0.043765572576221712 0.0055763474489193502 0.0065526615651280377 -0.0064834927303178309 0.038247163174765446 -0.054545445954949194 -0.041691555071120018 -0.059685820259678259 0.037735360253530775 -0.045931459395130061 -0.0057422604709407299 -0.054163279968607217 -0.038747748897006364 -0.04213196845874239 -0.038023889533948113 0.00095735102637715128 0.023566068830050614 -0.020083125201276666 0.024769323258334253 0.037735360253530775 -0.020388299256364428 0.0014699303349549053 0.038825427630515288 -0.005020251782440921 0.046350341298904987 0.001441058841456755
leaf_weight=617 31 236 134 595 20 34 105 66 51 50 26 29 143 115 38 98 203 48 52 166 27 61 38 236 140 54 68 53 23 24
leaf_count=617 31 236 134 595 20 34 105 66 51 50 26 29 143 115 38 98 203 48 52 166 27 61 38 236 140 54 68 53 23 24
internal_value=-0.0016057 0.019661 -0.0223909 0.011171 -0.0137476 -0.0346462 -0.00904059 -0.0102774 -0.00358166 -0.0100806 0.0123762 0.0165964 0.0187204 -0.0291165 0.0154028 -0.0151515 -0.0137795 -0.0175906 -0.00977444 -0.0046729 -0.0040404 -0.00301205 0.00379747 0.0430085 -0.00847953 0.0141304 0.028673 -0.00047619 0.00789474 0.0233333
internal_weight=3581 1770 1811 1298 1062 749 813 793 349 248 101 949 844 249 633 132 635 469 266 214 198 166 158 472 171 92 211 105 76 75
internal_count=3581 1770 1811 1298 1062 749 813 793 349 248 101 949 844 249 633 132 635 469 266 214 198 166 158 472 171 92 211 105 76 75
is_linear=0
shrinkage=0.05


Tree=20
num_leaves=31
num_cat=0
split_feature=5 5 5 13 13 10 0 16 13 14 16 13 5 13 6 3 11 5 3 16 14 6 10 4 5 17 14 3 0 14
split_gain=636.008 155.891 63.5484 38.0987 21.019 20.8942 24.4226 18.7889 18.123 16.9656 16.7773 14.4082 11.6797 11.6563 10.3761 9.76756 9.72806 12.6475 9.25916 11.6866 9.11787 8.95068 13.7319 9.58348 8.5075 8.14924 8.03674 7.93893 10.4806 8.29665
threshold=-0.15466764196753499 1.2218760251998904 -0.9327140450477599 1.0000000180025095e-35 0.62330624461174022 -0.94571936130523671 -0.29175546765327448 -1.5748788118362425 0.26997119188308721 -0.14225061982870099 0.93473336100578319 -0.99158903956413258 0.44382958114147192 0.78431662917137157 -1.5069745779037473 0.058422971516847617 1.2245029807090761 0.56352901458740245 -0.31380999088287348 0.1739790961146355 -0.32939828932285303 -0.5593159794807433 -1.0368437170982359 -0.57428148388862599 1.64082407951355 0.45880775153636938 -0.64703372120857228 0.012334246654063465 0.94223615527153026 -0.03175466135144233
decision_type=2 2 2 2 2 2 2 2 2 2 2 2 2 2 2 2 2 2 2 2 2 2 2 2 2 2 2 2 2 2
left_child=2 3 8 11 5 7 15 -4 -1 -8 12 20 13 25 -13 -7 17 -16 -11 -20 -2 23 26 -9 -3 -5 -23 -12 29 -29
right_child=1 24 4 10 -6 6 9 21 -10 18 27 14 -14 -15 16 -17 -18 -19 19 -21 -22 22 -24 -25 -26 -27 -28 28 -30 -31
leaf_value=-0.092051769584956505 -0.010803638144476846 0.035848592240854238 0.01805162875154398 0.01011959884406939 0.0042291836428858479 -0.06096090054834491 -0.0013168077327353036 0.010160384382086753 -0.051175090659307546 -0.057322084326043313 -0.013119857571586247 0.052979356517767022 0.036191764901990407 0.042071017267721403 -0.0097892939678758673 -0.042598416271998563 -0.048578105644242454 0.031092198045318667 0.025082285690422836 -0.054831446163552268 -0.078980282557435708 -0.013048358464262845 0.0060053200465693297 -0.019052215726744273 0.035848592240854238 -0.01100908330357 -0.053446669403470273 0.035871595983638919 0.045298493828948641 -0.039867519653588729
leaf_weight=542 37 212 25 265 128 211 138 51 128 122 59 21 420 103 181 53 36 69 37 36 42 63 26 81 268 39 38 33 27 24
leaf_count=542 37 212 25 265 128 211 138 51 128 122 59 21 420 103 181 53 36 69 37 36 42 63 26 81 268 39 38 33 27 24
internal_value=-0.0014936 0.0188453 -0.0237344 0.010177 -0.0158077 -0.0185585 -0.0238693 -0.00739437 -0.0356716 -0.0148649 0.0154639 -0.00310881 0.0181983 0.0121622 0.00179153 -0.0352273 -0.000699301 0.0028 -0.024359 -0.010274 -0.0221519 -0.01139 -0.0208661 -0.00227273 0.0433333 0.00723684 -0.0292079 -0.00034965 0.00952381 -0.00263158
internal_weight=3515 1836 1679 1356 1009 881 597 284 670 333 970 386 827 407 307 264 286 250 195 73 79 259 127 132 480 304 101 143 84 57
internal_count=3515 1836 1679 1356 1009 881 597 284 670 333 970 386 827 407 307 264 286 250 195 73 79 259 127 132 480 304 101 143 84 57
is_linear=0
shrinkage=0.05


Tree=21
num_leaves=31
num_cat=0
split_feature=5 5 5 13 3 13 17 3 17 13 15 5 4 5 6 3 13 10 7 1 5 17 15 5 15 0 8 11 11 4
split_gain=596.038 157.281 69.7919 28.9631 26.7466 18.1354 14.9776 14.6277 14.481 12.9713 12.5301 10.8829 10.081 8.5075 8.50619 8.75152 8.45926 10.0935 8.36195 15.3521 8.01961 11.8844 7.9671 9.44983 7.25667 7.15037 6.65604 8.25143 7.36291 6.50483
threshold=-0.15466764196753499 1.2218760251998904 -0.81301459670066822 1.0000000180025095e-35 -0.30793349444866175 0.60640066862106334 0.82610574364662182 0.67930173873901378 -1.2827827930450437 -0.19185119122266767 -0.85860195755958546 0.20443069189786914 -0.20991972088813779 1.64082407951355 -0.66948243975639332 0.28154830634593969 0.33797155320644384 -0.97576278448104847 -1.3675315976142881 -0.49690148234367365 0.62337875366210949 -0.21556916087865827 -0.67147144675254811 -0.63346540927886952 0.72796940803527843 1.6879196763038637 -0.30155459046363825 0.067951310425996794 -0.70079579949378956 0.88316562771797191
decision_type=2 2 2 2 2 2 2 2 2 2 2 2 2 2 2 2 2 2 2 2 2 2 2 2 2 2 2 2 2 2
left_child=2 3 4 7 9 8 10 20 -4 -1 -5 14 18 24 15 -12 -6 -18 -10 -20 21 -2 -21 -24 -3 -13 27 -16 -28 -9
right_child=1 13 5 6 16 -7 -8 29 12 -11 11 25 -14 -15 26 -17 17 -19 19 22 -22 -23 23 -25 -26 -27 28 -29 -30 -31
leaf_value=-0.10819717318723798 0.003136806922846902 0.034056162628811525 0.0073839868804561172 -0.0041132463147395713 -0.051290955471245785 0.0033555357517642383 -0.00098989597548317944 0.02417808291819519 0.0033176587847276507 -0.055477306742620129 -0.013247028992609211 0.034382176656890896 -0.045326120281531157 0.034056162628811525 0.04219723909103739 0.011194855843548047 0.008751108418567766 -0.049503003126083335 -0.040452381865724085 -0.042281590941666218 0.011763405158633257 -0.037743584322153412 -0.027390305867146969 0.0085096124380417137 0.034056162628811525 0.036757176656890871 -0.010201828883734488 -0.00054437236643236633 0.022368200211307122 -0.0066921450009516104
leaf_weight=385 74 164 35 53 158 128 117 87 51 204 27 506 305 268 50 33 31 27 163 58 50 143 39 95 48 51 20 20 93 32
leaf_count=385 74 164 35 53 158 128 117 87 51 204 27 506 305 268 50 33 31 27 163 58 50 143 39 95 48 51 20 20 93 32
internal_value=-0.000953058 0.0187364 -0.0224836 0.0100295 -0.0331056 -0.0127002 0.0146392 -0.0015544 -0.0156836 -0.0386248 0.0169402 0.0185 -0.0172293 0.0433333 0.00967078 -0.00666667 -0.0180556 -0.00172414 -0.012069 -0.0147887 -0.00805243 -0.012212 -0.00520833 0.00149254 0.0358491 0.0223519 0.0150273 0.0271429 0.00752212 0.0130252
internal_weight=3515 1836 1679 1356 805 874 970 386 746 589 853 800 711 480 243 60 216 58 406 355 267 217 192 134 212 557 183 70 113 119
internal_count=3515 1836 1679 1356 805 874 970 386 746 589 853 800 711 480 243 60 216 58 406 355 267 217 192 134 212 557 183 70 113 119
is_linear=0
shrinkage=0.05


Tree=22
num_leaves=31
num_cat=0
split_feature=5 5 5 5 17 2 3 10 0 16 9 16 0 14 14 9 16 7 3 5 7 1 11 7 10 0 14 9 2 16
split_gain=571.434 179.418 51.7939 31.963 26.8398 16.8234 16.783 15.4659 28.0846 13.2344 12.9836 13.3977 16.8244 12.0104 11.5697 11.3883 10.0674 9.1937 10.0252 9.11678 8.6775 8.15819 7.93681 7.7097 7.46088 7.34046 12.0071 7.32815 9.26664 7.288
threshold=-0.27436709403991694 1.2218760251998904 -0.9327140450477599 0.50367929041385662 0.89774876832962047 -0.20998066663742063 -0.29698078334331507 -0.91797718405723561 -0.3008479624986648 -1.5748788118362425 -1.0168343186378477 1.1767212152481081 1.0601916313171389 -0.15859233587980268 -0.082640469074249254 -0.08449858799576758 -0.35500182211399073 -1.065307021141052 0.70382648706436168 1.64082407951355 0.73432451486587536 -0.28827480971813196 0.43088647723197943 -0.14747761934995648 1.3781055212020876 -0.32190780341625208 -0.87987220287322987 0.75211575627326976 -0.20998066663742063 1.1767212152481081
decision_type=2 2 2 2 2 2 2 2 2 2 2 2 2 2 2 2 2 2 2 2 2 2 2 2 2 2 2 2 2 2
left_child=2 3 6 4 10 15 25 9 21 -4 -2 12 16 -13 -10 -5 27 -18 20 -3 24 -9 -11 -6 -19 -1 -27 -12 -29 -16
right_child=1 19 7 5 23 -7 -8 8 14 22 11 13 -14 -15 29 -17 17 18 -20 -21 -22 -23 -24 -25 -26 26 -28 28 -30 -31
leaf_value=-0.10278731452787609 0.026487713648554068 0.032353354497370958 0.019744003929965406 0.037889567393966143 -0.018984489429438735 0.032663067824046356 -0.046536995901729931 -0.053386408859516447 -0.0009211671946236067 -0.013274243306520562 0.017385020516582594 0.011230376655008834 0.036090986025358006 -0.031064194449489959 -0.029017046399426417 -0.011738534946865099 0.019274611978433123 -0.028141704932660262 0.0052436014113671492 0.032353354497370958 0.0066143438976385971 -0.040871586688224326 -0.034426153051531294 -0.04709699664896666 0.020370829755837618 -0.00030572708225914404 -0.05660531118899155 -0.045205877900998392 0.0098574194499280853 -0.058264688398139988
leaf_weight=371 146 212 24 37 75 474 159 177 154 216 189 20 80 35 136 60 38 139 60 268 40 59 37 44 20 28 112 22 45 38
leaf_count=371 146 212 24 37 75 474 159 177 154 216 189 20 80 35 136 60 38 139 60 268 40 59 37 44 20 28 112 22 45 38
internal_value=-0.00103841 0.0164671 -0.0242555 0.00807087 0.0024659 0.0174256 -0.0346269 -0.0159929 -0.0207447 -0.00631769 0.00563549 0.00276163 0.00481833 -0.0209091 -0.0112805 -0.00154639 0.0017179 -0.00454545 -0.00791506 0.043125 -0.0133166 -0.0338983 -0.00968379 -0.0197479 -0.0185535 -0.0390411 -0.0292857 0.00898438 -0.00522388 -0.0201149
internal_weight=3515 2004 1511 1524 953 571 670 841 564 277 834 688 633 55 328 97 553 297 259 480 199 236 253 119 159 511 140 256 67 174
internal_count=3515 2004 1511 1524 953 571 670 841 564 277 834 688 633 55 328 97 553 297 259 480 199 236 253 119 159 511 140 256 67 174
is_linear=0
shrinkage=0.05


Tree=23
num_leaves=31
num_cat=0
split_feature=5 5 5 13 13 17 13 9 5 6 11 10 15 15 13 14 13 11 14 16 5 5 10 4 16 16 5 15 0 9
split_gain=521.312 107.481 101.362 29.8643 19.6164 18.2494 16.6983 17.7666 13.6299 13.6302 17.5266 11.663 11.5997 9.76991 9.69665 10.8347 9.61142 11.1193 11.1407 10.8833 9.11678 8.90946 11.0445 9.625 8.80562 8.63549 13.6004 10.0681 8.49503 10.0465
threshold=0.20443069189786914 1.2218760251998904 -0.75316488742828358 0.60640066862106334 0.0085775800980627554 0.054085092619061477 0.58250311017036449 -0.22910036146640775 -0.33421681821346277 0.60149523615837108 -0.22835170477628705 -0.8776961863040923 -0.7409972846508025 -0.59091967344284047 -0.79965287446975697 -0.082640469074249254 -1.6357684731483457 -0.78312942385673512 -0.7456269860267638 -0.94474017620086659 1.64082407951355 -1.1721129417419431 -0.8776961863040923 -0.86577090620994557 0.8589342236518861 0.8589342236518861 0.62337875366210949 1.0227079987525942 -0.37985880672931666 0.42438146471977239
decision_type=2 2 2 2 2 2 2 2 2 2 2 2 2 2 2 2 2 2 2 2 2 2 2 2 2 2 2 2 2 2
left_child=2 6 4 5 21 8 7 -2 16 10 -10 -6 -8 -13 -7 -16 -4 -18 19 -19 -3 -1 23 -23 -17 27 -27 -9 -24 -30
right_child=1 20 3 -5 11 14 12 25 9 -11 -12 13 -14 -15 15 24 17 18 -20 -21 -22 22 28 -25 -26 26 -28 -29 29 -31
leaf_value=-0.097647948801482295 0.033032017034872976 0.030735686772502425 -0.091112729397295422 0.017931200286533968 -0.010181433114706408 -0.078618739741855737 -0.0060477475809261882 0.0071719578114197713 0.016380334748257397 -0.014735126779049292 -0.0025537813526102407 -0.049256366296224853 0.031029914432844044 -0.026393887207299162 -0.0029363182077499109 -0.025750091453655612 0.0041355039452791956 0.017108291182186909 -0.029521442883003693 -0.020455553745116564 0.030735686772502425 0.004970890318406607 -0.058270186084409883 -0.046962626504899178 -0.057917935445749968 -0.069669034993483869 0.013841481727059724 -0.021130038911902529 -0.002457048968426512 -0.057420923073243403
leaf_weight=298 193 212 25 248 91 87 29 214 97 68 153 123 350 69 102 93 69 24 176 52 268 32 141 56 59 27 28 54 37 40
leaf_count=298 193 212 25 248 91 87 29 214 97 68 153 123 350 69 102 93 69 24 176 52 268 32 141 56 59 27 28 54 37 40
internal_value=1.42248e-05 0.0240364 -0.0154206 -0.00626496 -0.028354 -0.0100995 0.0137989 0.00794574 -0.00527108 0.00220126 0.0076 -0.0174912 0.0217678 -0.0244792 -0.0195015 -0.0145669 -0.0121387 -0.00981308 -0.0146825 0.00131579 0.043125 -0.0334437 -0.027451 -0.0125 -0.0230263 0.000773994 -0.0172727 0.00447761 -0.0334862 -0.0201299
internal_weight=3515 1375 2140 1253 887 1005 895 516 664 318 250 283 379 192 341 254 346 321 252 76 480 604 306 88 152 323 55 268 218 77
internal_count=3515 1375 2140 1253 887 1005 895 516 664 318 250 283 379 192 341 254 346 321 252 76 480 604 306 88 152 323 55 268 218 77
is_linear=0
shrinkage=0.05


Tree=24
num_leaves=31
num_cat=0
split_feature=5 5 5 3 13 13 5 9 2 9 13 9 6 14 10 9 6 10 13 5 6 5 10 4 11 14 6 13 2 15
split_gain=485.248 127.972 73.6689 35.3479 22.9874 21.2201 19.5478 16.9117 15.3063 14.9012 15.8897 11.3883 9.57439 13.5138 10.614 10.0087 9.43867 12.0354 9.41156 9.11678 8.49511 9.95131 9.46485 8.3535 8.68684 8.28792 11.2339 9.58348 7.63396 7.35056
threshold=0.50367929041385662 -0.33421681821346277 1.2218760251998904 -0.21477709710597989 -0.82179918885231007 -0.6878276765346526 -1.4713615179061887 0.91531136631965648 -0.20998066663742063 0.9498141109943391 0.62732160091400158 -0.08449858799576758 0.4624051451683045 -0.86771991848945607 0.73351731896400463 0.14178366959095004 -0.84903773665428151 -1.1694358587265012 0.96641677618026745 1.64082407951355 -0.58123537898063649 -0.99256375432014454 -1.2252411842346189 -0.20991972088813779 -0.62262344360351551 -0.73216205835342396 -0.97898957133293141 0.26997119188308721 -0.20998066663742063 -0.30568711459636683
decision_type=2 2 2 2 2 2 2 2 2 2 2 2 2 2 2 2 2 2 2 2 2 2 2 2 2 2 2 2 2 2
left_child=1 3 8 4 -1 -3 -6 12 11 16 -11 -2 13 15 -14 -8 -7 -18 -10 -4 21 -5 -23 -19 28 26 -24 29 -25 -27
right_child=2 5 19 20 6 9 7 -9 18 10 -12 -13 14 -15 -16 -17 17 23 -20 -21 -22 22 25 24 -26 27 -28 -29 -30 -31
leaf_value=-0.092765551361408183 0.034443593302625607 -0.043201923500540321 0.029198902433877284 -0.05131534137779678 -0.095265551361408199 0.017324805774071052 -0.024445885412450543 -0.057801554471393082 0.029478418711201826 -0.028829242546494261 0.038529893763572881 -0.011399105087545403 -0.026693000428448757 -0.042132453483726864 0.0031533715809427322 0.021182476121825378 -0.012044951147327199 0.016004189032193406 0.029478418711201826 0.029198902433877284 -0.027225290746974287 0.012358932817223889 -0.017029640135482051 -0.01071857066029196 0.0068111450466397105 -0.072931397575376505 0.024288198499491667 0.0055256425252014022 0.02405109105615244 -0.019270135177749406
leaf_weight=301 37 120 212 66 96 145 56 115 427 116 29 60 76 156 114 21 47 197 47 268 232 50 31 70 280 26 20 31 36 33
leaf_count=301 37 120 212 66 96 145 56 115 427 116 29 60 76 156 114 21 47 197 47 268 232 50 31 70 280 26 20 31 36 33
internal_value=0.000241821 -0.0118912 0.028687 -0.0216292 -0.0273262 0.00144231 -0.0219243 -0.0182156 0.0165499 0.00402174 -0.0106897 -0.00154639 -0.0135934 -0.0203863 -0.00526316 -0.00324675 0.00677419 0.00412698 0.0202532 0.043125 -0.0107362 -0.00447471 0.0013089 0.00608919 0.00181347 -0.00531915 0.0107843 -0.0144444 -0.0103774 -0.0262712
internal_weight=3515 2464 1051 1424 935 1040 634 538 571 920 145 97 423 233 190 77 775 630 474 480 489 257 191 583 386 141 51 90 106 59
internal_count=3515 2464 1051 1424 935 1040 634 538 571 920 145 97 423 233 190 77 775 630 474 480 489 257 191 583 386 141 51 90 106 59
is_linear=0
shrinkage=0.05


Tree=25
num_leaves=31
num_cat=0
split_feature=5 5 5 5 13 13 9 15 4 9 16 13 2 10 0 9 0 10 3 7 3 10 16 9 6 5 13 11 11 9
split_gain=485.654 120.48 74.9618 35.4199 28.6332 20.8011 25.0126 18.5858 15.0492 14.3234 17.9814 13.6119 13.4505 11.2826 11.2758 10.7991 10.0094 11.9108 9.92336 9.41605 13.1579 13.4589 8.91505 8.7041 8.61881 8.57247 8.30785 8.12511 9.4697 8.09782
threshold=0.56352901458740245 -0.51376599073410023 1.2218760251998904 -1.2918124198913572 0.45348232984542852 -1.5063623189926145 0.58971741795539867 -0.95199790596961964 -1.0115156471729276 -0.023093020543456074 0.23323052376508716 -0.4124752134084701 1.0000000180025095e-35 -0.88780763745307911 0.020482765510678295 0.12081868946552278 0.64258086681365978 1.3633407354354861 -0.47824670374393458 -0.34232755005359644 0.25189720094203955 -0.95621240139007557 1.037772595882416 0.50097021460533153 -1.3973667025566099 1.64082407951355 0.26997119188308721 -0.11294315382838248 -0.4568264633417129 1.0458037853240969
decision_type=2 2 2 2 2 2 2 2 2 2 2 2 2 2 2 2 2 2 2 2 2 2 2 2 2 2 2 2 2 2
left_child=1 3 12 26 7 -5 8 -3 24 -9 11 23 15 -8 -10 -2 29 -18 -13 -6 22 -22 27 -11 -7 -4 -1 28 -21 -14
right_child=2 4 25 5 19 6 13 9 14 10 -12 18 16 -15 -16 -17 17 -19 -20 20 21 -23 -24 -25 -26 -27 -28 -29 -30 -31
leaf_value=-0.08812727379333779 0.030434107095822061 -0.037054536865318302 0.027738957312183433 -0.075362236872611385 0.022027393470163761 0.02804372868148193 -0.016246750596177507 0.0035699948797135229 -0.037269759579989035 -0.036876348968312669 -0.041841488629832835 -0.036911726402207634 0.028004497775641735 -0.055241230049488582 0.0017577600158194652 -0.010228744353402998 0.029944158496612784 -0.00033237418668368162 0.0066137481198754958 -0.0047091085155628321 -0.0030594248989359585 0.034867974383716006 -0.044364064597326364 -0.01065374230634082 -0.0023325203183446551 0.027738957312183433 -0.050620945036664415 -0.012651029730887076 0.023064828119072581 -0.013965823315435012
leaf_weight=262 72 61 216 108 191 22 42 335 264 40 137 37 229 208 66 84 114 21 168 32 49 83 23 53 159 258 58 56 22 22
leaf_count=262 72 61 216 108 191 22 42 335 264 40 137 37 229 208 66 84 114 21 168 32 49 83 23 53 159 258 58 56 22 22
internal_value=-0.000171821 -0.0121163 0.028937 -0.0235913 -0.00151515 -0.0183544 -0.0154402 -0.00703971 -0.0090998 -0.00493506 -0.0109195 -0.00402685 0.0162362 -0.0284 -0.0154545 0.00384615 0.0212435 0.0322222 0.00317073 0.00855263 0.00245283 0.0136364 -0.00864662 -0.0198925 0.00248619 0.0434599 -0.0378125 -0.00272727 0.0111111 0.0153386
internal_weight=3492 2476 1016 1189 1287 869 761 831 511 770 435 298 542 250 330 156 386 135 205 456 265 132 133 93 181 474 320 110 54 251
internal_count=3492 2476 1016 1189 1287 869 761 831 511 770 435 298 542 250 330 156 386 135 205 456 265 132 133 93 181 474 320 110 54 251
is_linear=0
shrinkage=0.05


Tree=26
num_leaves=31
num_cat=0
split_feature=5 5 5 5 0 9 9 10 9 17 0 2 0 17 9 0 2 4 0 0 10 15 5 5 5 3 14 17 1 7
split_gain=475.08 114.694 72.9434 35.3584 20.0446 17.8469 17.0657 17.3158 16.9242 17.7204 17.3388 14.2636 11.8485 11.1211 10.7991 9.80864 9.60394 10.6145 9.34444 9.08694 11.9108 8.73091 13.97 8.57247 8.3425 7.9613 12.2061 10.8321 7.15592 7.02661
threshold=0.56352901458740245 -0.51376599073410023 1.2218760251998904 -1.2918124198913572 0.1244967468082905 1.5833981633186343 1.026814937591553 0.17505961656570437 0.75211575627326976 -1.0804255008697508 -0.3008479624986648 1.0000000180025095e-35 1.4320647716522219 0.82610574364662182 0.12081868946552278 -0.08165231347084044 -0.33943361043930048 -0.1370473615825176 -0.714270919561386 0.64258086681365978 1.3633407354354861 -0.20112346857786176 0.1445809677243233 1.64082407951355 -0.15466764196753499 1.0000000180025095e-35 0.53320670127868663 1.0000000180025095e-35 -0.28827480971813196 0.41249586641788488
decision_type=2 2 2 2 2 2 2 2 2 2 2 2 2 2 2 2 2 2 2 2 2 2 2 2 2 2 2 2 2 2
left_child=1 3 11 -1 6 12 7 13 9 28 -11 14 16 -3 -2 -9 17 -6 -15 -13 -21 -19 -23 -4 -8 26 27 -12 -5 -16
right_child=2 4 23 8 5 -7 24 15 -10 10 25 19 -14 18 29 -17 -18 21 -20 20 -22 22 -24 -25 -26 -27 -28 -29 -30 -31
leaf_value=-0.083720910103670887 0.028912401741030935 0.0015093877532484923 0.026352009446574256 -0.0050904367772077741 0.008703947490792353 -0.09798822263690124 -0.048531687017069162 -0.033317698237120566 -0.05483114645094999 -0.043028620097309483 -0.019930305498139813 0.026604272886859626 0.039354368731326028 0.0043431525901858727 -0.020573081210577993 0.00048716150137058102 0.019905430326505737 -0.032613631015083126 -0.044547797973790854 0.028446950571782148 -0.00031575547734949975 -0.025961972884942331 0.047742773686009432 0.026352009446574256 -0.025210146474063368 0.017709686931307735 -0.069812393914638587 0.014318992143367805 0.024067531978189428 0.028515934993311867
leaf_weight=320 72 506 216 68 111 33 33 107 226 361 73 251 60 24 61 33 193 55 36 114 21 23 22 258 51 32 20 32 57 23
leaf_count=320 72 506 216 68 111 33 33 107 226 361 73 251 60 24 61 33 193 55 36 114 21 23 22 258 51 32 20 32 57 23
internal_value=0.000343643 -0.0114701 0.0291339 -0.0226661 -0.00112665 0.00674044 -0.00607595 -0.00354108 -0.0174338 -0.013297 -0.0173745 0.0166052 0.00926724 0.000353357 0.00384615 -0.0192857 0.00618812 -0.00118483 -0.02 0.0217617 0.0322222 -0.013 0.00333333 0.0434599 -0.027381 -0.00350318 -0.0092 -0.00238095 0.0036 -0.00833333
internal_weight=3492 2476 1016 1189 1287 497 790 706 869 643 518 542 464 566 156 140 404 211 60 386 135 100 45 474 84 157 125 105 125 84
internal_count=3492 2476 1016 1189 1287 497 790 706 869 643 518 542 464 566 156 140 404 211 60 386 135 100 45 474 84 157 125 105 125 84
is_linear=0
shrinkage=0.05


Tree=27
num_leaves=31
num_cat=0
split_feature=5 5 5 13 13 9 5 10 0 9 9 13 0 11 15 9 17 16 13 16 9 1 5 4 0 3 4 16 4 17
split_gain=462.991 112.864 74.9618 40.1489 24.9713 21.9815 17.0269 13.8922 14.7474 14.7678 13.5336 13.1304 11.8684 11.6565 9.61618 14.2362 11.54 9.60702 9.4846 9.07724 8.82539 8.76205 8.57247 8.52826 8.01956 12.5565 7.30994 7.27062 7.18495 7.13499
threshold=0.56352901458740245 -1.0524134635925291 1.2218760251998904 0.24555610865354541 -1.4509213566780088 1.2582225799560549 0.084731245413422598 1.5293893218040469 1.2212792038917544 -0.11481139808893202 0.88285318017005932 0.26997119188308721 0.13767172396183017 0.088119570165872588 -0.93734237551689137 -1.3257864117622373 0.16439867764711383 -0.31256334483623499 0.027519670315086845 -0.74436849355697621 -1.238592207431793 0.24021694809198382 1.64082407951355 -1.0115156471729276 0.31769132614135748 0.51214510202407848 0.44593147933483129 0.94954121112823497 0.88316562771797191 -0.7835908532142638
decision_type=2 2 2 2 2 2 2 2 2 2 2 2 2 2 2 2 2 2 2 2 2 2 2 2 2 2 2 2 2 2
left_child=1 11 7 4 13 12 10 8 9 -2 -5 -1 14 -3 23 -16 18 -8 21 -7 -19 -17 -4 -6 -22 26 -26 28 -11 -23
right_child=2 3 22 6 5 19 17 -9 -10 27 -12 -13 -14 -15 15 16 -18 20 -20 -21 24 29 -24 -25 25 -27 -28 -29 -30 -31
leaf_value=-0.07953486459848734 0.027493781922352814 -0.070925164785342859 0.025034408974245539 0.00045259702234959901 -3.1995824763431104e-06 -0.0020792667230016492 0.033668185464839254 -0.010667741132258502 0.027518189194077426 0.02503717233379912 -0.025676239482788833 -0.034572294551758163 0.0038258217493377434 -0.034731288737380475 0.0085634639374455816 -0.015667980004670269 -0.034284239716233657 0.03202385031301791 0.0090818828067741556 -0.090643832891752596 -0.0066036027410868673 0.021046179251586139 0.025034408974245539 -0.039850066475021456 -0.0018789815326074157 0.036631997184692545 0.023936150435590189 -0.040181397343514919 -0.003119207035998306 -0.0044905722504124061
leaf_weight=424 175 94 216 416 27 20 95 34 90 123 95 98 161 39 70 197 186 25 87 87 63 27 258 57 57 21 24 30 90 106
leaf_count=424 175 94 216 416 27 20 95 34 90 123 95 98 161 39 70 197 186 25 87 87 63 27 258 57 57 21 24 30 90 106
internal_value=0.000515464 -0.011147 0.028937 -0.00562948 -0.0115717 -0.00892683 0.00301508 0.0162362 0.0183071 0.0143541 -0.00244618 -0.0318008 -0.00642702 -0.0319549 -0.00904888 -0.00705795 -0.00953566 0.012807 -0.00491607 -0.0303738 0.00631579 -0.00878788 0.0434599 -0.025 0.00212121 0.0107843 0.00185185 0.0063786 0.00962441 0.00112782
internal_weight=3492 2476 1016 1954 1158 1025 796 542 508 418 511 522 918 133 757 673 603 285 417 107 190 330 474 84 165 102 81 243 213 133
internal_count=3492 2476 1016 1954 1158 1025 796 542 508 418 511 522 918 133 757 673 603 285 417 107 190 330 474 84 165 102 81 243 213 133
is_linear=0
shrinkage=0.05


Tree=28
num_leaves=31
num_cat=0
split_feature=5 5 5 5 13 13 14 9 9 13 0 4 3 13 11 0 3 13 5 11 8 16 10 5 0 3 1 16 0 7
split_gain=450.001 129.491 45.799 40.079 29.8118 24.1606 23.589 18.6455 15.2345 16.3038 14.9113 13.4538 13.0659 12.5452 11.217 10.7284 10.391 11.084 10.058 12.8165 10.7616 8.97526 14.5214 8.57247 8.55754 11.388 8.22444 10.4897 7.78376 12.0505
threshold=0.8029279112815858 -0.45391625165939326 1.2218760251998904 -1.2918124198913572 0.60640066862106334 -1.5063623189926145 -0.76076310873031605 -0.064335353672504411 1.5833981633186343 -1.1798112988471983 -1.1536524295806883 -0.93864327669143666 0.83587470650672924 1.0077857375144961 0.67928069829940807 0.020482765510678295 -0.70890185236930836 -0.31963978707790369 -0.15466764196753499 -0.22835170477628705 -0.59544312953948964 -0.44034595787525171 -1.0177364349365232 1.64082407951355 -0.56967756152153004 0.23313909024000171 -0.98878875374793995 -0.23464275151491162 -0.55647155642509449 -0.13524103909730908
decision_type=2 2 2 2 2 2 2 2 2 2 2 2 2 2 2 2 2 2 2 2 2 2 2 2 2 2 2 2 2 2
left_child=1 3 12 -1 8 -5 11 15 9 10 -3 16 13 14 -2 -8 17 -7 19 28 -20 22 -6 -4 -9 26 27 -26 -11 -30
right_child=2 4 23 5 21 6 7 24 -10 18 -12 -13 -14 -15 -16 -17 -18 -19 20 -21 -22 -23 -24 -25 25 -27 -28 -29 29 -31
leaf_value=-0.075558121368562978 0.025193132685599019 0.026080848146969739 0.023782688525533269 -0.064258156426588053 -0.0086927198605600397 -0.035073770633053683 -0.028813209009557472 -0.052604686628650782 -0.095688479948071059 0.008981122715942336 -0.067378906546075729 -0.017040108261770683 0.024032266314147278 0.023899370146399024 -0.020934127250674783 0.023113591637296184 0.021277787435747177 0.010657543313738761 0.017570440474882831 -0.026040351412396891 0.00041788449855577618 0.016211810057456068 0.027903175404364201 0.023782688525533269 -0.039597573657942933 0.0036345306618708498 -0.058879287579229091 0.0059189694426257551 0.00025849577003369542 -0.049407358077318601
leaf_weight=320 125 21 216 111 24 32 130 104 38 59 56 164 142 31 42 48 69 35 104 128 502 292 79 258 20 41 164 29 87 21
leaf_count=320 125 21 216 111 24 32 130 104 38 59 56 164 142 31 42 48 69 35 104 128 502 292 79 258 20 41 164 29 87 21
internal_value=0.000859107 -0.00903659 0.0334152 -0.0206393 0.001382 -0.0154699 -0.0125598 -0.0188433 -0.00314961 -0.00194274 -0.024026 -0.00133333 0.0194118 0.0111111 0.00568862 -0.00561798 0.0102941 -0.00373134 -5.54939e-05 -0.00762712 0.00363036 0.013038 0.0257282 0.0434599 -0.025419 -0.0204724 -0.0251174 -0.00714286 0.00149701 -0.00648148
internal_weight=3492 2678 814 1267 1411 947 836 536 1016 978 77 300 340 198 167 178 136 67 901 295 606 395 103 474 358 254 213 49 167 108
internal_count=3492 2678 814 1267 1411 947 836 536 1016 978 77 300 340 198 167 178 136 67 901 295 606 395 103 474 358 254 213 49 167 108
is_linear=0
shrinkage=0.05


Tree=29
num_leaves=31
num_cat=0
split_feature=5 5 5 13 5 13 9 13 5 14 0 17 16 4 9 0 9 5 4 3 14 14 7 9 0 6 10 5 16 16
split_gain=439.315 114.252 48.067 40.5112 25.1014 17.17 16.5515 13.8669 15.9235 14.7321 13.872 13.1517 12.8612 11.4875 11.1668 11.084 10.7352 10.2446 10.1735 10.0647 9.76732 9.29613 8.89673 10.8745 9.72276 8.8392 10.7709 8.57247 8.33176 7.81812
threshold=0.8029279112815858 -0.99256375432014454 1.2218760251998904 -0.11861746385693549 -0.27436709403991694 -1.3919746279716489 -0.29137244820594782 -0.72383102774620045 -1.5312112569808958 -0.79843419790267933 -0.714270919561386 0.84025683999061596 -0.31256334483623499 -1.0115156471729276 -1.2950436472892759 0.99484089016914379 0.75211575627326976 -1.2918124198913572 -0.28279208391904825 -0.22601555287837979 0.18030384927988055 -0.6032108962535857 -0.91771140694618214 1.2842540740966799 0.11262802779674531 -0.055943060666322701 0.89985245466232311 1.64082407951355 -0.33761726319789881 1.1000489592552187
decision_type=2 2 2 2 2 2 2 2 2 2 2 2 2 2 2 2 2 2 2 2 2 2 2 2 2 2 2 2 2 2
left_child=1 7 11 5 13 19 -7 28 -9 10 -10 -2 16 -5 -14 18 -6 -12 -16 -3 -17 -21 -8 24 -24 -13 -27 -4 -1 -15
right_child=2 3 27 4 12 6 22 8 9 -11 17 25 14 29 15 20 -18 -19 -20 21 -22 -23 23 -25 -26 26 -28 -29 -30 -31
leaf_value=-0.071780215300134828 0.022704401639079077 -0.057963313437413011 0.022593554099256608 0.0092434769361855358 0.024873511916666757 0.0032378955300869094 -0.00046241521148460141 -0.074155215300134844 -0.027583842846782815 -0.043349555908759822 -0.0089116582907855079 -0.049672342388705416 0.028922823448031234 -0.012213375851155917 0.0049309926425879615 0.037210110208549162 -0.0019251232666307018 0.020213898063959814 -0.0066801963601639258 -0.050502640495595767 0.015813760676852962 0.03926507239533026 -0.027328441931006076 -0.093642932517471023 0.019723050652355269 0.036107519747962648 -0.003583894049238201 0.022593554099256608 -0.071780215300134828 -0.050491801659958084
leaf_weight=129 263 80 216 88 237 219 80 89 59 151 23 26 72 335 61 24 74 27 294 29 88 20 259 41 31 29 22 258 119 49
leaf_count=129 263 80 216 88 237 219 80 89 59 151 23 26 72 335 61 24 74 27 294 29 88 20 259 41 31 29 22 258 119 49
internal_value=0.00100229 -0.00877521 0.0331695 -0.00324363 0.00204236 -0.0124506 -0.00904762 -0.028057 -0.0216332 -0.0153846 -0.00137615 0.0188235 0.00717647 -0.00720339 0.00250464 -0.000321199 0.0152733 0.018 -0.00464789 -0.0290698 0.0133929 -0.0112245 -0.0149635 -0.0185801 -0.0151724 0.000649351 0.0127451 0.0434599 -0.0370968 -0.0109375
internal_weight=3492 2678 814 2081 1322 759 630 597 349 260 109 340 850 472 539 467 311 50 355 129 112 49 411 331 290 77 51 474 248 384
internal_count=3492 2678 814 2081 1322 759 630 597 349 260 109 340 850 472 539 467 311 50 355 129 112 49 411 331 290 77 51 474 248 384
is_linear=0
shrinkage=0.05


Tree=30
num_leaves=31
num_cat=0
split_feature=5 5 5 3 9 9 0 14 1 17 17 10 17 15 2 5 9 8 14 16 1 16 4 9 1 3 5 14 17 0
split_gain=452.02 117.628 97.5902 34.2011 30.9027 18.7375 16.7214 27.2091 22.7345 15.687 14.009 13.6382 18.1379 14.6456 14.6084 12.8939 12.5127 12.8591 12.2433 10.8328 10.2053 10.2 9.80038 9.53072 9.33055 9.29832 8.49166 8.3707 8.07961 8.07085
threshold=0.264280416071415 1.1620262861251833 -1.2319626808166502 0.28154830634593969 0.91531136631965648 0.5800282657146455 -0.3008479624986648 -0.86771991848945607 -0.68302702903747547 -1.4270650744438169 0.4920343160629273 0.18962086737155917 0.077256806194782271 0.47200682759284979 0.69618993997573864 1.64082407951355 -0.95858320593833912 -1.0362759232521055 0.39366996288299566 0.48784019052982336 -0.95883628726005543 0.15988755226135257 0.22731441259384158 1.0000000180025095e-35 0.20194904506206515 0.57022365927696239 -0.99256375432014454 -0.61215710639953602 -0.26352964341640467 -0.54736390709877003
decision_type=2 2 2 2 2 2 2 2 2 2 2 2 2 2 2 2 2 2 2 2 2 2 2 2 2 2 2 2 2 2
left_child=2 5 -1 4 6 25 8 -8 -4 -10 18 12 13 22 -14 -3 24 -18 29 26 28 -12 23 -5 -11 27 -19 -2 -9 -7
right_child=1 15 3 11 -6 10 7 20 9 16 21 -13 14 -15 -16 -17 17 19 -20 -21 -22 -23 -24 -25 -26 -27 -28 -29 -30 -31
leaf_value=-0.068191204535128086 -0.0093436050775006062 0.021463876394293771 -0.033369663405479644 0.02449614397068807 -0.048416643918809156 0.025503400063750938 0.032643098746265191 -0.0064388223554209482 0.014791135903353347 0.019810453002022135 0.015510375785395492 0.039320898454525605 -0.022393221148998776 0.030376098624434002 0.018008851582486596 0.021463876394293771 0.028045828752794669 -0.057474327421429022 0.023902306980410206 -0.070662654426223978 -0.016189332133320744 -0.052673988893670969 -0.033867739917521414 -0.00059147347282371152 -0.012145574394037829 0.023330067163518778 -0.012428831364149562 0.023873375095586048 0.010912745789569711 -0.014949142040096808
leaf_weight=369 57 265 259 97 242 20 51 91 29 61 30 26 126 42 25 273 23 25 72 26 298 68 50 111 21 238 136 233 89 67
leaf_count=369 57 265 259 97 242 20 51 91 29 61 30 26 126 42 25 273 23 25 72 26 298 68 50 111 21 238 136 233 89 67
internal_value=0.000909091 0.0239985 -0.012995 -0.00826039 -0.0123242 0.0116561 -0.0087917 -0.00236295 -0.0146552 -0.00576324 0.000583658 0.00324948 0.00121951 0.00833333 -0.0129139 0.0420074 -0.00924658 -0.0157143 0.00974843 -0.0200535 -0.00606695 -0.0142857 0.00387597 0.00865385 0.00731707 0.0170455 -0.0152174 0.0110345 0.00333333 -0.00287356
internal_weight=3520 1323 2197 1828 1351 785 1109 529 580 321 257 477 451 300 151 538 292 210 159 187 478 98 258 208 82 528 161 290 180 87
internal_count=3520 1323 2197 1828 1351 785 1109 529 580 321 257 477 451 300 151 538 292 210 159 187 478 98 258 208 82 528 161 290 180 87
is_linear=0
shrinkage=0.05


Tree=31
num_leaves=31
num_cat=0
split_feature=5 5 13 5 13 3 14 1 13 11 16 5 5 11 5 3 17 7 13 14 1 14 3 10 4 5 10 5 11 2
split_gain=453.825 120.066 55.7084 45.0753 34.6808 26.4424 23.5166 16.9765 14.2881 14.0699 12.1108 12.6776 11.3097 10.4665 9.85675 9.88265 9.62052 10.5755 9.53215 9.49181 9.13484 12.9698 10.5746 8.85815 8.80476 8.54506 8.51973 8.21532 8.12119 7.76798
threshold=0.8029279112815858 -1.2319626808166502 -0.76920533180236805 1.3415753841400149 0.67537838220596325 0.33402456343173986 -0.8047787845134734 -0.041936865076422684 0.56796962022781383 -0.20799039304256436 0.1739790961146355 0.20443069189786914 -0.27436709403991694 -0.067994512617588029 1.0423268079757693 0.74368816614151012 -1.4270650744438169 -0.65196964144706715 0.63658082485198986 -0.35650964081287378 0.74551910161972057 -0.19494993239641187 0.78344264626503002 -0.18898701667785642 -0.35566443204879755 -0.034968197811394923 0.89985245466232311 -0.75316488742828358 -0.98079422116279591 -0.46888655424118036
decision_type=2 2 2 2 2 2 2 2 2 2 2 2 2 2 2 2 2 2 2 2 2 2 2 2 2 2 2 2 2 2
left_child=1 18 7 8 5 6 16 28 13 12 11 23 26 -2 15 -15 -4 -18 -1 24 -7 -22 -23 -11 -9 -26 -8 -19 -3 -6
right_child=3 2 4 -5 29 20 9 19 -10 10 -12 -13 -14 14 -16 -17 17 27 -20 -21 21 22 -24 -25 25 -27 -28 -29 -30 -31
leaf_value=-0.064781644308371675 0.025200421864449731 -0.02259163051720401 0.011873268504953183 0.020390682574579079 0.0007905327393291639 0.01436319247549518 -0.025997399677916058 0.025663995134025109 0.020390682574579079 -0.0085540342563030121 -0.048350420609558978 0.010968934035383949 0.0023716935649387375 -0.039209840733979644 0.021630718282333962 0.023436246716664378 0.011196965746607557 -0.027272238876020583 -0.0062169859305966748 0.028658405344836171 0.010104817105767251 -0.038650264170346983 -0.0013342368561103379 -0.033624837727487769 -0.065801128017863558 0.0061038981913399404 -0.0077273193767873234 0.00096467252627185918 -0.052179467952683335 0.024963178981337111
leaf_weight=348 66 40 37 418 98 239 147 24 216 70 144 44 186 34 53 26 80 50 21 25 147 34 60 120 39 21 118 79 237 299
leaf_count=348 66 40 37 418 98 239 147 24 216 70 144 44 186 34 53 26 80 50 21 25 147 34 60 120 39 21 118 79 237 299
internal_value=0.00125 -0.00858884 -0.00440547 0.0340098 -0.000973361 -0.00434084 -0.00869767 -0.0217617 0.0218987 -0.0127262 -0.0198413 -0.0128205 -0.00676275 0.0114525 0.00221239 -0.0116667 0.00487805 0.000717703 -0.0350949 -0.00504587 0.00541667 -0.00145228 -0.0159574 -0.0184211 -0.0130952 -0.0233333 -0.0133962 -0.00813953 -0.0283394 0.0122166
internal_weight=3520 2707 2338 813 1952 1555 1075 386 395 829 378 234 451 179 113 60 246 209 369 109 480 241 94 190 84 60 265 129 277 397
internal_count=3520 2707 2338 813 1952 1555 1075 386 395 829 378 234 451 179 113 60 246 209 369 109 480 241 94 190 84 60 265 129 277 397
is_linear=0
shrinkage=0.05


Tree=32
num_leaves=31
num_cat=0
split_feature=5 5 13 5 5 9 1 13 3 16 9 13 9 10 14 15 4 13 10 10 1 17 13 17 11 2 4 5 8 6
split_gain=441.319 115.641 50.801 45.0753 34.3255 33.9089 15.5558 14.2881 13.7893 13.312 12.2367 17.0137 12.0658 11.7402 12.5546 11.2056 10.9578 10.8937 14.4778 11.9724 9.98708 9.7742 8.9109 8.62443 8.55772 9.3971 8.06948 10.5826 7.90745 9.0151
threshold=0.8029279112815858 -1.2319626808166502 -0.76920533180236805 1.3415753841400149 0.084731245413422598 1.026814937591553 -0.26908990740776056 0.56796962022781383 0.49670492112636572 -0.057933576405048363 0.35367050766944891 -1.6940844058990476 -2.4071398973464961 -0.71796113252639759 2.339677214622498 -0.78634819388389576 -0.1370473615825176 0.82400348782539379 -0.69853103160858143 -0.77487048506736744 -0.95403724908828724 -1.4270650744438169 0.63658082485198986 -1.0409438014030454 -0.067994512617588029 0.17837816476821902 -0.20991972088813779 0.20443069189786914 -1.7709972262382505 -0.019533933140337464
decision_type=2 2 2 2 2 2 2 2 2 2 2 2 2 2 2 2 2 2 2 2 2 2 2 2 2 2 2 2 2 2
left_child=1 22 6 7 5 12 10 24 13 -7 11 -3 -4 -6 15 -15 -10 18 19 21 28 -14 -1 -22 -2 -26 -8 -28 -20 -30
right_child=3 2 4 -5 8 9 26 -9 16 -11 -12 -13 17 14 -16 -17 -18 -19 20 -21 23 -23 -24 -25 25 -27 27 -29 29 -31
leaf_value=-0.061542562092953106 0.023940400771227235 -0.057846974431892885 0.02398939667783391 0.019371148445850129 -0.01536870665340997 -0.020100278313324216 0.021428903749555195 0.019371148445850129 0.035229044933911172 -0.057696387671724296 -0.071148760626490823 -0.021517065550171389 0.018202062644286365 -0.021066696582432921 -0.035502168639057662 0.01547903537068316 0.019942521960073824 0.018926452910841541 0.013489837183794907 0.028685270046779211 0.0038950151275709446 -0.00049879200313243113 -0.0059061366340668279 -0.02198551906398416 -0.016914559190178879 0.019309146660462375 -0.058973001808205 0.011953902989107413 -0.021373078566197436 0.00068647153871963522
leaf_weight=348 66 57 21 418 59 120 51 216 29 84 92 100 26 30 21 275 236 69 25 24 44 371 21 325 37 76 64 22 32 161
leaf_count=348 66 57 21 418 59 120 51 216 29 84 92 100 26 30 21 275 236 69 25 24 44 371 21 325 37 76 64 22 32 161
internal_value=0.00170455 -0.00799778 -0.00389222 0.0340098 -0.000614754 -0.00529954 -0.0204663 0.0218987 0.00876923 -0.0240196 -0.0279116 -0.0194268 -0.00182149 0.00272727 0.00644172 0.00901639 0.0175472 -0.00255339 -0.00386905 0.00320665 -0.00894378 0.0011335 -0.0340108 -0.0139566 0.0114525 0.00309735 -0.00693431 -0.0162791 -0.000458716 -0.00388601
internal_weight=3520 2707 2338 813 1952 1302 386 395 650 204 249 157 1098 385 326 305 265 1077 1008 421 587 397 369 369 179 113 137 86 218 193
internal_count=3520 2707 2338 813 1952 1302 386 395 650 204 249 157 1098 385 326 305 265 1077 1008 421 587 397 369 369 179 113 137 86 218 193
is_linear=0
shrinkage=0.05


Tree=33
num_leaves=31
num_cat=0
split_feature=5 5 5 2 13 9 13 7 5 13 16 3 13 9 13 0 6 0 6 6 0 14 0 14 3 0 13 11 9 6
split_gain=431.033 110.505 46.0494 40.0672 25.6446 20.9401 19.0051 18.2264 18.177 15.136 13.0145 11.687 11.0283 10.1742 9.92117 9.88878 9.35264 9.19684 10.2871 9.67975 8.70198 8.36881 8.30424 13.5783 9.2093 8.29251 7.7794 7.75598 7.64554 7.44629
threshold=0.8029279112815858 -0.99256375432014454 1.3415753841400149 -0.33943361043930048 -1.5580821037292478 0.40121798217296606 0.74400636553764354 -0.44868229329586024 -1.2918124198913572 0.56796962022781383 0.47170925140380865 0.30770592391490942 -1.5063623189926145 1.337682902812958 0.095220107585191741 0.75674739480018627 0.11937993019819261 0.1244967468082905 1.0547847747802737 -0.8980714976787566 -1.178516089916229 -0.54221874475479115 1.0000000180025095e-35 0.08126384019851686 0.96112197637557995 1.0894744992256167 0.9045836627483369 -0.30530071258544916 0.24138385802507403 0.28948779404163366
decision_type=2 2 2 2 2 2 2 2 2 2 2 2 2 2 2 2 2 2 2 2 2 2 2 2 2 2 2 2 2 2
left_child=1 8 9 4 20 7 11 -6 14 22 -7 13 -10 17 -1 -13 28 19 -19 -5 -3 -14 23 -2 29 26 -18 -12 -8 -24
right_child=2 3 -4 6 5 10 16 -9 12 -11 27 15 21 -15 -16 -17 25 18 -20 -21 -22 -23 24 -25 -26 -27 -28 -29 -30 -31
leaf_value=-0.058465433988305442 0.020099358664726542 -0.03559510620514459 0.018402591023557634 0.0031872593893317539 0.004263102609894087 -0.016845143639802496 0.026552596007323893 -0.011264379734848329 -0.066228151974932023 0.018402591023557634 -0.0040155219250076705 0.0033998265713581334 -0.008969506928268622 -0.060946890925714529 -0.044740777737181263 0.032790550531306507 -0.016646171990629011 0.012257350091489139 -0.021889219103724857 -0.017631927392671831 -0.06734948205872536 -0.043218069283940931 -0.0030759091839712041 -0.043030327677671058 0.025210041323388378 0.025608587381735815 0.025729070813731703 -0.051729050098107847 0.0066338907858930042 0.025354044193344551
leaf_weight=247 65 21 418 65 329 238 65 251 47 216 23 543 146 31 73 48 43 68 23 118 67 88 21 28 22 33 31 77 32 43
leaf_count=247 65 21 418 65 329 238 65 251 47 216 23 543 146 31 73 48 43 68 23 118 67 88 21 28 22 33 31 77 32 43
internal_value=0.00196023 -0.00762837 0.0338868 -0.00223172 -0.00944334 -0.00697168 0.00436364 -0.0012069 -0.0265391 0.0216456 -0.0168639 0.00122768 -0.0172598 -0.00672131 -0.0346875 0.00532995 0.0181373 -0.00364964 0.00934066 -0.0101093 -0.0352273 -0.0128205 0.0108939 0.000537634 0.022093 0.00794393 -0.00135135 -0.032 0.0293814 0.0125
internal_weight=3520 2707 813 2106 1006 918 1100 580 601 395 338 896 281 305 320 591 204 274 91 183 88 234 179 93 86 107 74 100 97 64
internal_count=3520 2707 813 2106 1006 918 1100 580 601 395 338 896 281 305 320 591 204 274 91 183 88 234 179 93 86 107 74 100 97 64
is_linear=0
shrinkage=0.05


Tree=34
num_leaves=31
num_cat=0
split_feature=5 5 5 13 13 2 9 13 3 13 5 16 9 0 16 5 4 9 0 14 14 0 16 9 4 13 16 0 6 3
split_gain=414.083 110.501 50.0499 37.9931 20.1183 19.8508 19.4048 18.1071 17.1287 17.0612 15.4829 12.2851 11.7206 10.5496 9.60013 9.3346 14.5918 8.74661 10.9837 8.42409 8.14203 12.4433 9.91539 7.54804 10.0865 13.0188 8.86948 9.39103 7.46669 7.46667
threshold=0.8029279112815858 -0.99256375432014454 1.3415753841400149 -0.0071854733396321526 -1.4509213566780088 1.0000000180025095e-35 -0.08449858799576758 -0.74257913231849659 -0.24113818258047101 0.56796962022781383 -1.4115117788314817 0.48784019052982336 1.026814937591553 -0.28025968372821802 0.53746908903121959 -0.27436709403991694 -0.57428148388862599 0.012336492072790863 0.068601764738559737 -0.75566929578781117 -0.53063863515853871 -0.78703394532203663 -0.74436849355697621 -0.29137244820594782 0.51880384981632244 0.52468794584274303 0.1739790961146355 0.75674739480018627 -0.86335247755050648 0.11164693906903268
decision_type=2 2 2 2 2 2 2 2 2 2 2 2 2 2 2 2 2 2 2 2 2 2 2 2 2 2 2 2 2 2
left_child=1 7 9 4 8 12 28 -1 -3 17 -9 13 15 -8 -14 16 -5 -2 -19 -18 21 22 -12 24 -7 -26 -25 -28 -6 -15
